\data\
ngram 1=70
ngram 2=533
ngram 3=1275

\1-grams:
-2.4044807	<unk>	0
0	<s>	-1.8016552
-0.94523203	</s>	0
-1.03244	:root	-0.6157259
-1.3563294	:mod	-0.5211176
-2.0770257	:ord	-0.29943317
-1.8537691	:poss	-0.327809
-1.2429436	:arg1-of	-0.53313106
-1.4845892	:time	-0.41849935
-1.4157416	:arg0	-0.5065573
-1.3208046	:arg1	-0.5018104
-1.6310779	:arg2	-0.3780293
-1.510198	:manner	-0.48664278
-1.9162414	:condition	-0.24527223
-1.7991635	:arg2-of	-0.24978665
-2.368421	:conj-as-if	-0.22629654
-1.5975606	:polarity	-0.43470675
-1.6310779	:location	-0.38005581
-1.8537691	:mode	-0.34097168
-1.5374119	:arg0-of	-0.4398791
-1.6673999	:degree	-0.44391114
-1.7070391	:quant	-0.4019973
-1.7070391	:op1	-0.46626323
-1.6673999	:purpose	-0.5295479
-1.9892349	:arg4	-0.35100383
-2.1871784	:part-of	-0.24828069
-1.8537691	:domain	-0.28354096
-1.9892349	:direction	-0.24331835
-2.3351274	:compared-to	-0.25485143
-2.1871784	:destination	-0.23938891
-2.1871784	:arg3	-0.25014862
-2.368421	:part	-0.22629654
-2.3351274	:location-of	-0.23938891
-2.368421	:snt1	-0.22629654
-2.368421	:snt2	-0.24834171
-2.0770257	:frequency	-0.25055993
-1.9892349	:op2	-0.28684825
-1.9162414	:duration	-0.29103574
-2.3351274	:op3	-0.24272461
-2.3351274	:op4	-0.24834171
-2.368421	:manner-of	-0.22629654
-2.2615952	:snt3	-0.22629654
-1.9162414	:consist-of	-0.35081875
-2.0770257	:source	-0.35100383
-2.2615952	:accompanier	-0.22629654
-2.368421	:polite	-0.24834171
-1.9892349	:beneficiary	-0.2998513
-2.2615952	:arg3-of	-0.22629654
-2.368421	:time-of	-0.22629654
-2.368421	:topic	-0.22629654
-2.0770257	:concession	-0.24185938
-2.0770257	:extent	-0.2558632
-2.3351274	:op5	-0.22629654
-2.368421	:op6	-0.22629654
-2.368421	:condition-of	-0.22629654
-2.368421	:range	-0.22629654
-2.2615952	:poss-of	-0.22629654
-1.9892349	:instrument	-0.29943317
-2.368421	:subevent-of	-0.25979862
-2.3351274	:path	-0.24824409
-2.2615952	:quant-of	-0.22629654
-2.368421	:duration-of	-0.22629654
-2.2615952	:purpose-of	-0.22629654
-2.368421	:source-of	-0.22629654
-2.368421	:arg4-of	-0.24834171
-2.368421	:arg5	-0.22629654
-2.368421	:example	-0.25979862
-2.2615952	:unit	-0.22629654
-2.368421	:concession-of	-0.25979862
-2.2615952	:op1-of	-0.22629654

\2-grams:
-2.7014017	<s> </s>	0
-0.7921636	:root </s>	0
-0.6729148	:mod </s>	0
-0.9911747	:ord </s>	0
-0.9734927	:poss </s>	0
-0.5311747	:arg1-of </s>	0
-0.67182404	:time </s>	0
-0.79534346	:arg0 </s>	0
-0.6362138	:arg1 </s>	0
-0.5844616	:arg2 </s>	0
-0.41039056	:manner </s>	0
-0.8083566	:condition </s>	0
-0.8102235	:arg2-of </s>	0
-0.5679491	:conj-as-if </s>	0
-0.8293033	:polarity </s>	0
-0.45330048	:location </s>	0
-0.4948905	:mode </s>	0
-0.4764547	:arg0-of </s>	0
-0.7813698	:degree </s>	0
-0.99218524	:quant </s>	0
-1.0516188	:op1 </s>	0
-0.23330702	:purpose </s>	0
-0.37221667	:arg4 </s>	0
-0.62961704	:part-of </s>	0
-1.0078923	:domain </s>	0
-0.8520252	:direction </s>	0
-0.71734756	:compared-to </s>	0
-0.6100338	:destination </s>	0
-0.7508179	:arg3 </s>	0
-0.6100338	:location-of </s>	0
-0.43869287	:snt2 </s>	0
-0.8131823	:frequency </s>	0
-0.61888295	:op2 </s>	0
-0.49378955	:duration </s>	0
-0.75099504	:op3 </s>	0
-0.66937447	:op4 </s>	0
-0.5679491	:manner-of </s>	0
-0.32469442	:snt3 </s>	0
-0.7280561	:consist-of </s>	0
-0.37221667	:source </s>	0
-0.32469442	:accompanier </s>	0
-0.45289168	:beneficiary </s>	0
-0.32469442	:arg3-of </s>	0
-0.5679491	:time-of </s>	0
-0.7723726	:topic </s>	0
-0.58510536	:concession </s>	0
-0.67161036	:extent </s>	0
-0.69305646	:op5 </s>	0
-0.5679491	:op6 </s>	0
-0.5679491	:condition-of </s>	0
-0.5679491	:range </s>	0
-0.32469442	:poss-of </s>	0
-0.49529696	:instrument </s>	0
-0.29024395	:subevent-of </s>	0
-0.47238848	:path </s>	0
-0.32469442	:quant-of </s>	0
-0.69305646	:source-of </s>	0
-0.43869287	:arg4-of </s>	0
-0.5679491	:arg5 </s>	0
-0.29024395	:example </s>	0
-0.29024395	:concession-of </s>	0
-0.39583805	<s> :root	-1.4144211
-0.60880095	:mod :root	-1.3068533
-0.5096006	:ord :root	-0.42152283
-0.52234036	:poss :root	-1.2587637
-0.64941424	:arg1-of :root	-0.907868
-0.9976219	:time :root	-0.76660466
-0.6312125	:arg0 :root	-1.2922417
-0.82354563	:arg1 :root	-1.1926203
-1.033365	:arg2 :root	-0.9057529
-0.92515635	:manner :root	-0.55301565
-0.84243363	:condition :root	-0.48725885
-0.9498539	:arg2-of :root	-0.5300719
-0.54226226	:polarity :root	-1.0145257
-1.185991	:location :root	-0.40116152
-1.2032187	:mode :root	-0.17919563
-0.85745394	:arg0-of :root	-0.660993
-0.41995096	:degree :root	-1.0360254
-0.4141965	:quant :root	-0.84006035
-0.35569346	:op1 :root	-1.3903172
-1.0948428	:purpose :root	-0.17919563
-1.0630772	:arg4 :root	-0.17919563
-0.9864974	:part-of :root	-0.8892782
-0.71086115	:domain :root	-0.865335
-0.9870847	:direction :root	-0.22450294
-0.74415654	:compared-to :root	-0.17919563
-0.87063175	:destination :root	-0.17919563
-0.7801751	:arg3 :root	-0.42600232
-0.72013843	:part :root	-0.17919563
-0.87063175	:location-of :root	-0.17919563
-0.5880927	:snt1 :root	-0.27629602
-0.72448826	:frequency :root	-0.7338567
-0.93105865	:op2 :root	-0.577326
-1.0333647	:duration :root	-0.24991107
-0.98366666	:op3 :root	-0.17919563
-0.69367266	:op4 :root	-0.3027852
-0.5880927	:manner-of :root	-0.17919563
-0.42268884	:consist-of :root	-0.76179445
-1.0630772	:source :root	-0.25756684
-0.4528131	:polite :root	-0.23660885
-1.0119247	:beneficiary :root	-0.3027852
-0.5880927	:time-of :root	-0.17919563
-0.8050902	:topic :root	-0.17919563
-0.95393276	:concession :root	-0.17919563
-0.5545005	:extent :root	-0.3468211
-0.5880927	:range :root	-0.17919563
-0.8338139	:instrument :root	-0.17919563
-0.5880927	:duration-of :root	-0.17919563
-0.33608463	:purpose-of :root	-0.17919563
-0.72013843	:source-of :root	-0.24991107
-0.33608463	:unit :root	-0.17919563
-1.0396961	<s> :mod	-1.4844546
-1.3714349	:root :mod	-1.089808
-1.2356548	:mod :mod	-0.6825417
-1.1725284	:ord :mod	-0.17919563
-1.1327682	:poss :mod	-0.4159252
-1.364367	:arg1-of :mod	-0.5258065
-1.4298899	:time :mod	-0.17919563
-1.344464	:arg0 :mod	-0.73996675
-1.304015	:arg1 :mod	-0.73950624
-1.3058314	:arg2 :mod	-0.27509338
-1.6013135	:manner :mod	-0.3027852
-1.283157	:condition :mod	-0.17919563
-0.93649423	:arg2-of :mod	-0.25756684
-1.4186121	:polarity :mod	-0.28669864
-1.3484148	:location :mod	-0.3027852
-1.0463176	:arg0-of :mod	-0.3027852
-1.5103031	:degree :mod	-0.17919563
-1.1289729	:quant :mod	-0.4981448
-1.2071623	:domain :mod	-0.6411122
-0.7917864	:part :mod	-0.17919563
-1.1697503	:duration :mod	-0.17919563
-1.2201276	:consist-of :mod	-0.17919563
-0.89390266	:topic :mod	-0.17919563
-0.7917864	:op5 :mod	-0.17919563
-2.4287002	<s> :ord	-0.7439518
-2.2931578	:root :ord	-0.31399804
-1.5555488	:poss :ord	-0.17919563
-2.1157482	:arg1-of :ord	-0.17919563
-2.0335567	:time :ord	-0.17919563
-1.5887357	<s> :poss	-1.3066988
-1.8286581	:root :poss	-1.0150882
-2.0162425	:mod :poss	-0.27629602
-1.726275	:time :poss	-0.3027852
-1.4565187	:arg2-of :poss	-0.17919563
-1.573617	:mode :poss	-0.17919563
-1.6029907	:domain :poss	-0.17919563
-0.38254896	:op1-of :poss	-0.17919563
-1.6310568	<s> :arg1-of	-1.0594605
-1.0984739	:root :arg1-of	-1.0798758
-1.2070581	:mod :arg1-of	-0.44600576
-0.89032596	:ord :arg1-of	-0.25756684
-1.2944975	:poss :arg1-of	-0.17919563
-1.2226934	:arg1-of :arg1-of	-0.6892438
-1.3749621	:time :arg1-of	-0.3468211
-1.3068691	:arg0 :arg1-of	-0.4159252
-1.4878932	:arg1 :arg1-of	-0.6020936
-1.3526319	:arg2 :arg1-of	-0.3190152
-1.5327499	:manner :arg1-of	-0.17919563
-1.0337653	:condition :arg1-of	-0.25756684
-1.0353453	:arg2-of :arg1-of	-0.17919563
-1.5098798	:polarity :arg1-of	-0.17919563
-1.2983817	:location :arg1-of	-0.17919563
-1.3337414	:mode :arg1-of	-0.17919563
-1.4756213	:arg0-of :arg1-of	-0.17919563
-1.4484643	:degree :arg1-of	-0.17919563
-1.0995729	:quant :arg1-of	-0.22503774
-0.83917344	:part-of :arg1-of	-0.25756684
-1.1617799	:domain :arg1-of	-0.6291213
-1.0467238	:compared-to :arg1-of	-0.17919563
-1.1806365	:arg3 :arg1-of	-0.17919563
-0.7713048	:part :arg1-of	-0.17919563
-0.9131413	:frequency :arg1-of	-0.3027852
-1.2163411	:op2 :arg1-of	-0.17919563
-1.1798407	:consist-of :arg1-of	-0.25756684
-1.1512254	:source :arg1-of	-0.17919563
-1.042081	:concession :arg1-of	-0.17919563
-0.9450283	:path :arg1-of	-0.17919563
-0.77563554	:arg4-of :arg1-of	-0.17919563
-1.6101667	<s> :time	-0.8820155
-1.6423824	:root :time	-0.57697964
-1.6600538	:mod :time	-0.17919563
-1.2026004	:time :time	-0.30159262
-1.0875921	:arg0 :time	-0.6237925
-1.2460278	:arg1 :time	-0.7124493
-1.3493408	:arg2 :time	-0.4929491
-1.6701541	:manner :time	-0.17919563
-1.3400738	:condition :time	-0.17919563
-1.3436439	:polarity :time	-0.8308986
-1.5917345	:location :time	-0.17919563
-1.3975347	:arg0-of :time	-0.17919563
-1.2238399	:arg4 :time	-0.17919563
-1.4595101	:domain :time	-0.17919563
-1.3843375	:direction :time	-0.24991107
-1.2818171	:arg3 :time	-0.17919563
-1.317261	:op2 :time	-0.17919563
-1.2106549	:instrument :time	-0.17919563
-0.8735915	<s> :arg0	-1.4717541
-1.3191532	:root :arg0	-1.3026772
-1.6276345	:mod :arg0	-0.54197115
-1.3812649	:arg1-of :arg0	-0.44688648
-1.098042	:time :arg0	-0.7687305
-1.3198004	:arg1 :arg0	-1.2366081
-1.437211	:arg2 :arg0	-0.615028
-1.3148602	:manner :arg0	-0.2348168
-1.3106837	:condition :arg0	-0.4429218
-0.6461642	:conj-as-if :arg0	-0.17919563
-1.3242624	:polarity :arg0	-0.38094485
-1.3717577	:location :arg0	-0.38094485
-1.4223279	:mode :arg0	-0.17919563
-1.5745507	:arg0-of :arg0	-0.17919563
-1.539762	:degree :arg0	-0.17919563
-1.1917367	:purpose :arg0	-0.3468211
-1.424319	:domain :arg0	-0.17919563
-1.142983	:direction :arg0	-0.17919563
-1.2063925	:frequency :arg0	-0.27629602
-1.1886436	:duration :arg0	-0.17919563
-1.1911733	:instrument :arg0	-0.3027852
-0.967394	<s> :arg1	-1.4501879
-1.1110353	:root :arg1	-1.434575
-1.3380022	:mod :arg1	-0.8519711
-1.1605288	:ord :arg1	-0.17919563
-1.5017751	:arg1-of :arg1	-0.66477054
-1.078987	:time :arg1	-0.5965446
-1.3333864	:arg0 :arg1	-0.91029423
-1.0155799	:arg2 :arg1	-0.8908891
-0.982451	:manner :arg1	-0.6020936
-1.2657298	:condition :arg1	-0.3027852
-1.2679846	:arg2-of :arg1	-0.17919563
-1.1235884	:polarity :arg1	-0.8060176
-1.333522	:location :arg1	-0.38094485
-1.045651	:mode :arg1	-0.17919563
-1.5222752	:arg0-of :arg1	-0.17919563
-1.4917185	:degree :arg1	-0.577326
-1.4201827	:purpose :arg1	-0.17919563
-1.1117939	:direction :arg1	-0.55094105
-0.99186677	:arg3 :arg1	-0.25756684
-1.1710678	:frequency :arg1	-0.27629602
-1.1265845	:beneficiary :arg1	-0.17919563
-1.0685925	:concession :arg1	-0.17919563
-1.0259913	:extent :arg1	-0.3027852
-0.6355816	:condition-of :arg1	-0.17919563
-0.6355816	:duration-of :arg1	-0.17919563
-0.6355816	:arg5 :arg1	-0.17919563
-1.8726429	<s> :arg2	-0.93508035
-1.425765	:root :arg2	-1.4377184
-1.720123	:mod :arg2	-0.31399804
-1.7352935	:arg1-of :arg2	-0.17919563
-1.6505258	:time :arg2	-0.3027852
-1.5938077	:arg0 :arg2	-0.27509338
-1.4878483	:arg1 :arg2	-1.0453953
-1.737243	:manner :arg2	-0.17919563
-1.7328376	:polarity :arg2	-0.23660885
-1.2542604	:mode :arg2	-0.3027852
-1.629757	:degree :arg2	-0.17919563
-1.4447166	:direction :arg2	-0.3027852
-1.3280114	:arg3 :arg2	-0.17919563
-2.4131517	<s> :manner	-0.57727003
-1.5356362	:root :manner	-0.70580226
-1.832117	:mod :manner	-0.17919563
-1.6862558	:arg1-of :manner	-0.25756684
-1.5981997	:time :manner	-0.25756684
-1.3856244	:arg0 :manner	-0.42600232
-1.4573811	:arg1 :manner	-0.48703042
-1.6543314	:arg2 :manner	-0.17919563
-1.6052072	:location :manner	-0.17919563
-1.5824325	:degree :manner	-0.17919563
-1.3957604	:direction :manner	-0.17919563
-1.0042665	:destination :manner	-0.17919563
-1.2368786	:frequency :manner	-0.17919563
-1.2151853	:duration :manner	-0.17919563
-1.2299627	:source :manner	-0.17919563
-1.2173479	:instrument :manner	-0.17919563
-1.005845	:path :manner	-0.17919563
-2.2393928	<s> :condition	-0.55702394
-2.1203523	:root :condition	-0.23660885
-2.0365748	:arg0 :condition	-0.17919563
-2.0894105	:arg1 :condition	-0.40123478
-1.8444126	:arg2 :condition	-0.3027852
-1.5733817	:op1 :condition	-0.17919563
-1.4259185	:op2 :condition	-0.17919563
-2.561173	<s> :arg2-of	-0.5608298
-2.0711613	:root :arg2-of	-0.53584677
-1.5037072	:poss :arg2-of	-0.17919563
-2.0061545	:arg1-of :arg2-of	-0.17919563
-1.9165151	:time :arg2-of	-0.17919563
-1.9845928	:arg0 :arg2-of	-0.17919563
-1.7995442	:manner :arg2-of	-0.17919563
-1.469738	:arg0-of :arg2-of	-0.17919563
-1.5863129	:domain :arg2-of	-0.17919563
-2.246524	:arg1 :conj-as-if	-0.17919563
-1.5304285	:arg2-of :conj-as-if	-0.17919563
-1.7080276	<s> :polarity	-1.0112991
-1.7553781	:root :polarity	-0.70187116
-1.7074262	:mod :polarity	-0.25756684
-1.7225053	:arg1-of :polarity	-0.17919563
-1.6368414	:time :polarity	-0.17919563
-1.1800352	:arg0 :polarity	-1.0513856
-1.6483463	:arg1 :polarity	-0.7691058
-1.7031591	:arg2 :polarity	-0.17919563
-1.6483307	:location :polarity	-0.3027852
-1.4972168	:mode :polarity	-0.3027852
-1.6174338	:degree :polarity	-0.17919563
-1.5113608	:domain :polarity	-0.43893677
-1.318371	:arg3 :polarity	-0.17919563
-0.82498	:polite :polarity	-0.17919563
-2.1662967	<s> :location	-0.44482005
-1.3533973	:root :location	-0.94097215
-1.7352935	:arg1-of :location	-0.25756684
-1.9323964	:arg1 :location	-0.7534173
-1.519184	:arg2 :location	-0.27629602
-1.737243	:manner :location	-0.17919563
-1.7328376	:polarity :location	-0.17919563
-1.29125	:arg0-of :location	-0.25756684
-1.514933	:op1 :location	-0.17919563
-1.5253519	:domain :location	-0.17919563
-1.4447166	:direction :location	-0.17919563
-1.02366	:destination :location	-0.17919563
-1.2434552	:duration :location	-0.17919563
-2.7355042	<s> :mode	-0.22984174
-1.7390176	:root :mode	-0.88418716
-2.0162425	:mod :mode	-0.17919563
-1.9429529	:time :mode	-0.17919563
-2.0098066	:arg0 :mode	-0.17919563
-2.0589771	:arg1 :mode	-0.17919563
-1.5795832	:arg2 :mode	-0.25756684
-1.2381858	:beneficiary :mode	-0.17919563
-2.270014	<s> :arg0-of	-0.75329834
-1.4937872	:root :arg0-of	-1.1348723
-1.395038	:mod :arg0-of	-0.3027852
-1.4256455	:poss :arg0-of	-0.17919563
-1.8630471	:arg1-of :arg0-of	-0.24991107
-1.7662454	:time :arg0-of	-0.17919563
-1.8710579	:arg1 :arg0-of	-0.27629602
-1.6700052	:arg2 :arg0-of	-0.17919563
-1.6868025	:polarity :arg0-of	-0.17919563
-1.4136878	:location :arg0-of	-0.17919563
-1.4744706	:mode :arg0-of	-0.17919563
-1.4125745	:arg0-of :arg0-of	-0.28669864
-1.5463979	:quant :arg0-of	-0.17919563
-1.484662	:domain :arg0-of	-0.27629602
-1.4074919	:direction :arg0-of	-0.17919563
-0.9253348	:topic :arg0-of	-0.17919563
-1.6586852	<s> :degree	-1.4468864
-1.7784576	:root :degree	-0.80662143
-1.4201293	:mod :degree	-0.34997648
-1.7484697	:arg1-of :degree	-0.27629602
-1.5440334	:time :degree	-0.27629602
-1.9166998	:arg0 :degree	-0.6020936
-1.2740406	:arg1 :degree	-0.86308324
-1.7390547	:arg2 :degree	-0.17919563
-1.1832296	:polarity :degree	-0.4981448
-1.2980514	:domain :degree	-0.9902738
-0.85204476	:compared-to :degree	-0.3468211
-1.2107902	:beneficiary :degree	-0.17919563
-1.846884	<s> :quant	-0.8918835
-1.707705	:root :quant	-0.566579
-1.6178181	:mod :quant	-0.29198453
-1.7418287	:arg0 :quant	-0.17919563
-1.4188534	:arg2-of :quant	-0.17919563
-1.7664834	:polarity :quant	-0.17919563
-1.6962129	:location :quant	-0.3027852
-1.5335554	:op1 :quant	-0.17919563
-1.208676	:part-of :quant	-0.3027852
-1.5547636	:domain :quant	-0.3027852
-0.8325933	:source-of :quant	-0.17919563
-1.5097693	<s> :op1	-1.4960402
-1.5256987	:root :op1	-1.5526458
-1.9458342	:mod :op1	-0.17919563
-1.5550511	:time :op1	-0.4981448
-1.6962129	:location :op1	-0.17919563
-1.6555051	:degree :op1	-0.17919563
-1.6072836	:quant :op1	-0.40123478
-1.5547636	:domain :op1	-0.17919563
-1.100158	:op2 :op1	-0.3468211
-1.207675	:op3 :op1	-0.17919563
-1.1594868	:concession :op1	-0.3027852
-2.886652	<s> :purpose	-0.3658799
-1.5191259	:root :purpose	-1.009579
-1.6077553	:mod :purpose	-0.25756684
-1.9389832	:arg1-of :purpose	-0.17919563
-1.7280433	:arg0 :purpose	-0.40123478
-1.3709214	:arg1 :purpose	-0.55094105
-1.5306104	:arg2 :purpose	-0.3027852
-1.7493348	:polarity :purpose	-0.17919563
-1.6796587	:location :purpose	-0.17919563
-1.6424403	:degree :purpose	-0.17919563
-1.201301	:part-of :purpose	-0.3027852
-1.4578693	:direction :purpose	-0.25756684
-3.4441676	<s> :arg4	-0.3027852
-1.8561165	:root :arg4	-0.615028
-1.7607073	:time :arg4	-0.3027852
-2.1221385	:arg1 :arg4	-0.17919563
-1.5680279	:manner :arg4	-0.17919563
-1.5464404	:direction :arg4	-0.3027852
-2.026531	<s> :part-of	-1.089589
-2.2064834	:root :part-of	-0.8311019
-1.5695373	:poss :part-of	-0.17919563
-1.7100394	:quant :part-of	-0.17919563
-1.5141243	<s> :domain	-1.0156292
-1.6013494	:root :domain	-0.6110556
-2.0310705	:arg1-of :domain	-0.3027852
-1.9429529	:time :domain	-0.3027852
-1.455497	:condition :domain	-0.17919563
-1.82241	:polarity :domain	-0.17919563
-1.750036	:location :domain	-0.17919563
-1.6483846	:quant :domain	-0.17919563
-3.1667156	<s> :direction	-0.40123478
-1.6833892	:root :direction	-0.5587347
-1.8925536	:arg1 :direction	-0.22450294
-1.8689396	:arg2 :direction	-0.17919563
-1.3037127	:arg4 :direction	-0.17919563
-1.5464404	:direction :direction	-0.17919563
-3.5674415	<s> :compared-to	-0.17919563
-2.0379658	:root :compared-to	-0.75834787
-1.4557865	:degree :compared-to	-0.24991107
-3.7171483	<s> :destination	-0.17919563
-2.5293443	:root :destination	-0.25756684
-2.1480885	:arg1-of :destination	-0.17919563
-1.3185792	:source :destination	-0.17919563
-3.074891	<s> :arg3	-0.2348168
-1.7846226	:root :arg3	-0.6105081
-1.8529516	:arg0 :arg3	-0.3027852
-1.9345955	:arg1 :arg3	-0.4929491
-3.5761678	<s> :part	-0.17919563
-2.616451	:root :part	-0.17919563
-3.428625	<s> :location-of	-0.25756684
-2.3785713	:root :location-of	-0.7270323
-1.0763085	:location-of :location-of	-0.17919563
-3.4349465	<s> :snt1	-0.27629602
-2.616451	:root :snt1	-0.17919563
-2.616451	:root :snt2	-0.25756684
-0.6869782	:snt1 :snt2	-0.17919563
-2.4550824	<s> :frequency	-0.5525025
-2.1758354	:root :frequency	-0.2348168
-2.095636	:arg0 :frequency	-0.3027852
-1.9130659	:arg1 :frequency	-0.17919563
-1.8949353	:arg2 :frequency	-0.17919563
-3.0453472	<s> :op2	-0.3468211
-2.2560225	:root :op2	-1.5947142
-2.0012093	:time :op2	-0.27629602
-1.4827794	:condition :op2	-0.17919563
-1.6023936	:mode :op2	-0.17919563
-0.87007064	:op1 :op2	-1.0624162
-3.0312963	<s> :duration	-0.3468211
-2.1203523	:root :duration	-0.3468211
-1.9711049	:time :duration	-0.17919563
-2.0365748	:arg0 :duration	-0.17919563
-2.0894105	:arg1 :duration	-0.17919563
-1.834402	:manner :duration	-0.17919563
-1.561114	:purpose :duration	-0.17919563
-3.790005	<s> :op3	-0.17919563
-2.6018593	:root :op3	-0.2348168
-1.1447829	:op2 :op3	-0.6379396
-0.9385687	:op3 :op4	-0.22503774
-1.153076	:op4 :op4	-0.17919563
-0.6865505	:op6 :op4	-0.17919563
-3.8046725	<s> :manner-of	-0.17919563
-2.616451	:root :manner-of	-0.27629602
-0.8586697	:snt2 :snt3	-0.17919563
-2.742558	<s> :consist-of	-0.7534173
-1.9593588	:root :consist-of	-0.28669864
-1.8052534	:mod :consist-of	-0.17919563
-1.5288548	:poss :consist-of	-0.17919563
-1.8211104	:arg1-of :consist-of	-0.17919563
-1.4698365	:arg2-of :consist-of	-0.17919563
-1.7695689	:location :consist-of	-0.17919563
-2.9622295	<s> :source	-0.26683053
-2.2931578	:root :source	-0.23660885
-2.1157482	:arg1-of :source	-0.17919563
-2.095636	:arg0 :source	-0.17919563
-2.1575353	:arg1 :source	-0.17919563
-2.3576317	:root :accompanier	-0.40123478
-3.2313895	<s> :polite	-0.24991107
-1.5300579	:condition :polite	-0.17919563
-3.1667156	<s> :beneficiary	-0.23660885
-1.9777173	:root :beneficiary	-0.577326
-1.5419967	:poss :beneficiary	-0.17919563
-1.8372194	:arg1-of :beneficiary	-0.3027852
-2.1221385	:arg1 :beneficiary	-0.17919563
-1.6023936	:mode :beneficiary	-0.17919563
-2.3576317	:root :arg3-of	-0.27629602
-3.8046725	<s> :time-of	-0.17919563
-2.2457335	:root :time-of	-0.27629602
-3.4349465	<s> :topic	-0.25756684
-2.2457335	:root :topic	-0.4929491
-3.3645587	<s> :concession	-0.25756684
-2.4672225	:root :concession	-0.25756684
-2.1157482	:arg1-of :concession	-0.17919563
-2.0335567	:time :concession	-0.17919563
-1.8723038	:manner :concession	-0.17919563
-3.3645587	<s> :extent	-0.27629602
-2.4672225	:root :extent	-0.3658799
-2.095636	:arg0 :extent	-0.17919563
-2.1575353	:arg1 :extent	-0.17919563
-1.0652558	:location-of :extent	-0.17919563
-2.6018593	:root :op5	-0.3027852
-1.2723978	:op3 :op5	-0.17919563
-1.153076	:op4 :op5	-0.17919563
-1.2739869	:op3 :op6	-0.17919563
-0.8603923	:op5 :op6	-0.17919563
-3.8046725	<s> :condition-of	-0.17919563
-2.616451	:root :condition-of	-0.17919563
-3.8046725	<s> :range	-0.17919563
-1.957711	:arg2 :range	-0.17919563
-1.688093	:domain :poss-of	-0.17919563
-3.335753	<s> :instrument	-0.25756684
-2.2560225	:root :instrument	-0.2348168
-2.0012093	:time :instrument	-0.17919563
-2.065102	:arg0 :instrument	-0.17919563
-2.1221385	:arg1 :instrument	-0.3027852
-1.5464404	:direction :instrument	-0.17919563
-2.616451	:root :subevent-of	-0.3027852
-2.246524	:arg1 :subevent-of	-0.3027852
-2.2394593	:root :path	-0.25756684
-2.1830323	:arg1-of :path	-0.17919563
-2.238371	:arg1 :path	-0.17919563
-2.5673912	:root :quant-of	-0.17919563
-3.8046725	<s> :duration-of	-0.17919563
-2.616451	:root :duration-of	-0.17919563
-3.755367	<s> :purpose-of	-0.17919563
-3.0933428	<s> :source-of	-0.3468211
-2.616451	:root :source-of	-0.27629602
-2.3872383	:root :arg4-of	-0.17919563
-1.8623598	:location :arg4-of	-0.17919563
-2.616451	:root :arg5	-0.17919563
-1.3276093	:arg4 :arg5	-0.17919563
-2.616451	:root :example	-0.17919563
-1.8623598	:location :example	-0.17919563
-1.7191683	:quant :unit	-0.17919563
-2.616451	:root :concession-of	-0.17919563
-2.246524	:arg1 :concession-of	-0.17919563
-3.755367	<s> :op1-of	-0.17919563

\3-grams:
-0.82231915	<s> :root </s>
-0.09764618	:mod :root </s>
-0.3252112	:ord :root </s>
-0.034306977	:poss :root </s>
-0.13423996	:arg1-of :root </s>
-0.6511852	:time :root </s>
-0.6630853	:arg0 :root </s>
-0.56907004	:arg1 :root </s>
-0.2854569	:arg2 :root </s>
-0.41784543	:manner :root </s>
-0.865759	:condition :root </s>
-0.20029101	:arg2-of :root </s>
-0.38123646	:polarity :root </s>
-0.31840807	:location :root </s>
-0.35173875	:mode :root </s>
-0.14438774	:arg0-of :root </s>
-0.12778428	:degree :root </s>
-0.14659135	:quant :root </s>
-1.1175408	:op1 :root </s>
-0.6585437	:purpose :root </s>
-0.5593145	:arg4 :root </s>
-0.09359707	:part-of :root </s>
-0.1217537	:domain :root </s>
-0.5271825	:direction :root </s>
-0.5593145	:compared-to :root </s>
-0.35173875	:destination :root </s>
-0.20121607	:arg3 :root </s>
-0.35173875	:part :root </s>
-0.5593145	:location-of :root </s>
-0.111537054	:frequency :root </s>
-0.306523	:op2 :root </s>
-0.35282293	:duration :root </s>
-0.5593145	:op3 :root </s>
-0.35173875	:manner-of :root </s>
-0.08151973	:consist-of :root </s>
-0.3727794	:source :root </s>
-0.25568226	:extent :root </s>
-0.5593145	:instrument :root </s>
-0.35173875	:duration-of :root </s>
-0.35173875	:purpose-of :root </s>
-0.35282293	:source-of :root </s>
-0.10191345	:root :mod </s>
-1.0469726	:mod :mod </s>
-0.42201304	:arg1-of :mod </s>
-1.2234634	:arg0 :mod </s>
-0.3106324	:arg1 :mod </s>
-0.5037288	:arg2 :mod </s>
-0.2162597	:manner :mod </s>
-0.31998128	:condition :mod </s>
-0.3448257	:arg2-of :mod </s>
-0.44762006	:location :mod </s>
-0.44762006	:arg0-of :mod </s>
-0.5105298	:quant :mod </s>
-1.225982	:domain :mod </s>
-0.31998128	:part :mod </s>
-0.31998128	:op5 :mod </s>
-0.34530306	:root :ord </s>
-2.090933	<s> :poss </s>
-0.052434456	:root :poss </s>
-0.088574246	:root :arg1-of </s>
-0.51412785	:mod :arg1-of </s>
-0.56012195	:ord :arg1-of </s>
-0.083581045	:arg1-of :arg1-of </s>
-0.6988576	:time :arg1-of </s>
-0.5948879	:arg0 :arg1-of </s>
-0.15022421	:arg1 :arg1-of </s>
-0.49797794	:arg2 :arg1-of </s>
-0.2733543	:manner :arg1-of </s>
-0.43906674	:arg2-of :arg1-of </s>
-0.5121377	:location :arg1-of </s>
-0.2733543	:mode :arg1-of </s>
-0.2733543	:arg0-of :arg1-of </s>
-0.2733543	:degree :arg1-of </s>
-0.38652712	:quant :arg1-of </s>
-0.56012195	:part-of :arg1-of </s>
-0.2733543	:compared-to :arg1-of </s>
-0.18803312	:frequency :arg1-of </s>
-0.2733543	:op2 :arg1-of </s>
-0.30335584	:consist-of :arg1-of </s>
-0.2733543	:path :arg1-of </s>
-0.2733543	:arg4-of :arg1-of </s>
-0.22122921	:root :time </s>
-0.50868964	:mod :time </s>
-0.73625606	:time :time </s>
-1.0165315	:arg0 :time </s>
-0.22278383	:arg1 :time </s>
-0.1556932	:arg2 :time </s>
-0.31966063	:manner :time </s>
-1.3523403	:polarity :time </s>
-0.31966063	:arg4 :time </s>
-0.32534993	:direction :time </s>
-0.31966063	:arg3 :time </s>
-0.31966063	:op2 :time </s>
-0.31966063	:instrument :time </s>
-1.6472102	<s> :arg0 </s>
-0.1180604	:root :arg0 </s>
-1.0406845	:arg1-of :arg0 </s>
-0.827536	:arg1 :arg0 </s>
-1.1736354	:arg2 :arg0 </s>
-0.7934241	:manner :arg0 </s>
-0.9395522	:polarity :arg0 </s>
-0.9395522	:location :arg0 </s>
-0.35250008	:degree :arg0 </s>
-0.35250008	:domain :arg0 </s>
-0.560543	:direction :arg0 </s>
-1.5303465	<s> :arg1 </s>
-0.10133967	:root :arg1 </s>
-0.060106184	:mod :arg1 </s>
-0.12834258	:arg1-of :arg1 </s>
-0.7867875	:time :arg1 </s>
-0.14418283	:arg0 :arg1 </s>
-0.074954286	:arg2 :arg1 </s>
-0.1133833	:manner :arg1 </s>
-0.09012027	:polarity :arg1 </s>
-0.23390864	:location :arg1 </s>
-0.624364	:mode :arg1 </s>
-0.49213693	:arg0-of :arg1 </s>
-0.09881005	:degree :arg1 </s>
-0.30887765	:purpose :arg1 </s>
-0.12988806	:direction :arg1 </s>
-0.33499518	:arg3 :arg1 </s>
-0.30887765	:concession :arg1 </s>
-0.2096466	:extent :arg1 </s>
-0.30887765	:duration-of :arg1 </s>
-0.30887765	:arg5 :arg1 </s>
-1.2726178	<s> :arg2 </s>
-0.065935045	:root :arg2 </s>
-0.27707398	:mod :arg2 </s>
-0.4667827	:arg1-of :arg2 </s>
-0.19951601	:time :arg2 </s>
-0.46981746	:arg0 :arg2 </s>
-0.050471112	:arg1 :arg2 </s>
-0.39578277	:polarity :arg2 </s>
-0.29208547	:degree :arg2 </s>
-0.19951601	:direction :arg2 </s>
-0.4667827	:arg3 :arg2 </s>
-0.14330183	:root :manner </s>
-0.2252157	:mod :manner </s>
-0.26004663	:arg1-of :manner </s>
-0.26004663	:time :manner </s>
-0.57934487	:arg0 :manner </s>
-0.15688978	:arg1 :manner </s>
-0.37025872	:arg2 :manner </s>
-0.2252157	:location :manner </s>
-0.2252157	:degree :manner </s>
-0.37025872	:direction :manner </s>
-0.2252157	:destination :manner </s>
-0.2252157	:duration :manner </s>
-0.2252157	:source :manner </s>
-0.2252157	:instrument :manner </s>
-0.2252157	:path :manner </s>
-0.46702582	:root :condition </s>
-0.17734773	:arg1 :condition </s>
-0.23699336	:arg2 :condition </s>
-0.16349639	:root :arg2-of </s>
-0.3560068	:arg1-of :arg2-of </s>
-0.3560068	:time :arg2-of </s>
-0.28644004	:arg1 :conj-as-if </s>
-0.61378014	:root :polarity </s>
-0.7109356	:mod :polarity </s>
-0.57332134	:arg1-of :polarity </s>
-1.7497526	:arg0 :polarity </s>
-1.383943	:arg1 :polarity </s>
-0.3603703	:arg3 :polarity </s>
-0.86218905	<s> :location </s>
-0.08821494	:root :location </s>
-0.27632004	:arg1-of :location </s>
-0.05271675	:arg1 :location </s>
-0.18238223	:arg2 :location </s>
-0.24324134	:manner :location </s>
-0.24324134	:polarity :location </s>
-0.27632004	:arg0-of :location </s>
-0.24324134	:op1 :location </s>
-0.24324134	:domain :location </s>
-0.24324134	:destination :location </s>
-0.24324134	:duration :location </s>
-0.068771206	:root :mode </s>
-0.2597354	:mod :mode </s>
-0.2597354	:time :mode </s>
-0.2597354	:arg0 :mode </s>
-0.4192632	:arg1 :mode </s>
-0.29115233	:arg2 :mode </s>
-0.2597354	:beneficiary :mode </s>
-0.040800948	:root :arg0-of </s>
-0.3795956	:mod :arg0-of </s>
-0.26696607	:arg1-of :arg0-of </s>
-0.18882553	:arg1 :arg0-of </s>
-0.25254154	:arg2 :arg0-of </s>
-0.25254154	:polarity :arg0-of </s>
-0.25254154	:mode :arg0-of </s>
-0.3420446	:arg0-of :arg0-of </s>
-0.51499057	:quant :arg0-of </s>
-0.25254154	:direction :arg0-of </s>
-0.25254154	:topic :arg0-of </s>
-0.1530099	:root :degree </s>
-0.9349367	:mod :degree </s>
-1.1360419	:arg1 :degree </s>
-1.4909906	:domain :degree </s>
-0.2542548	:compared-to :degree </s>
-0.26104084	:root :quant </s>
-0.40168682	:mod :quant </s>
-0.62628907	:arg0 :quant </s>
-0.100279875	:root :op1 </s>
-0.96830755	:op2 :op1 </s>
-0.024731293	:root :purpose </s>
-0.18202434	:mod :purpose </s>
-0.13972704	:arg1-of :purpose </s>
-0.07830978	:arg0 :purpose </s>
-0.07527901	:arg1 :purpose </s>
-0.10071226	:arg2 :purpose </s>
-0.13972704	:polarity :purpose </s>
-0.13972704	:location :purpose </s>
-0.13972704	:degree :purpose </s>
-0.10071226	:part-of :purpose </s>
-0.18202434	:direction :purpose </s>
-0.094750315	:root :arg4 </s>
-0.1466884	:time :arg4 </s>
-0.20830587	:arg1 :arg4 </s>
-0.3468221	:manner :arg4 </s>
-0.1466884	:direction :arg4 </s>
-0.082980484	:root :part-of </s>
-0.30681196	:poss :part-of </s>
-0.30681196	:quant :part-of </s>
-0.15823326	:root :domain </s>
-0.25891286	:arg1-of :domain </s>
-0.35740548	:root :direction </s>
-0.54568785	:arg1 :direction </s>
-0.36537647	:arg4 :direction </s>
-0.1343083	:root :compared-to </s>
-0.33643708	:degree :compared-to </s>
-0.32760528	:root :destination </s>
-0.3005519	:arg1-of :destination </s>
-0.1777514	:root :arg3 </s>
-0.4692919	:arg0 :arg3 </s>
-0.16282465	:arg1 :arg3 </s>
-0.08073374	:root :location-of </s>
-0.3005519	:location-of :location-of </s>
-0.27089208	:root :snt2 </s>
-0.23722081	:snt1 :snt2 </s>
-0.42950943	:root :frequency </s>
-0.35669318	:arg2 :frequency </s>
-0.020470785	:root :op2 </s>
-0.2233022	:time :op2 </s>
-0.30340445	:mode :op2 </s>
-0.28463838	:op1 :op2 </s>
-0.20289917	:root :duration </s>
-0.259311	:arg1 :duration </s>
-0.259311	:manner :duration </s>
-0.259311	:purpose :duration </s>
-0.413706	:root :op3 </s>
-0.23338565	:op2 :op3 </s>
-0.44024712	:op3 :op4 </s>
-0.31893855	:op4 :op4 </s>
-0.21194804	:root :manner-of </s>
-0.1860925	:snt2 :snt3 </s>
-0.52656215	:root :consist-of </s>
-0.5333566	:mod :consist-of </s>
-0.3354618	:location :consist-of </s>
-0.4012874	<s> :source </s>
-0.30351782	:root :source </s>
-0.20830587	:arg1-of :source </s>
-0.20830587	:arg0 :source </s>
-0.20830587	:arg1 :source </s>
-0.10183153	:root :accompanier </s>
-0.081640735	:root :beneficiary </s>
-0.24307449	:poss :beneficiary </s>
-0.16906808	:arg1-of :beneficiary </s>
-0.24307449	:mode :beneficiary </s>
-0.14187567	:root :arg3-of </s>
-0.21194804	:root :time-of </s>
-0.16457343	:root :topic </s>
-0.32026774	:root :concession </s>
-0.29230276	:arg1-of :concession </s>
-0.29230276	:manner :concession </s>
-0.30649722	:root :extent </s>
-0.31959778	:arg1 :extent </s>
-0.21969798	:root :op5 </s>
-0.28644004	:op5 :op6 </s>
-0.28644004	:root :condition-of </s>
-0.28644004	:arg2 :range </s>
-0.1860925	:domain :poss-of </s>
-0.32921767	:root :instrument </s>
-0.25989187	:time :instrument </s>
-0.17966227	:arg1 :instrument </s>
-0.25989187	:direction :instrument </s>
-0.120749466	:root :subevent-of </s>
-0.120749466	:arg1 :subevent-of </s>
-0.2832409	:root :path </s>
-0.40660548	:arg1-of :path </s>
-0.25092974	:arg1 :path </s>
-0.1860925	:root :quant-of </s>
-0.23806517	:root :source-of </s>
-0.38711733	:root :arg4-of </s>
-0.23722081	:location :arg4-of </s>
-0.28644004	:arg4 :arg5 </s>
-0.16917828	:root :example </s>
-0.16917828	:location :example </s>
-0.16917828	:root :concession-of </s>
-0.16917828	:arg1 :concession-of </s>
-0.0397935	<s> :mod :root
-0.123968445	:mod :mod :root
-0.30015132	:ord :mod :root
-0.27109873	:poss :mod :root
-0.410611	:arg1-of :mod :root
-0.5596817	:time :mod :root
-0.0858944	:arg0 :mod :root
-0.46983784	:arg1 :mod :root
-0.47957474	:arg2 :mod :root
-0.38761634	:polarity :mod :root
-0.42760858	:location :mod :root
-0.42760858	:arg0-of :mod :root
-0.30015132	:degree :mod :root
-0.2845133	:quant :mod :root
-0.18696381	:domain :mod :root
-0.30015132	:duration :mod :root
-0.30015132	:consist-of :mod :root
-0.30015132	:topic :mod :root
-0.09642588	<s> :ord :root
-0.26534235	:poss :ord :root
-0.26534235	:arg1-of :ord :root
-0.26534235	:time :ord :root
-0.05002601	<s> :poss :root
-0.2008765	:mod :poss :root
-0.18602096	:time :poss :root
-0.27010375	:arg2-of :poss :root
-0.27010375	:mode :poss :root
-0.4343143	:domain :poss :root
-0.0802925	<s> :arg1-of :root
-0.39942643	:mod :arg1-of :root
-0.31294683	:poss :arg1-of :root
-0.23411615	:time :arg1-of :root
-0.27799055	:arg0 :arg1-of :root
-0.87131387	:arg1 :arg1-of :root
-0.33860114	:condition :arg1-of :root
-0.49835762	:arg2-of :arg1-of :root
-0.31294683	:polarity :arg1-of :root
-0.5832281	:location :arg1-of :root
-0.72154945	:quant :arg1-of :root
-0.33860114	:part-of :arg1-of :root
-0.13877359	:domain :arg1-of :root
-0.31294683	:arg3 :arg1-of :root
-0.31294683	:part :arg1-of :root
-0.31294683	:source :arg1-of :root
-0.31294683	:concession :arg1-of :root
-0.4669522	<s> :time :root
-0.62753904	:time :time :root
-0.16812675	:arg0 :time :root
-0.70780236	:arg1 :time :root
-0.11835263	:polarity :time :root
-0.6278318	:arg0-of :time :root
-0.11439262	<s> :arg0 :root
-0.1749258	:mod :arg0 :root
-0.20429339	:arg1-of :arg0 :root
-0.11695588	:time :arg0 :root
-0.09436351	:arg1 :arg0 :root
-0.120485105	:arg2 :arg0 :root
-0.37824875	:manner :arg0 :root
-0.2406798	:condition :arg0 :root
-0.30731353	:conj-as-if :arg0 :root
-0.23308082	:polarity :arg0 :root
-0.23308082	:location :arg0 :root
-0.48975393	:mode :arg0 :root
-0.30731353	:arg0-of :arg0 :root
-0.23091337	:purpose :arg0 :root
-0.48975393	:direction :arg0 :root
-0.22589768	:frequency :arg0 :root
-0.20870952	:instrument :arg0 :root
-0.18008526	<s> :arg1 :root
-1.0025235	:arg1-of :arg1 :root
-0.20680666	:time :arg1 :root
-0.8182072	:arg0 :arg1 :root
-1.2244197	:arg2 :arg1 :root
-1.1243999	:manner :arg1 :root
-0.23899235	:condition :arg1 :root
-1.1963571	:polarity :arg1 :root
-0.735439	:mode :arg1 :root
-0.70850354	:arg3 :arg1 :root
-0.25951156	:frequency :arg1 :root
-0.3590691	:beneficiary :arg1 :root
-0.3590691	:condition-of :arg1 :root
-0.1613773	<s> :arg2 :root
-0.63763463	:arg1-of :arg2 :root
-0.6021317	:arg0 :arg2 :root
-1.5535591	:arg1 :arg2 :root
-0.19116636	<s> :manner :root
-0.74872625	:arg1-of :manner :root
-0.74872625	:time :manner :root
-0.30490634	:arg0 :manner :root
-1.1889924	:arg1 :manner :root
-0.45417422	<s> :condition :root
-0.36328813	:arg0 :condition :root
-0.36328813	:op2 :condition :root
-0.1688098	<s> :arg2-of :root
-0.3847075	:arg0 :arg2-of :root
-0.11117096	<s> :polarity :root
-0.306951	:mod :polarity :root
-0.44496804	:arg1-of :polarity :root
-0.44496804	:time :polarity :root
-0.13681743	:arg0 :polarity :root
-0.08073776	:arg1 :polarity :root
-0.27737495	:arg2 :polarity :root
-0.19051407	:location :polarity :root
-0.19051407	:mode :polarity :root
-0.27737495	:degree :polarity :root
-0.18313873	:domain :polarity :root
-0.27737495	:polite :polarity :root
-0.44457605	<s> :location :root
-0.827673	:arg0-of :location :root
-1.128093	<s> :mode :root
-0.10145302	<s> :arg0-of :root
-0.49464193	:mod :arg0-of :root
-0.36654255	:poss :arg0-of :root
-0.7534329	:quant :arg0-of :root
-0.2642485	:domain :arg0-of :root
-0.014255137	<s> :degree :root
-0.22448835	:mod :degree :root
-0.1726595	:arg1-of :degree :root
-0.1726595	:time :degree :root
-0.09285455	:arg0 :degree :root
-0.069281556	:arg1 :degree :root
-0.22932139	:arg2 :degree :root
-0.09519077	:polarity :degree :root
-0.03562144	:domain :degree :root
-0.6221337	:compared-to :degree :root
-0.22932139	:beneficiary :degree :root
-0.11721701	<s> :quant :root
-0.6108268	:mod :quant :root
-0.3725516	:arg0 :quant :root
-0.22685635	:arg2-of :quant :root
-0.22685635	:polarity :quant :root
-0.15870835	:location :quant :root
-0.22685635	:op1 :quant :root
-0.15870835	:part-of :quant :root
-0.15870835	:domain :quant :root
-0.22685635	:source-of :quant :root
-0.0908089	<s> :op1 :root
-0.16671258	:time :op1 :root
-0.20072915	:location :op1 :root
-0.20072915	:degree :op1 :root
-0.10899991	:quant :op1 :root
-0.20072915	:domain :op1 :root
-0.16698503	:op2 :op1 :root
-0.20072915	:op3 :op1 :root
-0.14172722	:concession :op1 :root
-0.69474554	<s> :purpose :root
-0.80378205	:mod :purpose :root
-0.26353738	<s> :arg4 :root
-0.054829396	<s> :part-of :root
-0.35345504	<s> :domain :root
-0.22262877	:time :domain :root
-0.33078557	:condition :domain :root
-0.33078557	:polarity :domain :root
-0.33078557	:quant :domain :root
-0.19116868	<s> :direction :root
-0.88923913	:arg1 :direction :root
-0.54009074	<s> :compared-to :root
-0.7307305	:degree :compared-to :root
-0.36932582	<s> :destination :root
-0.42133167	<s> :arg3 :root
-0.47674835	:arg0 :arg3 :root
-0.9930395	:arg1 :arg3 :root
-0.5299916	<s> :part :root
-0.38815257	<s> :location-of :root
-0.21656238	<s> :snt1 :root
-0.21717054	<s> :frequency :root
-0.22480485	:arg0 :frequency :root
-0.5318447	:arg1 :frequency :root
-0.38126072	:condition :op2 :root
-0.7416493	:op1 :op2 :root
-0.2805961	<s> :duration :root
-1.1444149	:op2 :op3 :root
-0.75219625	:op3 :op4 :root
-0.32597518	:op6 :op4 :root
-0.293308	<s> :manner-of :root
-0.05049769	<s> :consist-of :root
-0.3776389	:mod :consist-of :root
-0.23048767	:poss :consist-of :root
-0.3776389	:arg1-of :consist-of :root
-0.23048767	:arg2-of :consist-of :root
-0.5495473	<s> :source :root
-0.25861067	<s> :polite :root
-0.24304242	:condition :polite :root
-0.51225	<s> :beneficiary :root
-0.293308	<s> :time-of :root
-0.37546742	<s> :topic :root
-0.7590993	<s> :concession :root
-0.20877457	<s> :extent :root
-0.28173718	:arg0 :extent :root
-0.28173718	:location-of :extent :root
-0.293308	<s> :range :root
-0.7128279	<s> :instrument :root
-0.36138037	:arg0 :instrument :root
-0.293308	<s> :duration-of :root
-0.19153462	<s> :purpose-of :root
-0.24555208	<s> :source-of :root
-0.19153462	:quant :unit :root
-1.1560925	<s> :root :mod
-1.4572948	:ord :root :mod
-2.1024957	:arg1-of :root :mod
-1.635574	:time :root :mod
-1.5456011	:arg0 :root :mod
-1.6915579	:arg1 :root :mod
-0.90134346	:location :root :mod
-1.6615025	:arg0-of :root :mod
-2.2281368	:degree :root :mod
-1.5275415	:quant :root :mod
-1.855786	:part-of :root :mod
-1.5677531	<s> :mod :mod
-1.8783399	:root :mod :mod
-1.5616156	:mod :mod :mod
-0.786442	:poss :mod :mod
-1.2303832	:domain :mod :mod
-1.5100021	<s> :ord :mod
-1.1775078	<s> :poss :mod
-1.7890977	:root :poss :mod
-1.5692523	<s> :arg1-of :mod
-1.6831561	:root :arg1-of :mod
-1.0063913	:mod :arg1-of :mod
-0.4454387	:ord :arg1-of :mod
-2.1011581	<s> :time :mod
-1.7518934	:root :time :mod
-0.44047573	:location :time :mod
-1.6925749	<s> :arg0 :mod
-1.3012393	:arg1-of :arg0 :mod
-1.8025775	:time :arg0 :mod
-2.1922991	:arg1 :arg0 :mod
-1.6003476	<s> :arg1 :mod
-1.7335858	:root :arg1 :mod
-1.9403818	:arg0 :arg1 :mod
-1.7947003	:arg2 :arg1 :mod
-1.6719232	:polarity :arg1 :mod
-1.65361	<s> :arg2 :mod
-2.3539507	:root :arg2 :mod
-0.9461568	:polarity :arg2 :mod
-1.5037298	:root :manner :mod
-0.94029945	:root :condition :mod
-1.1706291	:root :arg2-of :mod
-0.60967404	:arg0-of :arg2-of :mod
-0.3822701	:domain :arg2-of :mod
-1.7081358	<s> :polarity :mod
-1.5171796	:root :polarity :mod
-1.3143843	<s> :location :mod
-1.7280684	:root :location :mod
-1.5236076	<s> :arg0-of :mod
-1.9741356	:root :arg0-of :mod
-0.641044	:location :arg0-of :mod
-0.8415884	:quant :arg0-of :mod
-2.3482943	<s> :degree :mod
-1.111206	<s> :quant :mod
-1.0420928	:root :quant :mod
-1.0643286	:mod :quant :mod
-0.67999816	<s> :domain :mod
-1.4934688	:root :domain :mod
-0.35164815	:root :part :mod
-0.41696158	:time :duration :mod
-0.68003315	:arg1-of :consist-of :mod
-0.73695755	<s> :topic :mod
-0.35164815	:op3 :op5 :mod
-2.6849298	<s> :root :ord
-2.3306727	:time :root :ord
-0.72709274	:domain :poss :ord
-2.406846	<s> :arg1-of :ord
-2.370553	<s> :time :ord
-1.792106	<s> :root :poss
-2.8387046	:mod :root :poss
-1.8905468	:arg1-of :root :poss
-1.8594697	:time :root :poss
-2.4434476	:polarity :root :poss
-2.4286904	<s> :mod :poss
-2.2588348	<s> :time :poss
-0.45529538	:domain :time :poss
-1.4483708	<s> :arg2-of :poss
-1.2733718	<s> :mode :poss
-2.018719	<s> :domain :poss
-0.21296452	<s> :op1-of :poss
-1.1574099	<s> :root :arg1-of
-1.3453695	:mod :root :arg1-of
-1.0656058	:ord :root :arg1-of
-1.8768587	:poss :root :arg1-of
-1.5421256	:arg1-of :root :arg1-of
-1.758403	:time :root :arg1-of
-1.7178181	:arg0 :root :arg1-of
-1.6433748	:arg1 :root :arg1-of
-0.9400707	:arg2-of :root :arg1-of
-2.0054088	:polarity :root :arg1-of
-1.2391584	:location :root :arg1-of
-1.2629206	:arg0-of :root :arg1-of
-2.0297842	:degree :root :arg1-of
-0.9925856	:quant :root :arg1-of
-0.7813148	:purpose :root :arg1-of
-1.151267	:part-of :root :arg1-of
-1.324076	:domain :root :arg1-of
-0.6540307	:op3 :root :arg1-of
-1.4000994	:consist-of :root :arg1-of
-0.4079956	:time-of :root :arg1-of
-0.6540307	:topic :root :arg1-of
-1.8208125	<s> :mod :arg1-of
-1.5917101	:root :mod :arg1-of
-1.0447206	:arg1-of :mod :arg1-of
-0.8326818	:arg2-of :mod :arg1-of
-1.3318641	:domain :mod :arg1-of
-1.1024162	<s> :ord :arg1-of
-0.9251192	:root :ord :arg1-of
-2.2700195	<s> :poss :arg1-of
-1.4924308	:root :arg1-of :arg1-of
-1.383725	:mod :arg1-of :arg1-of
-1.366707	:arg1-of :arg1-of :arg1-of
-1.0361454	:quant :arg1-of :arg1-of
-0.83628064	:consist-of :arg1-of :arg1-of
-1.8362683	<s> :time :arg1-of
-1.5952336	:arg0 :time :arg1-of
-1.4937325	:arg1 :time :arg1-of
-2.1380565	<s> :arg0 :arg1-of
-2.136093	:root :arg0 :arg1-of
-0.69530535	:mode :arg0 :arg1-of
-0.43093565	:duration :arg0 :arg1-of
-2.493972	<s> :arg1 :arg1-of
-1.8424408	:root :arg1 :arg1-of
-1.5782006	:arg0 :arg1 :arg1-of
-1.8026838	:root :arg2 :arg1-of
-2.0607414	:arg1 :arg2 :arg1-of
-1.833555	:root :manner :arg1-of
-1.2017382	<s> :condition :arg1-of
-0.8595631	:root :condition :arg1-of
-1.2171711	:root :arg2-of :arg1-of
-0.63816077	:arg0-of :arg2-of :arg1-of
-2.1320925	:arg0 :polarity :arg1-of
-1.2971257	<s> :location :arg1-of
-0.8523412	:arg1-of :location :arg1-of
-1.8037165	:root :mode :arg1-of
-2.188646	:root :arg0-of :arg1-of
-1.2353296	:mod :degree :arg1-of
-1.8124813	<s> :quant :arg1-of
-0.8471783	:root :quant :arg1-of
-1.0511491	:mod :quant :arg1-of
-1.4609058	<s> :part-of :arg1-of
-1.4349387	:root :part-of :arg1-of
-1.1756604	<s> :domain :arg1-of
-0.41602182	:location :domain :arg1-of
-1.5081865	:root :compared-to :arg1-of
-0.9745491	<s> :arg3 :arg1-of
-0.5511183	<s> :part :arg1-of
-0.85778403	:root :frequency :arg1-of
-0.6022551	:arg1 :frequency :arg1-of
-2.4934294	:root :op2 :arg1-of
-0.49952474	:root :consist-of :arg1-of
-1.0244007	<s> :source :arg1-of
-0.39994147	:time :concession :arg1-of
-0.6123176	:arg1-of :path :arg1-of
-0.5528397	:root :arg4-of :arg1-of
-1.9599432	<s> :root :time
-2.7347598	:mod :root :time
-2.2629647	:arg1-of :root :time
-1.6448131	:arg0 :root :time
-1.9651291	:arg1 :root :time
-0.7348953	:location-of :root :time
-0.895604	:time :mod :time
-1.6001362	:arg0 :mod :time
-1.4092777	<s> :time :time
-1.6112899	:root :time :time
-0.96436113	:time :time :time
-1.5188184	:arg0 :time :time
-0.99127024	:polarity :time :time
-1.666991	<s> :arg0 :time
-1.9079726	:root :arg0 :time
-1.6581544	:time :arg0 :time
-2.0685978	:arg1 :arg0 :time
-1.3187038	:arg2 :arg0 :time
-1.0846205	:polarity :arg0 :time
-0.98132354	:purpose :arg0 :time
-1.5960163	<s> :arg1 :time
-1.5357915	:root :arg1 :time
-0.4252211	:ord :arg1 :time
-0.4252211	:arg2-of :arg1 :time
-1.143249	:location :arg1 :time
-0.6848586	:arg0-of :arg1 :time
-1.9770899	:root :arg2 :time
-2.0592248	:arg1 :arg2 :time
-0.70190585	:arg3 :arg2 :time
-1.441443	:arg0 :manner :time
-1.302247	<s> :condition :time
-1.0570092	<s> :polarity :time
-1.4972457	:root :polarity :time
-0.7264104	:arg0 :polarity :time
-1.696834	<s> :location :time
-1.6746356	<s> :arg0-of :time
-0.4382034	:time :arg0-of :time
-1.3699222	:root :arg4 :time
-2.2393174	<s> :domain :time
-1.1534642	:root :direction :time
-1.5269834	:root :arg3 :time
-2.5390851	:root :op2 :time
-0.9851873	:root :instrument :time
-1.144713	<s> :root :arg0
-2.0172658	:mod :root :arg0
-1.8609723	:arg1-of :root :arg0
-1.3321158	:time :root :arg0
-0.4728505	:arg1 :root :arg0
-0.8638602	:arg2 :root :arg0
-1.2287043	:manner :root :arg0
-1.3396939	:polarity :root :arg0
-1.3463333	:location :root :arg0
-1.6384741	:arg0-of :root :arg0
-1.7284691	:degree :root :arg0
-0.554675	:polite :root :arg0
-1.0496591	:extent :root :arg0
-1.8587005	<s> :mod :arg0
-1.4476967	:arg1 :mod :arg0
-1.254425	<s> :arg1-of :arg0
-2.2875881	:root :arg1-of :arg0
-1.4587767	:mod :arg1-of :arg0
-0.86753446	:condition :arg1-of :arg0
-0.51931655	<s> :time :arg0
-1.3518015	:root :time :arg0
-0.65392786	:mod :time :arg0
-0.82837087	:time :time :arg0
-0.65392786	:condition :time :arg0
-0.65392786	:arg0-of :time :arg0
-0.8245454	<s> :arg1 :arg0
-1.8606356	:root :arg1 :arg0
-1.4827983	:arg1-of :arg1 :arg0
-1.5714852	:time :arg1 :arg0
-1.8009131	:arg2 :arg1 :arg0
-0.7998613	<s> :arg2 :arg0
-2.0976121	:arg1 :arg2 :arg0
-1.0182551	<s> :manner :arg0
-1.7344215	:root :manner :arg0
-1.3789654	:arg1 :manner :arg0
-0.54048246	<s> :condition :arg0
-0.3119529	:arg2-of :conj-as-if :arg0
-1.3669766	<s> :polarity :arg0
-1.7670121	:root :polarity :arg0
-1.6168197	:arg1 :polarity :arg0
-0.90196973	<s> :location :arg0
-1.7343541	:root :location :arg0
-0.8734306	<s> :mode :arg0
-1.7261354	<s> :arg0-of :arg0
-1.2584507	:mod :degree :arg0
-0.36682525	<s> :purpose :arg0
-1.2193561	:arg1 :purpose :arg0
-1.5829961	:root :domain :arg0
-0.95655143	:arg1 :direction :arg0
-0.41374448	:direction :direction :arg0
-0.9978921	<s> :frequency :arg0
-1.0143068	<s> :duration :arg0
-0.43149063	<s> :instrument :arg0
-0.6908896	<s> :root :arg1
-1.3464493	:mod :root :arg1
-0.9674282	:ord :root :arg1
-1.2242546	:arg1-of :root :arg1
-0.2905039	:time :root :arg1
-0.29704288	:arg0 :root :arg1
-0.61525124	:arg2 :root :arg1
-0.50427085	:manner :root :arg1
-0.25215432	:condition :root :arg1
-1.2709564	:arg2-of :root :arg1
-0.44045842	:polarity :root :arg1
-1.2460088	:location :root :arg1
-1.346123	:degree :root :arg1
-1.7740034	:quant :root :arg1
-0.78528124	:purpose :root :arg1
-1.0686202	:arg3 :root :arg1
-1.0654553	:frequency :root :arg1
-0.8925289	:duration :root :arg1
-0.8879592	:polite :root :arg1
-0.26713967	:beneficiary :root :arg1
-0.65698606	:instrument :root :arg1
-2.6342041	<s> :mod :arg1
-1.1774554	:root :mod :arg1
-1.0362637	:arg2 :mod :arg1
-0.6487126	:polarity :mod :arg1
-1.0463369	:root :ord :arg1
-1.9065584	<s> :arg1-of :arg1
-1.3993866	:root :arg1-of :arg1
-0.49946216	:arg2 :arg1-of :arg1
-0.88018626	<s> :time :arg1
-1.1069214	:root :time :arg1
-1.1698117	:time :time :arg1
-1.4535477	:arg0 :time :arg1
-1.1244005	:arg2 :time :arg1
-0.64931524	:condition :time :arg1
-1.7283583	<s> :arg0 :arg1
-0.8003352	:root :arg0 :arg1
-1.3816808	:time :arg0 :arg1
-1.1700383	:location :arg0 :arg1
-1.7761029	<s> :arg2 :arg1
-1.109555	:root :arg2 :arg1
-0.9250994	:arg0 :arg2 :arg1
-0.39583763	:manner :arg2 :arg1
-0.25958976	:mode :arg2 :arg1
-1.32379	<s> :manner :arg1
-0.95745766	:root :manner :arg1
-1.1725223	:arg0 :manner :arg1
-0.6234921	:arg2 :manner :arg1
-0.3904024	:frequency :manner :arg1
-1.2821102	<s> :condition :arg1
-1.3889376	<s> :arg2-of :arg1
-1.9535512	<s> :polarity :arg1
-0.31979352	:root :polarity :arg1
-0.6598747	:time :polarity :arg1
-1.9463419	:arg0 :polarity :arg1
-1.5596386	<s> :location :arg1
-1.1875018	:root :location :arg1
-1.0429059	<s> :mode :arg1
-1.3931886	:root :mode :arg1
-0.7892999	:arg2 :mode :arg1
-1.8490915	:root :arg0-of :arg1
-0.9275235	:root :degree :arg1
-0.8738835	:direction :purpose :arg1
-0.8142996	:root :direction :arg1
-0.4097701	:arg2 :direction :arg1
-0.89636016	<s> :arg3 :arg1
-1.1238772	:root :arg3 :arg1
-0.99155796	<s> :frequency :arg1
-0.8932917	<s> :beneficiary :arg1
-0.79619807	:root :concession :arg1
-0.6821418	:root :extent :arg1
-0.30868062	<s> :condition-of :arg1
-0.30868062	:root :duration-of :arg1
-0.30868062	:root :arg5 :arg1
-0.9536623	<s> :root :arg2
-1.8747941	:mod :root :arg2
-1.629249	:arg1-of :root :arg2
-1.6519364	:time :root :arg2
-0.9716675	:arg0 :root :arg2
-0.66189104	:arg1 :root :arg2
-1.1940761	:polarity :root :arg2
-1.5292933	:degree :root :arg2
-0.7124795	:topic :root :arg2
-0.44019473	:concession :root :arg2
-0.44019473	:range :root :arg2
-1.6555324	:root :mod :arg2
-0.9020388	:time :mod :arg2
-2.313816	<s> :arg1-of :arg2
-2.490879	:root :arg1-of :arg2
-2.2233155	<s> :time :arg2
-1.860602	:root :time :arg2
-2.497245	<s> :arg0 :arg2
-2.6142242	:root :arg0 :arg2
-1.3674039	:arg1-of :arg0 :arg2
-1.9128921	<s> :arg1 :arg2
-1.149014	:root :arg1 :arg2
-1.6395366	:time :arg1 :arg2
-1.70038	:arg0 :arg1 :arg2
-0.74193174	:direction :manner :arg2
-1.232877	:root :polarity :arg2
-1.1526344	<s> :mode :arg2
-1.7713487	:root :mode :arg2
-1.9090389	:root :degree :arg2
-1.463322	:root :direction :arg2
-1.2095572	:root :arg3 :arg2
-2.044846	<s> :root :manner
-1.7886832	:time :root :manner
-1.7806818	:arg0 :root :manner
-1.9491001	:arg1 :root :manner
-1.9780333	:arg2 :root :manner
-2.3023763	:polarity :root :manner
-2.3295927	:degree :root :manner
-0.8901083	:source :root :manner
-2.4903157	:root :mod :manner
-2.2969933	<s> :arg1-of :manner
-2.1701283	:root :arg1-of :manner
-1.5224404	:root :time :manner
-1.8880645	:arg1 :time :manner
-2.2711594	<s> :arg0 :manner
-1.8609039	:root :arg0 :manner
-1.5098395	:time :arg0 :manner
-1.2806246	:condition :arg0 :manner
-2.7147696	<s> :arg1 :manner
-1.9587576	:root :arg1 :manner
-2.0152447	:arg0 :arg1 :manner
-0.9681458	:mode :arg1 :manner
-2.4646425	:root :arg2 :manner
-2.130067	:root :location :manner
-1.8944405	:root :degree :manner
-1.4486321	:root :direction :manner
-0.39402035	:source :destination :manner
-0.994096	:root :frequency :manner
-0.42203638	:arg0 :duration :manner
-0.9256466	:root :source :manner
-0.9874949	:root :instrument :manner
-0.77671707	:root :path :manner
-3.074662	<s> :root :condition
-3.032206	:arg0 :root :condition
-2.5689406	:degree :root :condition
-3.0623436	<s> :arg0 :condition
-2.5108063	:root :arg1 :condition
-2.502554	:root :arg2 :condition
-2.4881146	<s> :op1 :condition
-1.0731845	<s> :op2 :condition
-2.4824831	<s> :root :arg2-of
-2.4609628	:poss :root :arg2-of
-2.6899152	:arg0 :root :arg2-of
-2.3553183	<s> :poss :arg2-of
-2.5987377	:root :arg1-of :arg2-of
-1.9829922	:arg1 :time :arg2-of
-3.0430055	<s> :arg0 :arg2-of
-1.6182255	<s> :manner :arg2-of
-0.7178695	:location :arg0-of :arg2-of
-0.97076774	:quant :arg0-of :arg2-of
-2.308428	<s> :domain :arg2-of
-3.222721	:root :arg1 :conj-as-if
-0.44660607	:manner :arg2-of :conj-as-if
-1.7748818	<s> :root :polarity
-2.8001637	:mod :root :polarity
-1.9518715	:arg0 :root :polarity
-2.3004591	:arg1 :root :polarity
-2.4416442	:degree :root :polarity
-2.8358	<s> :mod :polarity
-1.4565612	:arg1 :mod :polarity
-2.4847715	:root :arg1-of :polarity
-1.3863827	:arg0 :arg1-of :polarity
-1.8546698	:root :time :polarity
-1.9022673	:arg1 :time :polarity
-0.9725455	<s> :arg0 :polarity
-2.3513973	:root :arg0 :polarity
-0.88430285	:mod :arg0 :polarity
-1.4539798	:time :arg0 :polarity
-2.117472	:arg1 :arg0 :polarity
-0.8684301	:condition :arg0 :polarity
-1.4388442	<s> :arg1 :polarity
-2.9148586	:root :arg1 :polarity
-1.6906006	:time :arg1 :polarity
-2.1884391	:arg1 :arg2 :polarity
-1.3929986	<s> :location :polarity
-0.8850333	<s> :mode :polarity
-1.3605455	:arg0 :degree :polarity
-1.3118259	<s> :domain :polarity
-1.542369	:root :arg3 :polarity
-0.7729337	<s> :polite :polarity
-1.6986489	<s> :root :location
-2.0254488	:mod :root :location
-2.2648485	:poss :root :location
-1.8753839	:arg1-of :root :location
-1.7242968	:time :root :location
-2.0300264	:arg0 :root :location
-1.5420917	:arg1 :root :location
-1.8749053	:polarity :root :location
-1.6537325	:arg0-of :root :location
-1.9991215	:degree :root :location
-2.3656726	:op1 :root :location
-1.3706917	:domain :root :location
-0.9607895	:source-of :root :location
-2.182046	:root :arg1-of :location
-1.631141	:arg1 :arg1-of :location
-2.0463097	:root :arg1 :location
-2.4287777	:root :arg2 :location
-1.1485578	:mod :arg2 :location
-1.4952183	:arg1 :manner :location
-1.9446613	:root :polarity :location
-1.6361656	<s> :arg0-of :location
-2.1093857	:root :arg0-of :location
-0.9458324	:arg1-of :arg0-of :location
-2.4783852	:root :op1 :location
-1.61603	:root :domain :location
-1.7407229	:root :direction :location
-0.782446	:root :destination :location
-1.0301	:root :duration :location
-1.7885956	<s> :root :mode
-2.7911394	:mod :root :mode
-2.831989	:arg0 :root :mode
-1.467085	:condition :root :mode
-2.118656	:domain :root :mode
-1.02183	:polite :root :mode
-2.5497546	:root :mod :mode
-1.9632598	:root :time :mode
-2.7828376	:root :arg0 :mode
-2.8296356	:root :arg1 :mode
-2.4458208	:root :arg2 :mode
-2.1507607	:arg1 :arg2 :mode
-0.4244305	:arg1 :beneficiary :mode
-1.556541	<s> :root :arg0-of
-1.4646474	:mod :root :arg0-of
-1.5095428	:ord :root :arg0-of
-1.9725233	:poss :root :arg0-of
-1.5139537	:arg1-of :root :arg0-of
-2.4089715	:arg0 :root :arg0-of
-1.7094421	:arg0-of :root :arg0-of
-2.3051345	:degree :root :arg0-of
-1.3880554	:domain :root :arg0-of
-2.6703134	<s> :mod :arg0-of
-2.274807	:root :mod :arg0-of
-1.3074877	:poss :mod :arg0-of
-1.696649	:domain :mod :arg0-of
-2.3263192	<s> :poss :arg0-of
-1.8774067	:root :arg1-of :arg0-of
-2.2762582	<s> :time :arg0-of
-2.6725755	:root :arg1 :arg0-of
-2.7790956	:root :arg2 :arg0-of
-1.3032383	:domain :polarity :arg0-of
-1.6062982	<s> :location :arg0-of
-2.046345	:root :location :arg0-of
-1.8526902	:root :mode :arg0-of
-1.7067342	:root :arg0-of :arg0-of
-0.6560153	:arg0-of :arg0-of :arg0-of
-1.3898267	<s> :quant :arg0-of
-1.8778979	<s> :domain :arg0-of
-1.7200003	:root :direction :arg0-of
-1.0631504	:root :topic :arg0-of
-1.8533177	<s> :root :degree
-2.1012514	:arg0 :root :degree
-1.9811854	:arg1 :root :degree
-2.4227498	:polarity :root :degree
-0.74457055	:compared-to :root :degree
-2.4352264	<s> :mod :degree
-2.2901046	:root :mod :degree
-1.6333542	:mod :mod :degree
-1.063013	:domain :mod :degree
-2.3181257	<s> :arg1-of :degree
-1.0201437	:domain :arg1-of :degree
-2.167805	<s> :time :degree
-1.6543889	:arg0 :time :degree
-1.8667914	:arg1 :time :degree
-1.8996372	<s> :arg0 :degree
-1.3810682	<s> :arg1 :degree
-2.4453096	:root :arg1 :degree
-1.5434579	:mod :arg1 :degree
-1.5502028	:time :arg1 :degree
-1.9241724	:arg0 :arg1 :degree
-1.6607515	:polarity :arg1 :degree
-2.1157699	<s> :arg2 :degree
-1.7527429	<s> :polarity :degree
-1.9805744	:arg0 :polarity :degree
-1.5644878	:arg1 :polarity :degree
-1.1796069	:domain :polarity :degree
-0.84310496	<s> :domain :degree
-1.53414	:root :domain :degree
-0.5815328	<s> :compared-to :degree
-0.8723592	:root :compared-to :degree
-0.9200417	<s> :beneficiary :degree
-2.121707	<s> :root :quant
-2.5088148	:mod :root :quant
-2.3901772	:poss :root :quant
-2.811938	:arg0 :root :quant
-1.7746869	:arg0-of :root :quant
-1.9593407	:part-of :root :quant
-2.7940369	<s> :mod :quant
-1.6475221	:root :mod :quant
-1.6909008	:mod :mod :quant
-2.9327116	<s> :arg0 :quant
-2.685208	:root :arg0 :quant
-1.4378831	<s> :arg2-of :quant
-2.2109652	:arg0 :polarity :quant
-1.4021368	<s> :location :quant
-2.4773123	<s> :op1 :quant
-1.5551611	<s> :part-of :quant
-2.0060892	<s> :domain :quant
-0.8736255	<s> :source-of :quant
-1.1591487	<s> :root :op1
-2.4434385	:mod :root :op1
-2.0506024	:time :root :op1
-1.6250749	:manner :root :op1
-1.4215955	:condition :root :op1
-1.6769224	:quant :root :op1
-2.0629523	:op1 :root :op1
-1.0685885	:direction :root :op1
-0.44634664	:unit :root :op1
-2.9252162	<s> :mod :op1
-1.2116761	<s> :time :op1
-1.8169898	:root :time :op1
-1.3988397	:time :time :op1
-1.7415301	<s> :location :op1
-2.3797824	<s> :degree :op1
-1.3949379	<s> :quant :op1
-2.2920918	<s> :domain :op1
-0.28554663	<s> :op2 :op1
-2.4336348	:root :op2 :op1
-0.42122978	<s> :op3 :op1
-0.42834294	<s> :concession :op1
-2.2817674	<s> :root :purpose
-2.6554778	:mod :root :purpose
-2.0468228	:time :root :purpose
-2.419427	:arg0 :root :purpose
-2.5419946	:arg1 :root :purpose
-1.9216021	:polarity :root :purpose
-2.3200605	:degree :root :purpose
-1.5542679	:quant :root :purpose
-2.0339267	:domain :root :purpose
-2.7890592	<s> :mod :purpose
-2.393283	:root :mod :purpose
-1.8221709	:arg1 :mod :purpose
-2.5757053	:root :arg1-of :purpose
-2.2377522	:root :arg0 :purpose
-1.1050798	:manner :arg0 :purpose
-2.6573653	<s> :arg1 :purpose
-2.361482	:root :arg1 :purpose
-1.1804302	:location :arg1 :purpose
-0.94808894	:mode :arg1 :purpose
-1.2657491	:direction :arg1 :purpose
-2.708105	:root :arg2 :purpose
-1.1508954	:mod :arg2 :purpose
-1.9499308	:root :polarity :purpose
-2.1571398	:root :location :purpose
-1.8182518	:arg1 :degree :purpose
-1.260278	:root :part-of :purpose
-1.3558947	:root :direction :purpose
-2.4556966	<s> :root :arg4
-2.852351	:mod :root :arg4
-2.6345766	:arg0 :root :arg4
-2.7392983	:arg1 :root :arg4
-1.1196316	:direction :root :arg4
-1.9045637	:root :time :arg4
-1.9425824	:arg1 :time :arg4
-3.1752822	:root :arg1 :arg4
-1.8470988	:root :manner :arg4
-1.4582262	:arg1 :manner :arg4
-1.4902894	:root :direction :arg4
-2.0096498	<s> :root :part-of
-2.6129003	:mod :root :part-of
-1.6749498	:ord :root :part-of
-1.9303414	:root :poss :part-of
-1.6537805	:root :quant :part-of
-2.2131314	<s> :root :domain
-2.3733063	:mod :root :domain
-1.5486851	:ord :root :domain
-2.35933	:poss :root :domain
-2.241305	:arg1-of :root :domain
-2.5958765	:arg1 :root :domain
-2.3660026	:degree :root :domain
-1.0832863	:direction :root :domain
-2.2350807	:root :arg1-of :domain
-1.9770898	<s> :time :domain
-1.6529168	<s> :condition :domain
-2.2785852	<s> :polarity :domain
-1.7621896	<s> :location :domain
-2.0924	<s> :quant :domain
-2.088979	<s> :root :direction
-2.395688	:mod :root :direction
-1.8288747	:time :root :direction
-1.8374765	:arg0 :root :direction
-1.663674	:arg1 :root :direction
-1.6742877	:manner :root :direction
-0.7381122	:arg4 :root :direction
-2.6007679	<s> :arg1 :direction
-2.6774852	:root :arg1 :direction
-2.8612926	:root :arg2 :direction
-1.3954388	:root :arg4 :direction
-1.7933067	:root :direction :direction
-2.9482234	<s> :root :compared-to
-1.7865279	:polarity :root :compared-to
-1.1290832	:degree :root :compared-to
-2.195735	:domain :root :compared-to
-2.3342297	<s> :degree :compared-to
-1.3801502	:root :degree :compared-to
-3.0517957	<s> :root :destination
-1.68698	:arg1 :arg1-of :destination
-0.94935125	:root :source :destination
-2.3284783	<s> :root :arg3
-2.3275952	:arg0 :root :arg3
-2.1146147	:arg1 :root :arg3
-2.048682	:arg2 :root :arg3
-1.6997708	:manner :root :arg3
-2.4253676	:polarity :root :arg3
-2.6726732	<s> :arg0 :arg3
-2.3820446	:root :arg0 :arg3
-2.957158	<s> :arg1 :arg3
-2.2578888	:root :arg1 :arg3
-3.5553489	<s> :root :part
-2.2742207	<s> :root :location-of
-2.5897837	:polarity :root :location-of
-1.357526	:root :location-of :location-of
-3.5553489	<s> :root :snt1
-0.3260786	:snt1 :root :snt2
-0.32406437	:root :snt1 :snt2
-2.9868941	<s> :root :frequency
-2.4601758	:arg1-of :root :frequency
-3.0544598	:arg0 :root :frequency
-2.7162135	<s> :arg0 :frequency
-2.9489899	<s> :arg1 :frequency
-3.0759735	:root :arg1 :frequency
-2.8704371	:root :arg2 :frequency
-1.3484997	<s> :root :op2
-0.056825925	:op1 :root :op2
-1.4500089	:root :time :op2
-0.44386634	:op1 :condition :op2
-1.2816662	<s> :mode :op2
-0.76866454	<s> :op1 :op2
-0.74000347	:root :op1 :op2
-0.36920866	:mod :op1 :op2
-0.7350811	:time :op1 :op2
-2.9723878	<s> :root :duration
-2.9618852	:mod :root :duration
-3.032206	:arg0 :root :duration
-2.351815	<s> :time :duration
-2.7905738	:root :arg0 :duration
-3.1613832	:root :arg1 :duration
-1.9288708	:root :manner :duration
-1.7597891	:root :purpose :duration
-0.5451506	:op2 :root :op3
-1.6278938	:root :op2 :op3
-0.60195214	:op1 :op2 :op3
-0.87063354	:root :op3 :op4
-0.7235483	:op2 :op3 :op4
-1.0078207	:op3 :op4 :op4
-0.32394156	:op3 :op6 :op4
-3.0620372	<s> :root :manner-of
-0.7230516	:root :snt2 :snt3
-3.0118701	<s> :root :consist-of
-2.8997908	:mod :root :consist-of
-2.14136	:quant :root :consist-of
-2.0057259	:part-of :root :consist-of
-2.8762043	<s> :mod :consist-of
-2.4801772	:root :mod :consist-of
-0.44652003	:op1-of :poss :consist-of
-2.3403394	<s> :arg1-of :consist-of
-0.91120195	:location :arg1-of :consist-of
-0.443072	:poss :arg2-of :consist-of
-2.186013	:root :location :consist-of
-3.013307	<s> :root :source
-3.0960562	:arg0 :root :source
-2.6314807	:root :arg1-of :source
-2.806472	:root :arg0 :source
-3.189641	:root :arg1 :source
-3.025593	<s> :root :accompanier
-2.9170456	:arg1 :root :accompanier
-1.6839321	<s> :condition :polite
-3.2286847	<s> :root :beneficiary
-2.0387962	:arg1-of :root :beneficiary
-2.9670267	:arg0 :root :beneficiary
-2.4642134	:arg1 :root :beneficiary
-1.9240838	:root :poss :beneficiary
-2.536221	:root :arg1-of :beneficiary
-1.1870102	:quant :arg1-of :beneficiary
-3.1752822	:root :arg1 :beneficiary
-0.7314779	:arg1 :mode :beneficiary
-3.1431632	<s> :root :arg3-of
-2.4970422	:arg1-of :root :arg3-of
-3.393674	<s> :root :time-of
-2.8883166	:arg1 :root :time-of
-2.5629652	:op1 :root :time-of
-2.6801991	<s> :root :topic
-3.000887	:mod :root :topic
-2.5980535	:degree :root :topic
-3.0433145	<s> :root :concession
-1.3378559	:arg2 :arg1-of :concession
-2.0068164	:arg1 :time :concession
-1.937845	:root :manner :concession
-2.593645	<s> :root :extent
-3.0825832	<s> :arg0 :extent
-3.189641	:root :arg1 :extent
-0.7952105	<s> :location-of :extent
-0.29820567	:op4 :root :op5
-1.0056031	:root :op3 :op5
-1.0078207	:op3 :op4 :op5
-1.5474874	:op2 :op3 :op6
-0.36716893	:op4 :op5 :op6
-3.1770508	:arg0 :root :condition-of
-1.0413736	:polarity :arg2 :range
-1.6590446	:root :domain :poss-of
-3.005539	<s> :root :instrument
-2.7230802	:arg0 :root :instrument
-1.0451337	:direction :time :instrument
-2.0215604	:time :arg0 :instrument
-2.8425715	:root :arg1 :instrument
-1.0728251	:arg1 :direction :instrument
-3.1915908	<s> :root :subevent-of
-2.8639796	:root :arg1 :subevent-of
-3.390266	<s> :root :path
-2.3201358	:time :root :path
-3.077916	:arg0 :root :path
-2.2524898	:root :arg1-of :path
-3.219866	:root :arg1 :path
-3.5383108	<s> :root :quant-of
-3.5553489	<s> :root :duration-of
-3.0620372	<s> :root :source-of
-3.4645348	<s> :root :arg4-of
-2.2455394	:domain :root :arg4-of
-2.2117288	:root :location :arg4-of
-3.1770508	:arg0 :root :arg5
-0.69859666	:manner :arg4 :arg5
-3.5553489	<s> :root :example
-0.4594588	:direction :location :example
-2.1163368	<s> :quant :unit
-2.6530445	:degree :root :concession-of
-3.222721	:root :arg1 :concession-of

\end\
