\data\
ngram 1=1531
ngram 2=6683
ngram 3=11035
ngram 4=12894
ngram 5=12904

\1-grams:
-3.8388162	<unk>	0
0	<s>	-1.4052368
-1.0916314	</s>	0
-1.4113734	:root	-0.35473514
-3.6972027	chapter	-0.12355411
-1.3759902	:mod	-0.47621703
-3.4869227	7	-0.1849764
-1.8030467	:poss	-0.6972
-3.3228238	life	-0.12355411
-2.59	:ord	-1.0102302
-3.6972027	ordinal-entity	-0.12355411
-1.7673892	:time	-0.3914767
-3.3228238	day	-0.15947908
-3.6972027	again	-0.12355411
-3.6972027	always	-0.12355411
-1.5003228	:arg1-of	-0.3116065
-3.6972027	thank-01	-0.12355411
-1.4080349	:arg0	-0.52959526
-3.2040076	sheep	-0.16894466
-1.1408644	:arg1	-0.3671639
-3.4869227	secret	-0.12355411
-3.3228238	little	-0.17728423
-3.1108131	prince	-0.21133707
-3.529324	reveal-01	-0.12355411
-1.4647986	:arg2	-0.24873511
-2.673358	i	-0.3469856
-1.9488809	:manner	-0.16782755
-3.6972027	abrupt	-0.12355411
-3.4869227	anything	-0.14709117
-2.4598963	:arg2-of	-0.19063564
-3.6972027	lead-up-05	-0.12355411
-3.529324	:conj-as-if	-0.12355411
-3.4869227	bear-02	-0.12355411
-2.9123268	thing	-0.22844137
-3.3228238	question-01	-0.16894466
-3.529324	long-03	-0.17197725
-3.2040076	silent	-0.18519403
-3.6972027	meditate-01	-0.12355411
-2.7051234	coref	-0.28568113
-3.6972027	problem	-0.12355411
-3.0341268	he	-0.27294597
-3.6972027	demand-01	-0.12355411
-2.4990873	:condition	-0.16033113
-3.3228238	eat-01	-0.17443544
-3.6972027	bush	-0.12355411
-1.9488809	:polarity	-1.4810551
-3.529324	-	-0.1351632
-2.9689708	flower	-0.25056896
-3.529324	too	-0.1673452
-3.1108131	answer-01	-0.19038644
-2.8622255	find-01	-0.269875
-1.9049633	:location	-0.28137755
-3.6972027	reach-03	-0.12355411
-3.1108131	it	-0.2635994
-3.6972027	even	-0.12355411
-1.874714	:arg0-of	-0.29565492
-2.8622255	have-03	-0.3294348
-3.529324	thorn	-0.12355411
-3.6972027	have-purpose-91	-0.12355411
-2.739397	amr-unknown	-0.38305292
-3.529324	have-condition-91	-0.12355411
-2.9123268	know-01	-0.3010812
-3.3228238	moment	-0.19450559
-2.8622255	that	-0.35623947
-1.7828768	:degree	-0.6371171
-3.6972027	very	-0.12355411
-3.4869227	busy-01	-0.20754543
-3.4869227	try-01	-0.20754543
-3.6972027	unscrew-01	-0.12355411
-3.4869227	bolt	-0.12355411
-3.6972027	stick-01	-0.12355411
-3.3228238	engine	-0.1849764
-1.9913275	:quant	-0.3533312
-3.3228238	much	-0.23149724
-3.4869227	worry-01	-0.12355411
-3.529324	clear-06	-0.12355411
-3.1108131	cause-01	-0.24423394
-3.6972027	break-down-12	-0.12355411
-3.6972027	plane	-0.12355411
-3.6972027	extreme	-0.12355411
-3.6972027	serious-02	-0.12355411
-2.441552	and	-0.2871018
-1.6690953	:op1	-0.17456411
-3.2040076	so	-0.20927559
-2.170045	:purpose	-0.1674239
-2.9689708	drink-01	-0.20230146
-3.1108131	water	-0.19038644
-3.6972027	leave-17	-0.12355411
-3.2040076	fear-01	-0.16114539
-3.1108131	obligate-01	-0.24683294
-3.529324	bad-07	-0.12355411
-3.1108131	use-01	-0.20544027
-3.2040076	let-01	-0.3783928
-3.529324	go-01	-0.12355411
-3.6972027	once	-0.12355411
-3.2040076	ask-01	-0.26132774
-3.6972027	upset-01	-0.12355411
-2.9123268	come-01	-0.2498967
-2.673358	:arg4	-0.14709117
-3.529324	head	-0.12355411
-2.133201	:part-of	-0.50521
-2.0911489	:domain	-0.29749098
-3.529324	just	-0.15758254
-3.6972027	spite	-0.12355411
-3.3228238	oh	-0.17443544
-2.5200944	:mode	-0.6580476
-3.6972027	expressive	-0.12355411
-3.6972027	complete-02	-0.12355411
-3.529324	then	-0.16878743
-3.6972027	flash-01	-0.12355411
-2.3907547	:direction	-0.3004231
-3.3228238	back	-0.16894466
-3.6972027	resent-01	-0.12355411
-3.6972027	kind	-0.12355411
-3.4869227	believe-01	-0.15758254
-3.4869227	weak-02	-0.12355411
-3.3228238	creature	-0.35701764
-3.0341268	they	-0.29648924
-3.4869227	naive	-0.12355411
-3.529324	reassure-01	-0.12355411
-3.6972027	good-03	-0.12355411
-2.441552	:compared-to	-0.14978689
-2.8622255	possible-01	-0.30728567
-3.6972027	most	-0.12355411
-3.6972027	terrible-01	-0.12355411
-3.6972027	weapon	-0.12355411
-3.3228238	instant	-0.1849764
-2.817311	say-01	-0.27911258
-3.1108131	turn-01	-0.12355411
-3.0341268	this	-0.21765412
-3.529324	still	-0.14978693
-3.6972027	knock-out-03	-0.12355411
-3.4869227	hammer	-0.12355411
-3.4869227	disturb-01	-0.16352245
-3.0341268	think-01	-0.21647762
-2.817311	you	-0.28572777
-3.6972027	actual-02	-0.12355411
-3.0341268	do-02	-0.22989342
-3.4869227	no	-0.17197725
-3.6972027	cry-01	-0.12355411
-3.3228238	3	-0.20544027
-2.7766092	see-01	-0.3018254
-3.2040076	matter	-0.26253313
-3.4869227	consequence	-0.18519403
-3.6972027	interrogative	-0.12355411
-3.6972027	stare-01	-0.12355411
-3.6972027	thunderstruck	-0.12355411
-2.817311	look-01	-0.24470507
-3.4869227	there	-0.1777067
-3.3228238	hand	-0.22648506
-3.529324	finger	-0.12355411
-3.6972027	black-04	-0.12355411
-3.6972027	grease	-0.12355411
-3.6972027	bend-01	-0.12355411
-3.1108131	:destination	-0.12355411
-3.4869227	down	-0.14978693
-3.3228238	object	-0.12355411
-3.2040076	seem-01	-0.23486191
-3.6972027	ugly	-0.12355411
-3.3228238	talk-01	-0.17197725
-2.9689708	resemble-01	-0.2815242
-3.2040076	grown-up	-0.15758254
-3.4869227	shame-01	-0.12355411
-3.0341268	contrast-01	-0.19766828
-3.529324	go-on-25	-0.12355411
-3.6972027	relentless	-0.12355411
-3.6972027	mix-up-02	-0.12355411
-3.3228238	everything	-0.16352245
-2.317413	:arg3	-0.19946848
-3.4869227	together	-0.12355411
-3.6972027	confuse-01	-0.12355411
-3.6972027	real-04	-0.12355411
-3.6972027	angry	-0.12355411
-3.6972027	toss-01	-0.12355411
-3.6972027	golden	-0.12355411
-3.6972027	curl	-0.12355411
-3.6972027	breeze	-0.12355411
-3.1108131	know-02	-0.1667914
-2.7766092	planet	-0.2771608
-2.7051234	:location-of	-0.13811465
-3.4869227	gentleman	-0.12355411
-3.4869227	:part	-0.20754543
-3.3228238	face	-0.17197725
-3.529324	certain	-0.15758254
-3.529324	red-02	-0.12355411
-3.6972027	smell-01	-0.12355411
-2.817311	star	-0.28633127
-2.9689708	love-01	-0.20544027
-3.4869227	anyone	-0.17197725
-3.6972027	ever	-0.12355415
-3.6972027	except-01	-0.12355411
-2.739397	live-01	-0.18519403
-3.6972027	add-up-04	-0.12355411
-3.6972027	figure	-0.12355411
-3.6972027	multi-sentence	-0.12355411
-3.0341268	all	-0.18146867
-3.3228238	:snt1	-0.12355411
-2.5200944	:frequency	-0.42514876
-3.6972027	over-and-over	-0.12355411
-3.3228238	:snt2	-0.12355411
-3.1108131	make-02	-0.24138224
-3.6972027	swell-01	-0.12355411
-3.4869227	pride-01	-0.17197725
-2.9123268	man	-0.22407445
-1.8603444	:op2	-0.18465367
-3.529324	mushroom	-0.12355411
-3.529324	now	-0.14154527
-3.4869227	white-03	-0.12355411
-3.6972027	enrage-01	-0.12355411
-3.6972027	grow-03	-0.12355411
-2.739397	:duration	-0.17197725
-3.4869227	multiple	-0.2023015
-2.9689708	temporal-quantity	-0.22604334
-3.4869227	have-concession-91	-0.12355411
-2.9123268	understand-01	-0.26186302
-3.529324	endure-01	-0.12355411
-3.6972027	trouble	-0.12355411
-3.4869227	grow-01	-0.12355411
-3.6972027	war-01	-0.12355411
-3.3228238	important	-0.23402514
-3.4869227	more	-0.18939732
-3.6972027	sum	-0.12355411
-3.6972027	fat-03	-0.12355411
-3.529324	1	-0.14154527
-3.529324	unique	-0.20754543
-3.0341268	world	-0.23857023
-3.6972027	nowhere	-0.12355411
-3.6972027	destroy-01	-0.12355411
-3.6972027	single-02	-0.12355411
-3.4869227	bite-01	-0.12355411
-3.2040076	date-entity	-0.17565177
-3.6972027	notice-01	-0.12355411
-3.6972027	turn-02	-0.12355411
-3.4869227	continue-02	-0.12355411
-3.3228238	someone	-0.1849764
-3.6972027	blossom	-0.12355411
-3.6972027	1000000	-0.12355411
-3.6972027	suffice-01	-0.12355411
-3.2040076	happy-01	-0.15758254
-3.1108131	be-located-at-91	-0.19837657
-3.6972027	darken-01	-0.12355411
-3.4869227	word	-0.20754543
-3.6972027	choke-up-04	-0.12355411
-3.6972027	sob-01	-0.12355411
-3.2040076	night	-0.17197725
-3.529324	fall-04	-0.12355411
-3.6972027	tool	-0.12355411
-3.529324	drop-01	-0.12355411
-3.0341268	or	-0.27234423
-2.542169	:op3	-0.1508282
-3.2040076	thirst-01	-0.20454119
-2.9689708	:op4	-0.12355411
-3.0341268	die-01	-0.2580554
-3.4869227	comfort-01	-0.1849764
-3.1108131	take-01	-0.33149627
-3.3228238	arm	-0.16352245
-3.6972027	rock-01	-0.12355411
-3.4869227	endanger-01	-0.20754543
-3.2040076	draw-01	-0.12355411
-3.6972027	muzzle-01	-0.12355411
-3.6972027	railing	-0.12355411
-3.2040076	put-01	-0.23095152
-3.529324	around	-0.12355411
-3.4869227	feel-01	-0.12355411
-3.6972027	awkward	-0.12355411
-3.6972027	blunder-01	-0.12355411
-3.529324	manner	-0.12355411
-3.2040076	location	-0.12355411
-3.3228238	:manner-of	-0.12355411
-3.6972027	reach-02	-0.12355411
-3.4869227	go-on-15	-0.12355411
-3.6972027	overtake-01	-0.12355411
-3.6972027	accompany-01	-0.12355411
-3.6972027	hand-in-hand	-0.12355411
-3.6972027	land	-0.12355411
-3.529324	such	-0.16352245
-3.1108131	place	-0.17197725
-3.6972027	tear	-0.12355411
-3.6972027	8	-0.12355411
-3.6972027	soon	-0.12355411
-3.6972027	learn-01	-0.12355411
-3.529324	simple-02	-0.1849764
-3.6972027	ring	-0.12355411
-2.5200944	:consist-of	-0.26548135
-3.529324	petal	-0.12355411
-3.6972027	take-up-13	-0.12355411
-3.529324	room	-0.12355411
-3.4869227	at-all	-0.16352245
-3.529324	anybody	-0.12355411
-3.6972027	:snt3	-0.12355411
-3.4869227	trouble-01	-0.1849764
-3.1108131	appear-01	-0.21963896
-3.529324	grass	-0.12355411
-3.529324	by	-0.12355411
-3.6972027	fade-01	-0.12355411
-3.6972027	peaceful	-0.12355411
-2.7766092	:source	-0.16031395
-3.529324	seed	-0.12355411
-3.529324	blow-01	-0.12355411
-3.0341268	one	-0.23629174
-3.6972027	new-01	-0.12355411
-3.6972027	come-up-13	-0.12355411
-3.6972027	watch-over-03	-0.12355411
-3.529324	close-10	-0.12355411
-3.3228238	small	-0.19450559
-3.529324	sprout	-0.12355411
-3.4869227	any	-0.1910162
-3.2040076	other	-0.16031395
-3.3228238	baobab	-0.2023015
-3.6972027	shrub	-0.12355411
-3.529324	stop-01	-0.12355411
-3.4869227	begin-01	-0.20454119
-3.6972027	ready-01	-0.12355411
-3.6972027	produce-01	-0.12355411
-3.529324	present-02	-0.12355411
-3.6972027	at-once	-0.12355411
-3.6972027	huge	-0.12355411
-3.6972027	bud	-0.12355411
-3.6972027	sort	-0.12355411
-3.6972027	miraculous	-0.12355411
-3.6972027	emerge-01	-0.12355411
-3.529324	satisfy-01	-0.12355411
-3.529324	complete-01	-0.25653946
-3.529324	prepare-02	-0.20754543
-3.3228238	beautiful-02	-0.1673452
-3.6972027	chamber	-0.12355411
-3.529324	shelter-01	-0.12355411
-3.6972027	green-02	-0.12355411
-3.1108131	she	-0.20882356
-3.6972027	choose-01	-0.12355411
-3.4869227	color	-0.12355411
-3.6972027	care-04	-0.12355411
-3.4869227	great	-0.15758254
-3.6972027	adjust-01	-0.12355411
-3.6972027	one-by-one	-0.12355411
-3.3228238	wish-01	-0.18536821
-3.6972027	go-out-17	-0.12355411
-3.6972027	rumple-02	-0.12355411
-3.4869227	field	-0.12355411
-3.6972027	poppy	-0.12355411
-3.529324	full	-0.12355411
-3.529324	only	-0.15758254
-3.4869227	radiate-01	-0.12355411
-3.3228238	yes	-0.17197725
-3.6972027	coquet	-0.12355411
-3.6972027	mysterious	-0.12355411
-3.6972027	adorn-01	-0.12355411
-3.4869227	last-01	-0.20754543
-3.2040076	exact	-0.16352245
-3.6972027	sunrise	-0.12355411
-3.6972027	sudden	-0.12355411
-3.4869227	show-01	-0.17197725
-3.6972027	after	-0.12355411
-3.3228238	work-01	-0.12355411
-3.6972027	precise	-0.12355411
-3.6972027	painstaking	-0.12355411
-3.0341268	yawn-01	-0.22478335
-3.4869227	ah	-0.17197725
-3.6972027	scarce	-0.12355411
-3.6972027	awake-03	-0.12355411
-3.529324	beg-01	-0.12355411
-3.4869227	excuse-01	-0.12355411
-3.6972027	arrange-01	-0.12355411
-3.529324	restrain-01	-0.12355411
-3.4869227	admire-01	-0.16352245
-3.6972027	respond-01	-0.12355411
-3.6972027	sweet-03	-0.12355411
-3.3228238	same-01	-0.1849764
-3.529324	sun	-0.12355411
-3.6972027	guess-01	-0.12355411
-3.6972027	easy-05	-0.12355411
-3.3228238	enough	-0.18536821
-3.529324	modest	-0.12355411
-3.529324	move-05	-0.12355411
-3.529324	excite-01	-0.12355411
-3.0341268	time	-0.19450559
-3.529324	breakfast-01	-0.12355411
-3.3228238	add-01	-0.14978693
-3.6972027	late	-0.12355411
-3.6972027	imperative	-0.12355411
-3.529324	kind-01	-0.20754543
-3.1108131	need-01	-0.22374617
-3.6972027	abash-01	-0.12355411
-3.6972027	go-05	-0.12355411
-3.6972027	sprinkle-01	-0.12355411
-3.6972027	can	-0.12355411
-3.6972027	fresh-04	-0.12355411
-3.6972027	tend-01	-0.12355411
-3.6972027	quick-02	-0.12355411
-3.6972027	deal-01	-0.12355411
-3.6972027	torment-01	-0.12355411
-3.6972027	vanity	-0.12355411
-3.529324	truth	-0.12355411
-3.3228238	difficult	-0.26454946
-3.529324	exemplify-01	-0.16352245
-3.1108131	speak-01	-0.15758254
-3.529324	4	-0.20754543
-3.529324	tiger	-0.12355411
-3.4869227	:accompanier	-0.12355411
-3.529324	claw	-0.25653946
-3.6972027	object-01	-0.12355411
-3.6972027	anyway	-0.12355411
-3.529324	weed	-0.12355411
-3.2040076	reply-01	-0.14825004
-3.4869227	:polite	-0.23207891
-3.6972027	+	-0.12355411
-3.529324	abhor-01	-0.25653946
-3.6972027	draft	-0.12355411
-3.6972027	suppose-01	-0.12355411
-3.4869227	screen	-0.20754543
-2.7766092	:beneficiary	-0.19067495
-3.6972027	luck	-0.12355411
-3.6972027	plant	-0.12355411
-3.6972027	remark-01	-0.12355411
-3.6972027	complex	-0.12355411
-3.0341268	want-01	-0.35944313
-3.4869227	under	-0.16352245
-3.6972027	glass	-0.12355411
-3.4869227	globe	-0.16352245
-3.6972027	cold-01	-0.12355411
-3.4869227	:arg3-of	-0.20754543
-3.529324	interrupt-01	-0.12355411
-3.6972027	point	-0.12355411
-3.3228238	:time-of	-0.12355411
-2.9123268	:topic	-0.14709117
-3.4869227	embarrass-01	-0.20754543
-3.6972027	catch-03	-0.12355411
-3.6972027	verge-01	-0.12355411
-3.4869227	cough-01	-0.1849764
-3.4869227	2	-0.14978693
-3.6972027	put-03	-0.12355411
-3.4869227	wrong-04	-0.12355411
-3.6972027	force-02	-0.12355411
-3.3228238	suffer-01	-0.1849764
-3.6972027	remorse	-0.12355411
-3.4869227	good-02	-0.19450559
-3.0341268	:concession	-0.12355411
-3.6972027	will	-0.12355411
-3.6972027	separate-01	-0.12355411
-3.4869227	come-04	-0.23207891
-3.6972027	doubt-01	-0.12355411
-3.4869227	serious-01	-0.12355411
-3.529324	word-01	-0.12355411
-3.529324	recommend-01	-0.12355411
-3.4869227	listen-01	-0.20754543
-3.529324	confide-01	-0.12355411
-3.6972027	simple	-0.12355411
-3.529324	breathe-01	-0.12355411
-3.529324	fragrance	-0.12355411
-3.6972027	perfume-01	-0.12355411
-3.529324	please-01	-0.12355411
-3.6972027	grace	-0.12355411
-3.6972027	tale	-0.12355411
-3.6972027	claws	-0.12355411
-3.6972027	fill-01	-0.12355411
-3.4869227	heart	-0.18519403
-3.529324	tender	-0.12355411
-3.529324	pity-01	-0.12355411
-3.2040076	judge-01	-0.12355411
-3.529324	cast-01	-0.12355411
-3.529324	run-02	-0.12355411
-3.3228238	away	-0.12355411
-3.6972027	affection	-0.12355411
-3.529324	lie-07	-0.12355411
-3.6972027	behind	-0.12355411
-3.6972027	poor	-0.12355411
-3.6972027	strategem	-0.12355411
-3.6972027	consistent-01	-0.12355411
-3.6972027	young	-0.12355411
-3.6972027	9	-0.12355411
-3.529324	escape-01	-0.12355411
-3.6972027	advantage	-0.12355411
-3.6972027	migrate-01	-0.12355411
-3.6972027	flock-02	-0.12355411
-3.6972027	wild	-0.12355411
-3.4869227	bird	-0.12355411
-3.529324	perfect-02	-0.25653946
-3.529324	order-03	-0.12355411
-3.6972027	careful	-0.12355411
-3.3228238	clean-out-03	-0.12355411
-3.529324	activity-06	-0.12355411
-3.2040076	volcano	-0.17197725
-3.6972027	possess-01	-0.12355411
-3.6972027	convenient	-0.12355411
-3.6972027	heat-01	-0.12355411
-3.6972027	food	-0.12355411
-3.6972027	also	-0.12355411
-3.4869227	extinct	-0.16352245
-2.9123268	well	-0.18525624
-3.6972027	burn-01	-0.12355411
-3.6972027	slow-05	-0.12355411
-3.6972027	steady	-0.12355411
-3.529324	erupt-01	-0.12355411
-3.6972027	fire	-0.12355411
-3.6972027	chimney	-0.12355411
-3.4869227	earth	-0.12355411
-3.0341268	we	-0.19208232
-3.6972027	obvious-01	-0.12355411
-3.6972027	end	-0.12355411
-3.529324	pull-01	-0.25653946
-3.529324	up	-0.1849764
-3.3228238	sense-01	-0.35701764
-3.6972027	deject-01	-0.12355411
-3.6972027	shoot	-0.12355411
-3.4869227	return-01	-0.17197725
-3.6972027	familiar	-0.12355411
-3.6972027	task	-0.12355411
-3.6972027	precious	-0.12355411
-3.529324	water-01	-0.12355411
-3.4869227	flower-01	-0.16352245
-3.6972027	place-01	-0.12355411
-3.529324	realize-01	-0.12355411
-3.6972027	tear-03	-0.12355411
-3.6972027	goodbye	-0.12355411
-3.6972027	cold	-0.12355411
-3.6972027	silly	-0.12355411
-3.6972027	at-last	-0.12355411
-3.529324	ask-02	-0.25653946
-3.6972027	forgive-01	-0.12355411
-3.6972027	surprise-01	-0.12355411
-3.6972027	absent-01	-0.12355411
-3.6972027	reproach-01	-0.12355411
-3.4869227	stand-01	-0.12355411
-3.6972027	bewilder-01	-0.12355411
-3.6972027	arrest-02	-0.12355411
-3.6972027	midair	-0.12355411
-3.529324	hold-01	-0.12355411
-3.6972027	quiet-04	-0.12355411
-3.529324	sweet-05	-0.12355411
-3.6972027	of-course	-0.12355411
-3.4869227	fault-01	-0.12355411
-3.6972027	while-away-01	-0.12355411
-3.6972027	equal	-0.12355411
-3.6972027	foolish	-0.12355411
-3.529324	anymore	-0.20754543
-3.4869227	wind	-0.16352245
-3.6972027	bad-05	-0.12355411
-3.6972027	cool-06	-0.12355411
-3.529324	air	-0.20754543
-3.4869227	good-04	-0.15758254
-3.529324	animal	-0.12355411
-3.529324	caterpillar	-0.12355411
-3.6972027	acquaint-01	-0.12355411
-3.4869227	butterfly	-0.12355411
-3.529324	call-on-05	-0.12355411
-2.8622255	:extent	-0.20256175
-3.2040076	far	-0.1849764
-3.4869227	large	-0.12355411
-3.6972027	linger-01	-0.12355411
-3.6972027	decide-01	-0.12355411
-3.0341268	go-02	-0.21557227
-3.3228238	cry-02	-0.2023015
-3.529324	10	-0.25653946
-3.6972027	find-out-03	-0.12355411
-3.6972027	neighborhood	-0.12355411
-3.1108131	asteroid/name	-0.12355411
-3.4869227	:op5	-0.12355411
-3.529324	:op6	-0.12355411
-3.6972027	therefore	-0.12355411
-3.4869227	visit-01	-0.17197725
-3.529324	add-02	-0.12355411
-3.6972027	knowledge	-0.12355411
-3.529324	include-91	-0.14978693
-3.3228238	inhabit-01	-0.17197725
-2.9689708	king	-0.23741211
-3.6972027	clad-01	-0.12355411
-3.6972027	royal	-0.12355411
-3.6972027	purple-02	-0.12355411
-3.4869227	ermine	-0.20754543
-3.6972027	seat-01	-0.12355411
-3.6972027	throne	-0.12355411
-3.4869227	majesty	-0.12355411
-3.4869227	here	-0.1673452
-3.529324	subject	-0.12355411
-3.6972027	exclaim-01	-0.12355411
-3.529324	recognize-02	-0.25653946
-3.4869227	before	-0.1667914
-3.6972027	simplify-01	-0.12355411
-3.529324	opine-01	-0.12355411
-3.6972027	approach-01	-0.12355411
-3.6972027	reign-01	-0.12355411
-3.6972027	somebody	-0.12355411
-3.6972027	everywhere	-0.12355411
-3.1108131	sit-down-02	-0.20544027
-3.529324	entire	-0.12355411
-3.6972027	cram-01	-0.12355411
-3.6972027	obstruct-01	-0.12355411
-3.529324	magnificent	-0.12355411
-3.6972027	robe	-0.12355411
-3.4869227	remain-01	-0.12355411
-3.529324	upright	-0.12355411
-3.3228238	tire-01	-0.15758254
-3.6972027	contrary-01	-0.12355411
-3.6972027	etiquette	-0.12355411
-3.4869227	monarch	-0.20754543
-3.6972027	forbid-01	-0.12355411
-3.6972027	help-02	-0.12355411
-3.6972027	thorough	-0.12355411
-3.529324	journey-01	-0.12355411
-3.0341268	sleep-01	-0.22478335
-3.1108131	order-01	-0.20506981
-3.529324	pass-03	-0.12355411
-3.4869227	year	-0.12355411
-3.6972027	since	-0.12355411
-3.529324	curious-01	-0.25653946
-3.4869227	frighten-01	-0.20754543
-3.6972027	murmur-01	-0.12355411
-3.4869227	hum	-0.23207891
-3.529324	sometimes	-0.16352245
-3.6972027	sputter-01	-0.12355411
-3.6972027	vex-01	-0.12355411
-3.6972027	fundamental	-0.12355411
-3.6972027	insist-01	-0.12355411
-3.4869227	authority	-0.1849764
-3.529324	respect-01	-0.12355411
-3.6972027	tolerate-01	-0.12355411
-3.6972027	disobey-01	-0.12355411
-3.529324	absolute	-0.12355411
-3.3228238	reasonable-02	-0.2023015
-3.529324	:condition-of	-0.12355411
-2.739397	person	-0.30883783
-3.529324	have-org-role-91	-0.25653946
-3.2040076	change-01	-0.18519403
-3.3228238	sea	-0.12355411
-3.6972027	general	-0.12355411
-3.4869227	obey-01	-0.16352245
-3.529324	permit-01	-0.12355411
-3.6972027	timid	-0.12355411
-3.529324	inquire-01	-0.12355411
-3.6972027	gather-01	-0.12355411
-3.6972027	fold	-0.12355411
-3.6972027	mantle	-0.12355411
-3.529324	wonder-01	-0.12355411
-3.6972027	tiny	-0.12355411
-3.529324	rule-03	-0.12355411
-3.6972027	sire	-0.12355411
-3.6972027	hasten-01	-0.12355411
-3.6972027	assure-01	-0.12355411
-3.6972027	magnificence	-0.12355411
-3.3228238	over	-0.1849764
-3.6972027	gesture-01	-0.12355411
-3.6972027	take-in-23	-0.12355411
-3.6972027	universal	-0.12355411
-3.6972027	insubordinate-00	-0.12355411
-3.6972027	power	-0.12355411
-3.6972027	marvel-01	-0.12355411
-3.6972027	master	-0.12355411
-3.6972027	:poss-of	-0.12355411
-3.6972027	have-frequency-91	-0.12355411
-3.4869227	watch-01	-0.20754543
-3.529324	sunset	-0.16352245
-3.6972027	44	-0.12355411
-3.529324	:range	-0.12355411
-3.6972027	200	-0.12355411
-3.6972027	72	-0.12355411
-3.529324	100	-0.12355411
-3.4869227	move-01	-0.12355411
-3.6972027	chair	-0.12355411
-3.6972027	bit	-0.12355411
-3.2040076	sad-02	-0.16352245
-3.2040076	remember-01	-0.21928558
-3.6972027	forsake-01	-0.12355411
-3.4869227	pluck-01	-0.20754543
-3.6972027	courage	-0.12355411
-3.529324	like-02	-0.12355411
-3.6972027	set-11	-0.12355411
-3.6972027	fly-01	-0.12355411
-3.529324	another	-0.12355411
-3.3228238	write-01	-0.2023015
-3.529324	tragedy	-0.12355411
-3.6972027	drama	-0.12355411
-3.6972027	carry-out-03	-0.12355411
-3.529324	receive-01	-0.12355411
-3.6972027	firm-03	-0.12355411
-3.529324	require-01	-0.1849764
-3.6972027	duty	-0.12355411
-3.529324	each	-0.12355411
-3.6972027	perform-02	-0.12355411
-3.6972027	accept-01	-0.12355411
-3.6972027	rest-02	-0.12355411
-3.6972027	first-of-all	-0.12355411
-3.529324	reason-01	-0.12355411
-3.6972027	throw-01	-0.12355411
-3.6972027	rise-up-03	-0.12355411
-3.6972027	revolution-03	-0.12355411
-3.6972027	right-05	-0.12355411
-3.6972027	remind-01	-0.12355411
-3.0341268	forget-01	-0.17862116
-3.6972027	command-02	-0.12355411
-3.6972027	science	-0.12355411
-3.6972027	govern-01	-0.12355411
-3.529324	wait-01	-0.16352245
-3.6972027	government-organization	-0.12355411
-3.529324	condition	-0.12355411
-3.529324	favorable	-0.25653946
-3.529324	be-temporally-at-91	-0.12355411
-3.6972027	else	-0.12355411
-3.6972027	consult-01	-0.12355411
-3.6972027	bulky-02	-0.12355411
-3.6972027	almanac	-0.12355411
-3.3228238	about	-0.17197725
-3.4869227	regret-01	-0.12355411
-3.529324	lose-02	-0.12355411
-3.6972027	already	-0.12355411
-3.6972027	bore-02	-0.12355411
-3.4869227	set-out-07	-0.12355411
-3.529324	way	-0.17197725
-3.529324	minister	-0.12355411
-3.529324	justice	-0.25653946
-3.4869227	nobody	-0.16352245
-3.6972027	tour-01	-0.12355411
-3.6972027	kingdom	-0.12355411
-3.529324	old	-0.12355411
-3.6972027	carriage	-0.12355411
-3.1108131	walk-01	-0.17197725
-3.529324	glance-01	-0.12355411
-3.529324	side	-0.12355411
-3.3228238	succeed-01	-0.2023015
-3.6972027	right-02	-0.12355411
-3.6972027	wise	-0.12355411
-3.3228238	true-01	-0.17443544
-3.6972027	anywhere	-0.12355411
-3.6972027	reason	-0.12355411
-3.6972027	somewhere	-0.12355411
-3.6972027	rat	-0.12355411
-3.2040076	hear-01	-0.19732434
-3.6972027	time-to-time	-0.12355411
-3.529324	condemn-01	-0.25653946
-3.6972027	depend-01	-0.12355411
-3.6972027	pardon-01	-0.12355411
-3.6972027	occasion-02	-0.12355411
-3.6972027	treat-04	-0.12355411
-3.6972027	thrift	-0.12355411
-3.6972027	like-01	-0.12355411
-3.529324	depart-01	-0.12355411
-3.6972027	grieve-01	-0.12355411
-3.6972027	prompt	-0.12355411
-3.529324	end-01	-0.12355411
-3.4869227	hesitate-01	-0.12355411
-3.529324	sigh-02	-0.12355411
-3.4869227	leave-11	-0.12355411
-3.6972027	ambassador	-0.12355411
-3.6972027	call-07	-0.12355411
-3.6972027	hasty	-0.12355411
-3.529324	strange	-0.12355411
-3.529324	continue-01	-0.20754543
-3.6972027	11	-0.12355411
-3.6972027	conceit	-0.12355411
-3.6972027	about-to	-0.12355411
-3.529324	from	-0.12355411
-3.6972027	afar	-0.12355411
-3.4869227	morning	-0.17197725
-3.6972027	queer	-0.12355411
-3.529324	hat	-0.12355411
-3.6972027	wear-01	-0.12355411
-2.7766092	:instrument	-0.23511289
-3.4869227	salute-01	-0.12355411
-3.3228238	raise-01	-0.17443544
-3.4869227	:subevent-of	-0.20754543
-3.6972027	acclaim-01	-0.12355411
-3.6972027	fortunate-01	-0.12355411
-3.1108131	:path	-0.20754543
-3.4869227	clap-01	-0.20754543
-3.529324	differ-02	-0.17197725
-3.6972027	direct-01	-0.12355411
-3.6972027	entertain-01	-0.12355411
-3.6972027	exercise	-0.12355411
-3.6972027	game	-0.12355411
-3.6972027	monotony	-0.12355411
-3.6972027	praise-01	-0.12355411
-3.2040076	mean-01	-0.19355252
-3.6972027	regard-01	-0.12355411
-3.6972027	handsome	-0.12355411
-3.6972027	dress-01	-0.12355411
-3.4869227	rich	-0.12355411
-3.6972027	intelligent-01	-0.12355411
-3.6972027	shrug-01	-0.12355411
-3.6972027	shoulder	-0.12355411
-3.6972027	slight	-0.12355411
-3.1108131	interest-01	-0.1667914
-3.6972027	odd	-0.12355411
-3.4869227	12	-0.20754543
-3.529324	next	-0.20754543
-3.6972027	tipple-01	-0.12355411
-3.6972027	short-07	-0.12355411
-3.529324	deep-02	-0.12355411
-3.6972027	settle-down-04	-0.12355411
-3.529324	empty-02	-0.12355411
-3.529324	bottle	-0.12355411
-3.6972027	collect-01	-0.12355411
-3.6972027	lugubrious	-0.12355411
-3.529324	sorry-01	-0.12355411
-3.6972027	hang-01	-0.12355411
-3.529324	confess-01	-0.12355411
-3.6972027	help-01	-0.12355411
-3.6972027	shut-up-06	-0.12355411
-3.6972027	pregnable	-0.12355411
-3.6972027	puzzle-01	-0.12355411
-3.6972027	13	-0.12355411
-3.4869227	belong-01	-0.18536821
-3.2040076	businessman	-0.15336238
-3.6972027	occupy-01	-0.12355411
-3.6972027	arrive-01	-0.12355411
-3.6972027	cigarette	-0.12355411
-3.6972027	go-out-18	-0.12355411
-3.529324	sum-of	-0.25653946
-3.6972027	equal-01	-0.12355411
-3.4869227	5	-0.12355411
-3.4869227	15	-0.20754543
-3.4869227	22	-0.20754543
-3.529324	6	-0.12355411
-3.6972027	28	-0.12355411
-3.0341268	light-04	-0.19864596
-3.529324	26	-0.12355411
-3.6972027	31	-0.12355411
-3.6972027	phew	-0.12355411
-3.529324	501622731	-0.12355411
-3.6972027	500000000	-0.12355411
-3.6972027	eh	-0.12355411
-3.4869227	501000000	-0.20754543
-3.6972027	concern-01	-0.12355411
-3.6972027	amuse-01	-0.12355411
-3.6972027	balderdash	-0.12355411
-3.6972027	repeat-01	-0.12355411
-3.3228238	some	-0.19732434
-3.6972027	giddy	-0.12355411
-3.6972027	goose	-0.12355411
-3.4869227	fall-01	-0.20754543
-3.6972027	goodness	-0.12355411
-3.1108131	make-01	-0.18519403
-3.529324	noise	-0.12355411
-3.6972027	resound-01	-0.12355411
-3.6972027	all-over	-0.12355411
-3.529324	mistake-02	-0.12355411
-3.6972027	attack-01	-0.12355411
-3.6972027	rheumatism	-0.12355411
-3.6972027	exercise-02	-0.12355411
-3.6972027	loaf-01	-0.12355411
-3.6972027	hopeful-03	-0.12355411
-3.6972027	leave-14	-0.12355411
-3.6972027	until	-0.12355411
-3.6972027	peace	-0.12355411
-3.4869227	sky	-0.18536821
-3.6972027	fly	-0.12355411
-3.6972027	glitter-01	-0.12355411
-3.6972027	bee	-0.12355411
-3.529324	gold	-0.17197725
-3.529324	lazy	-0.12355411
-3.6972027	idle-01	-0.12355411
-3.4869227	dream-01	-0.1849764
-3.6972027	idle	-0.12355411
-3.6972027	that-is-it-00	-0.12355411
-3.6972027	have-quant-91	-0.12355411
-3.6972027	accurate	-0.12355411
-3.4869227	nothing	-0.14307866
-3.3228238	own-01	-0.22478335
-3.529324	buy-01	-0.20754543
-3.4869227	discover-01	-0.12355411
-3.6972027	retort-01	-0.12355411
-3.6972027	peevish	-0.12355411
-3.6972027	diamond	-0.12355411
-3.6972027	island	-0.12355411
-3.529324	get-01	-0.12355411
-3.4869227	idea	-0.12355411
-3.6972027	patent-01	-0.12355411
-3.6972027	administer-01	-0.12355411
-3.529324	count-01	-0.20754543
-3.6972027	recount-01	-0.12355411
-3.6972027	natural-02	-0.12355411
-3.6972027	silk	-0.12355411
-3.6972027	scarf	-0.12355411
-3.6972027	neck	-0.12355411
-3.529324	take-away-05	-0.12355411
-3.4869227	heaven	-0.12355411
-3.6972027	bank	-0.12355411
-3.6972027	number	-0.12355411
-3.6972027	:quant-of	-0.12355411
-3.529324	paper	-0.12355411
-3.6972027	drawer	-0.12355411
-3.6972027	lock-01	-0.12355411
-3.6972027	key	-0.12355411
-3.6972027	rather	-0.12355411
-3.6972027	poetry	-0.12355411
-3.529324	converse-01	-0.12355411
-3.4869227	rate-entity-91	-0.19837657
-3.4869227	open-01	-0.12355411
-3.6972027	mouth	-0.12355411
-3.6972027	altogether	-0.12355411
-3.529324	extraordinary	-0.12355411
-3.6972027	14	-0.12355411
-3.6972027	accommodate-01	-0.12355411
-3.529324	street	-0.12355411
-3.3228238	lamp	-0.14319725
-3.6972027	explain-01	-0.12355411
-3.529324	relative-position	-0.1849764
-3.3228238	house	-0.1849764
-3.4869227	absurd	-0.12355411
-3.6972027	at-least	-0.12355411
-3.3228238	bring-01	-0.17197725
-3.2040076	put-out-09	-0.26454946
-3.6972027	send-02	-0.12355411
-3.6972027	occupation	-0.12355411
-3.6972027	truly	-0.12355411
-3.6972027	useful-05	-0.12355411
-3.529324	evening	-0.12355411
-3.529324	order	-0.12355411
-3.6972027	mop-01	-0.12355411
-3.529324	forehead	-0.12355411
-3.6972027	handkerchief	-0.12355411
-3.6972027	decorate-01	-0.12355411
-3.6972027	square	-0.12355411
-3.529324	follow-02	-0.12355411
-3.6972027	profession	-0.12355411
-3.529324	rest	-0.25653946
-3.6972027	relax-01	-0.12355411
-3.6972027	rapid	-0.12355411
-3.6972027	no-longer	-0.12355411
-3.4869227	funny	-0.12355411
-3.529324	:duration-of	-0.12355411
-3.6972027	faithful-00	-0.12355411
-3.3228238	have-rel-role-91	-0.16114539
-3.6972027	:purpose-of	-0.12355411
-3.6972027	seek-01	-0.12355411
-3.529324	mere	-0.12355411
-3.6972027	friend	-0.12355411
-3.0341268	tell-01	-0.36687705
-3.6972027	rest-01	-0.12355411
-3.6972027	faithful	-0.12355411
-3.6972027	stride-01	-0.12355411
-3.6972027	take-03	-0.12355411
-3.6972027	all-the-way	-0.12355411
-3.529324	sunshine	-0.12355411
-3.6972027	lucky	-0.12355411
-3.6972027	scorn-01	-0.12355411
-3.6972027	ridiculous-02	-0.12355411
-3.4869227	something	-0.12355411
-3.6972027	breathe-02	-0.12355411
-3.6972027	indeed	-0.12355411
-3.4869227	dare-01	-0.20754543
-3.6972027	bless-01	-0.12355411
-3.6972027	1440	-0.12355411
-3.6972027	product-of	-0.12355411
-3.6972027	volume-quantity	-0.12355411
-3.6972027	last	-0.12355411
-3.6972027	volume	-0.12355411
-3.529324	book	-0.12355411
-3.6972027	explore-01	-0.12355411
-3.6972027	table	-0.12355411
-3.6972027	pant-01	-0.12355411
-3.2040076	travel-01	-0.16352245
-3.6972027	big	-0.12355411
-3.1108131	geographer	-0.18924333
-3.529324	scholar	-0.12355411
-3.6972027	river	-0.12355411
-3.529324	town	-0.12355411
-2.9123268	mountain	-0.1673452
-3.0341268	desert	-0.36964378
-3.6972027	stately	-0.12355411
-3.4869227	ocean	-0.12355411
-3.6972027	disappoint-01	-0.12355411
-3.6972027	either	-0.12355411
-3.6972027	desk	-0.12355411
-3.6972027	study	-0.12355411
-3.529324	note-02	-0.12355411
-3.6972027	recall-02	-0.12355411
-3.6972027	order-02	-0.12355411
-3.6972027	moral-02	-0.12355411
-3.6972027	character	-0.12355411
-3.6972027	lie-08	-0.12355411
-3.6972027	disaster	-0.12355411
-3.6972027	intoxicate-01	-0.12355411
-3.6972027	double	-0.12355411
-3.6972027	make-06	-0.12355411
-3.6972027	bad-02	-0.12355411
-3.6972027	complicate-01	-0.12355411
-3.529324	furnish-01	-0.25653946
-3.6972027	prove-01	-0.12355411
-3.3228238	stone	-0.12355411
-3.529324	stir-02	-0.12355411
-2.9689708	:source-of	-0.27280602
-3.6972027	describe-01	-0.12355411
-3.6972027	register-02	-0.12355411
-3.529324	sharpen-01	-0.12355411
-3.529324	pencil	-0.20754543
-3.6972027	recite-01	-0.12355411
-3.6972027	first	-0.12355411
-3.6972027	ink	-0.12355411
-3.6972027	expect-01	-0.12355411
-3.6972027	record-01	-0.12355411
-3.4869227	ephemeral	-0.12355411
-3.6972027	geography	-0.12355411
-3.529324	concern-02	-0.12355411
-3.3228238	become-01	-0.29921153
-3.6972027	fashion	-0.12355411
-3.6972027	rare-02	-0.12355411
-3.6972027	position-01	-0.12355411
-3.6972027	empty-01	-0.12355411
-3.6972027	eternal	-0.12355411
-3.6972027	matter-01	-0.12355411
-3.6972027	speedy-03	-0.12355411
-3.529324	disappear-01	-0.20754543
-3.6972027	defend-01	-0.12355411
-3.6972027	leave-12	-0.12355411
-3.3228238	alone	-0.20754543
-3.6972027	advise-01	-0.12355411
-3.6972027	reputation	-0.12355411
-3.6972027	16	-0.12355411
-3.2040076	planet/name	-0.12355411
-3.6972027	ordinary	-0.12355411
-3.6972027	111	-0.12355411
-3.4869227	sure-02	-0.15318027
-3.6972027	negro	-0.12355411
-3.6972027	900000	-0.12355411
-3.6972027	7000	-0.12355411
-3.6972027	7500000	-0.12355411
-3.6972027	311000000	-0.12355411
-3.6972027	conceited	-0.12355411
-3.529324	2000000000	-0.12355411
-3.1108131	give-01	-0.23857023
-3.6972027	size-01	-0.12355411
-3.529324	invent-01	-0.12355411
-3.6972027	electricity	-0.12355411
-3.6972027	maintain-01	-0.12355411
-3.4869227	whole	-0.23207891
-3.6972027	continent	-0.12355411
-3.6972027	veritable	-0.12355411
-3.529324	army	-0.12355411
-3.6972027	462511	-0.12355411
-3.6972027	distance-01	-0.12355411
-3.6972027	splendid	-0.12355411
-3.6972027	spectacle	-0.12355411
-3.6972027	regulate-01	-0.12355411
-3.6972027	ballet	-0.12355411
-3.6972027	opera	-0.12355411
-3.6972027	come-03	-0.12355411
-3.6972027	country/name	-0.12355411
-3.529324	enter-01	-0.12355411
-3.6972027	step	-0.12355411
-3.4869227	dance-01	-0.20754543
-3.6972027	wave-02	-0.12355411
-3.6972027	into	-0.12355411
-3.6972027	wing	-0.12355411
-3.6972027	turn	-0.12355411
-3.529324	continent/name	-0.12355411
-3.6972027	stage	-0.12355411
-3.6972027	charge-05	-0.12355411
-3.6972027	world-region/name	-0.12355411
-3.6972027	colleague	-0.12355411
-3.3228238	responsible-03	-0.12355411
-3.6972027	free-04	-0.12355411
-3.6972027	toil-01	-0.12355411
-3.6972027	care-01	-0.12355411
-3.6972027	17	-0.12355411
-3.6972027	play-02	-0.12355411
-3.6972027	wit	-0.12355411
-3.6972027	wander-01	-0.12355411
-3.6972027	honest-01	-0.12355411
-3.529324	risk-01	-0.12355411
-3.6972027	false	-0.12355411
-3.6972027	people-01	-0.12355411
-3.6972027	surface	-0.12355411
-3.6972027	somewhat	-0.12355411
-3.6972027	crowd-02	-0.12355411
-3.6972027	assemble-02	-0.12355411
-3.6972027	public	-0.12355411
-3.6972027	public-02	-0.12355411
-3.4869227	distance-quantity	-0.1849764
-3.6972027	wide-02	-0.12355411
-3.6972027	humanity	-0.12355411
-3.6972027	pile-01	-0.12355411
-3.6972027	ocean/name	-0.12355411
-3.6972027	islet	-0.12355411
-3.529324	imagine-01	-0.12355411
-3.6972027	deal	-0.12355411
-3.6972027	space	-0.12355411
-3.6972027	fancy-01	-0.12355411
-3.6972027	calculate-01	-0.12355411
-3.6972027	adore-01	-0.12355411
-3.4869227	waste-01	-0.20754543
-3.6972027	extra	-0.12355411
-3.6972027	task-01	-0.12355411
-3.6972027	trust-01	-0.12355411
-3.6972027	flash-02	-0.12355411
-3.6972027	coil	-0.12355411
-3.6972027	moon	-0.12355411
-3.529324	across	-0.25653946
-3.1108131	sand	-0.27972683
-3.6972027	courteous	-0.12355411
-3.3228238	snake	-0.19450559
-3.4869227	:arg4-of	-0.23207891
-3.3228238	eye	-0.12355411
-3.6972027	right	-0.12355411
-3.529324	above	-0.25653946
-3.529324	ah-01	-0.12355411
-3.6972027	both	-0.12355411
-3.6972027	take-up-31	-0.12355411
-3.529324	lonely	-0.25653946
-3.529324	among	-0.12355411
-3.6972027	gaze-01	-0.12355411
-3.6972027	thick-03/more	-0.12355411
-3.529324	powerful-02	-0.12355411
-3.4869227	smile-01	-0.12355411
-3.529324	foot	-0.12355411
-3.529324	carry-01	-0.1849764
-3.6972027	ship	-0.12355411
-3.6972027	twine-01	-0.12355411
-3.6972027	ankle	-0.12355411
-3.6972027	bracelet	-0.12355411
-3.529324	touch-01	-0.25653946
-3.529324	send-01	-0.25653946
-3.6972027	innocent-01	-0.12355411
-3.6972027	granite	-0.12355411
-3.6972027	grow-02	-0.12355411
-3.6972027	homesick	-0.12355411
-3.6972027	riddle	-0.12355411
-3.6972027	solve-01	-0.12355411
-3.6972027	18	-0.12355411
-3.6972027	cross-02	-0.12355411
-3.3228238	meet-03	-0.12355411
-3.6972027	account	-0.12355411
-3.6972027	polite-01	-0.12355411
-3.6972027	caravan-01	-0.12355411
-3.6972027	pass-02	-0.12355411
-3.529324	echo-01	-0.25653946
-3.6972027	exist-01	-0.12355411
-3.529324	several	-0.25653946
-3.6972027	root	-0.12355411
-3.6972027	19	-0.12355411
-3.6972027	climb-01	-0.12355411
-3.6972027	high-02	-0.12355411
-3.6972027	up-to	-0.12355411
-3.529324	knee	-0.12355411
-3.6972027	footstool	-0.12355411
-3.6972027	peak	-0.12355411
-3.529324	rock	-0.25653946
-3.6972027	needle	-0.12355411
-3.6972027	courtesy	-0.12355411
-3.6972027	dry-08	-0.12355411
-3.6972027	pointed	-0.12355411
-3.6972027	harsh-02	-0.12355411
-3.6972027	forbidding	-0.12355411
-3.6972027	20	-0.12355411
-3.6972027	snow-01	-0.12355411
-3.529324	come-upon-26	-0.12355411
-3.529324	road	-0.12355411
-3.6972027	lead-01	-0.12355411
-3.6972027	abode	-0.12355411
-3.529324	garden	-0.12355411
-3.529324	bloom-01	-0.25653946
-2.9689708	rose	-0.19399703
-3.4869227	look-02	-0.18536821
-3.6972027	overcome-01	-0.12355411
-3.6972027	universe	-0.12355411
-3.6972027	5000	-0.12355411
-3.4869227	alike-05	-0.12355411
-3.6972027	annoy-01	-0.12355411
-3.6972027	dreadful-02	-0.12355411
-3.529324	pretend-01	-0.25653946
-3.6972027	avoid-01	-0.12355411
-3.1108131	laugh-01	-0.19013928
-3.6972027	oblige-02	-0.12355411
-3.6972027	nurse-01	-0.12355411
-3.6972027	humble-01	-0.12355411
-3.529324	allow-01	-0.12355411
-3.6972027	reflect-02	-0.12355411
-3.6972027	common	-0.12355411
-3.6972027	perhaps	-0.12355411
-3.529324	forever	-0.12355411
-3.6972027	21	-0.12355411
-3.2040076	fox	-0.19038644
-3.6972027	voice	-0.12355411
-3.6972027	apple	-0.12355411
-3.4869227	tree	-0.20754543
-3.6972027	pretty	-0.12355411
-3.529324	play-01	-0.25653946
-3.6972027	propose-01	-0.12355411
-3.0341268	tame-01	-0.27627608
-3.6972027	gun	-0.12355411
-3.4869227	hunt-01	-0.17197725
-3.529324	raise-03	-0.12355411
-3.529324	chicken	-0.1849764
-3.6972027	person/have-rel-role-91	-0.12355411
-3.6972027	act-02	-0.12355411
-3.6972027	often	-0.12355411
-3.529324	neglect-01	-0.25653946
-3.529324	establish-01	-0.25653946
-3.6972027	tie-01	-0.12355411
-3.4869227	boy	-0.1849764
-3.6972027	100000	-0.12355411
-3.6972027	perplex-01	-0.12355411
-3.6972027	sigh-01	-0.12355411
-3.6972027	monotonous	-0.12355411
-3.529324	shine-01	-0.25653946
-3.6972027	know-04	-0.12355411
-3.3228238	sound-02	-0.12355411
-3.3228238	step-01	-0.12355411
-3.6972027	send-03	-0.12355411
-3.3228238	hurry-01	-0.12355411
-3.529324	:arg5	-0.12355411
-3.6972027	underneath	-0.12355411
-3.6972027	ground	-0.12355411
-3.6972027	call-03	-0.12355411
-3.529324	music	-0.12355411
-3.6972027	out-06	-0.12355411
-3.6972027	burrow	-0.12355411
-3.529324	grain	-0.12355411
-3.6972027	yonder	-0.12355411
-3.6972027	bread	-0.12355411
-3.4869227	wheat	-0.12355411
-3.529324	hair	-0.12355411
-3.529324	wonderful-03	-0.12355411
-3.6972027	love-02	-0.12355411
-3.6972027	many	-0.12355411
-3.6972027	shop	-0.12355411
-3.6972027	friendship	-0.12355411
-3.6972027	patient-01	-0.12355411
-3.6972027	:unit	-0.12355411
-3.6972027	distance	-0.12355411
-3.529324	:example	-0.12355411
-3.6972027	corner	-0.12355411
-3.6972027	source-01	-0.12355411
-3.6972027	misunderstand-01	-0.12355411
-3.529324	sit-01	-0.12355411
-3.6972027	close-10/more	-0.12355411
-3.4869227	hour	-0.12355411
-3.6972027	happy-01/more	-0.12355411
-3.6972027	advance-01	-0.12355411
-3.6972027	jump-03	-0.12355411
-3.529324	ready-02	-0.12355411
-3.6972027	greet-01	-0.12355411
-3.6972027	observe-01	-0.12355411
-3.529324	proper	-0.12355411
-3.529324	rite	-0.12355411
-3.4869227	village	-0.20754543
-3.6972027	girl	-0.12355411
-3.6972027	vineyard	-0.12355411
-3.6972027	every	-0.12355411
-3.6972027	vacation-01	-0.12355411
-3.6972027	near-01	-0.12355411
-3.6972027	harm-01	-0.12355411
-3.6972027	color-01	-0.12355411
-3.529324	present	-0.20754543
-3.6972027	as-yet	-0.12355411
-3.529324	no-one	-0.12355411
-3.6972027	kill-01	-0.12355411
-3.6972027	save-02	-0.12355411
-3.6972027	grumble-01	-0.12355411
-3.6972027	boast-01	-0.12355411
-3.6972027	right-06	-0.12355411
-3.6972027	essential	-0.12355411
-3.6972027	railway	-0.12355411
-3.529324	switchman	-0.12355411
-3.6972027	sort-01	-0.12355411
-3.6972027	bundle-01	-0.12355411
-3.6972027	1000	-0.12355411
-3.4869227	train	-0.12355411
-3.6972027	right-04	-0.12355411
-3.6972027	left-20	-0.12355411
-3.6972027	brilliant-02	-0.12355411
-3.6972027	express-02	-0.12355411
-3.6972027	shake-01	-0.12355411
-3.6972027	cabin	-0.12355411
-3.4869227	rush-01	-0.12355411
-3.529324	roar-01	-0.12355411
-3.6972027	thunder	-0.12355411
-3.6972027	locomotive	-0.12355411
-3.6972027	engineer-01	-0.12355411
-3.529324	thunder-01	-0.12355411
-3.6972027	opposite-01	-0.12355411
-3.6972027	direction	-0.12355411
-3.6972027	exchange-01	-0.12355411
-3.6972027	pursue-01	-0.12355411
-3.529324	child	-0.1849764
-3.6972027	flatten-01	-0.12355411
-3.6972027	nose	-0.12355411
-3.6972027	push-01	-0.12355411
-3.6972027	windowpane	-0.12355411
-3.6972027	rag	-0.12355411
-3.6972027	doll	-0.12355411
-3.6972027	23	-0.12355411
-3.6972027	merchandise-01	-0.12355411
-3.529324	sell-01	-0.25653946
-3.529324	pill	-0.12355411
-3.6972027	quench-01	-0.12355411
-3.6972027	swallow-01	-0.12355411
-3.6972027	save-01	-0.12355411
-3.6972027	tremendous	-0.12355411
-3.6972027	amount-01	-0.12355411
-3.6972027	compute-01	-0.12355411
-3.6972027	expert-01	-0.12355411
-3.6972027	save-03	-0.12355411
-3.3228238	spring	-0.1849764
-3.529324	leisure	-0.12355411
-3.529324	toward	-0.20754543
-3.6972027	24	-0.12355411
-3.6972027	accident	-0.12355411
-3.6972027	story	-0.12355411
-3.6972027	drop	-0.12355411
-3.6972027	supply-01	-0.12355411
-3.4869227	memory	-0.20754543
-3.6972027	charm-01	-0.12355411
-3.529324	:concession-of	-0.12355411
-3.529324	yet	-0.12355411
-3.529324	repair-01	-0.12355411
-3.6972027	dear	-0.12355411
-3.6972027	even-if	-0.12355411
-3.529324	glad-02	-0.25653946
-3.6972027	danger	-0.12355411
-3.6972027	hunger-01	-0.12355411
-3.6972027	weary-01	-0.12355411
-3.6972027	random	-0.12355411
-3.6972027	immense	-0.12355411
-3.6972027	start-01	-0.12355411
-3.6972027	trudge-01	-0.12355411
-3.6972027	darkness	-0.12355411
-3.6972027	come-out-09	-0.12355411
-3.6972027	feverish	-0.12355411
-3.6972027	reel-03	-0.12355411
-3.6972027	answer	-0.12355411
-3.6972027	crossexamine-01	-0.12355411
-3.6972027	beside	-0.12355411
-3.6972027	ridge	-0.12355411
-3.6972027	stretch-out-02	-0.12355411
-3.6972027	dune	-0.12355411
-3.6972027	throb-01	-0.12355411
-3.6972027	gleam-01	-0.12355411
-3.529324	hide-01	-0.25653946
-3.529324	astonish-01	-0.12355411
-3.529324	mystery	-0.12355411
-3.6972027	legend	-0.12355411
-3.6972027	treasure	-0.12355411
-3.6972027	bury-01	-0.12355411
-3.6972027	to-be-sure	-0.12355411
-3.6972027	enchant-01	-0.12355411
-3.529324	home	-0.12355411
-3.6972027	agree-01	-0.12355411
-3.6972027	drop-off-03	-0.12355411
-3.529324	fragile	-0.12355411
-3.6972027	pale-03	-0.12355411
-3.529324	close-01	-0.12355411
-3.6972027	lock	-0.12355411
-3.6972027	tremble-01	-0.12355411
-3.4869227	shell	-0.23207891
-3.529324	lip	-0.12355411
-3.6972027	suspicious	-0.12355411
-3.6972027	half	-0.12355411
-3.6972027	loyal-01	-0.12355411
-3.6972027	image	-0.12355411
-3.6972027	through	-0.12355411
-3.6972027	being	-0.12355411
-3.529324	flame-01	-0.12355411
-3.6972027	even-when	-0.12355411
-3.6972027	feel-02	-0.12355411
-3.529324	protect-01	-0.12355411
-3.6972027	extinguish-01	-0.12355411
-3.6972027	puff-up-04	-0.12355411
-3.6972027	daybreak	-0.12355411
-3.529324	on	-0.12355411
-3.6972027	25	-0.12355411
-3.6972027	express	-0.12355411
-3.529324	round	-0.12355411
-3.529324	worth-02	-0.25653946
-3.6972027	hole	-0.12355411
-3.529324	dig-01	-0.12355411
-3.6972027	desert/name	-0.12355411
-3.4869227	pulley	-0.15758254
-3.529324	bucket	-0.12355411
-3.3228238	rope	-0.1849764
-3.6972027	set-08	-0.12355411
-3.6972027	work-09	-0.12355411
-3.6972027	moan-01	-0.12355411
-3.6972027	weathervane	-0.12355411
-3.6972027	long	-0.12355411
-3.6972027	wake-01	-0.12355411
-3.529324	sing-01	-0.20754543
-3.6972027	leave-02	-0.12355411
-3.529324	heavy	-0.12355411
-3.6972027	hoist-01	-0.12355411
-3.6972027	edge	-0.12355411
-3.6972027	set-01	-0.12355411
-3.4869227	content-01	-0.20754543
-3.6972027	achieve-01	-0.12355411
-3.6972027	sunlight	-0.12355411
-3.6972027	shimmer-01	-0.12355411
-3.529324	sweet-04	-0.12355411
-3.6972027	food-dish	-0.12355411
-3.6972027	special-02	-0.12355411
-3.6972027	festival	-0.12355411
-3.6972027	treat-02	-0.12355411
-3.6972027	nourish-01	-0.12355411
-3.529324	effort-01	-0.12355411
-3.6972027	event/name	-0.12355411
-3.6972027	make-up-07	-0.12355411
-3.6972027	radiant	-0.12355411
-3.6972027	gift	-0.12355411
-3.6972027	blind-02	-0.12355411
-3.6972027	rise-01	-0.12355411
-3.529324	honey	-0.12355411
-3.6972027	honor-02	-0.12355411
-3.6972027	promise-01	-0.12355411
-3.6972027	soft	-0.12355411
-3.6972027	picture	-0.12355411
-3.6972027	rough-04	-0.12355411
-3.6972027	draft-01	-0.12355411
-3.6972027	pocket	-0.12355411
-3.6972027	cabbage	-0.12355411
-3.6972027	ear	-0.12355411
-3.6972027	horn	-0.12355411
-3.6972027	fair-01	-0.12355411
-3.6972027	boa	-0.12355411
-3.6972027	outside	-0.12355411
-3.6972027	constrictor	-0.12355411
-3.6972027	inside	-0.12355411
-3.6972027	all-right	-0.12355411
-3.6972027	sketch-01	-0.12355411
-3.6972027	muzzle	-0.12355411
-3.6972027	tear-01	-0.12355411
-3.6972027	plan-01	-0.12355411
-3.6972027	instead-of-91	-0.12355411
-3.6972027	descend-01	-0.12355411
-3.6972027	tomorrow	-0.12355411
-3.529324	anniversary	-0.25653946
-3.6972027	go-23	-0.12355411
-3.6972027	near-02	-0.12355411
-3.4869227	flush-03	-0.12355411
-3.6972027	sorrow-01	-0.12355411
-3.6972027	chance-02	-0.12355411
-3.6972027	stroll-01	-0.12355411
-3.6972027	region	-0.12355411
-3.6972027	land-01	-0.12355411
-3.6972027	weep-01	-0.12355411
-3.6972027	ruin-01	-0.12355411
-3.3228238	wall	-0.22648506
-3.6972027	top	-0.12355411
-3.6972027	distant-02	-0.12355411
-3.6972027	position	-0.12355411
-3.6972027	dangle-01	-0.12355411
-3.529324	spot	-0.12355411
-3.6972027	track	-0.12355411
-3.6972027	poison-01	-0.12355411
-3.6972027	asunder	-0.12355411
-3.529324	get-05	-0.12355411
-3.6972027	leap-03	-0.12355411
-3.6972027	face-01	-0.12355411
-3.6972027	take-10	-0.12355411
-3.6972027	yellow-02	-0.12355411
-3.6972027	revolver	-0.12355411
-3.6972027	flow-01	-0.12355411
-3.6972027	die-down-02	-0.12355411
-3.6972027	spray	-0.12355411
-3.6972027	fountain	-0.12355411
-3.6972027	apparent	-0.12355411
-3.6972027	metallic	-0.12355411
-3.529324	light-06	-0.12355411
-3.6972027	reach-01	-0.12355411
-3.6972027	catch-01	-0.12355411
-3.6972027	snow	-0.12355411
-3.6972027	loosen-01	-0.12355411
-3.6972027	muffler	-0.12355411
-3.6972027	moisten-01	-0.12355411
-3.6972027	temple	-0.12355411
-3.6972027	grave	-0.12355411
-3.6972027	beat-01	-0.12355411
-3.6972027	shoot-02	-0.12355411
-3.6972027	rifle	-0.12355411
-3.6972027	hope-01	-0.12355411
-3.6972027	beyond	-0.12355411
-3.6972027	today	-0.12355411
-3.6972027	event	-0.12355411
-3.6972027	headlong	-0.12355411
-3.6972027	abyss	-0.12355411
-3.6972027	box	-0.12355411
-3.6972027	smile	-0.12355411
-3.6972027	revive-01	-0.12355411
-3.6972027	little-by-little	-0.12355411
-3.6972027	freeze-01	-0.12355411
-3.6972027	bear-01	-0.12355411
-3.6972027	affair-02	-0.12355411
-3.6972027	meet-01	-0.12355411
-3.6972027	plea	-0.12355411
-3.6972027	present-01	-0.12355411
-3.6972027	guide-01	-0.12355411
-3.6972027	light	-0.12355411
-3.6972027	wealth	-0.12355411
-3.6972027	soothe-01	-0.12355411
-3.6972027	window	-0.12355411
-3.6972027	pleasure	-0.12355411
-3.6972027	crazy-03	-0.12355411
-3.6972027	shabby	-0.12355411
-3.6972027	trick-01	-0.12355411
-3.529324	bell	-0.12355411
-3.6972027	leave-15	-0.12355411
-3.6972027	have-manner-91	-0.12355411
-3.6972027	malicious	-0.12355411
-3.6972027	fun-01	-0.12355411
-3.6972027	poison	-0.12355411
-3.6972027	get-away-08	-0.12355411
-3.6972027	catch-up-04	-0.12355411
-3.6972027	resolute	-0.12355411
-3.6972027	wrong-02	-0.12355411
-3.529324	body	-0.12355411
-3.6972027	abandon-01	-0.12355411
-3.6972027	discourage-01	-0.12355411
-3.6972027	nice-01	-0.12355411
-3.6972027	rust	-0.12355411
-3.6972027	pour-01	-0.12355411
-3.6972027	out	-0.12355411
-3.6972027	by-oneself	-0.12355411
-3.6972027	stand-up-07	-0.12355411
-3.6972027	flash	-0.12355411
-3.6972027	cry-out-03	-0.12355411
-3.6972027	gentle	-0.12355411
-3.6972027	27	-0.12355411
-3.6972027	companion	-0.12355411
-3.6972027	go-back-19	-0.12355411
-3.6972027	add-on-05	-0.12355411
-3.6972027	leather	-0.12355411
-3.6972027	strap	-0.12355411
-3.6972027	fasten-01	-0.12355411
-3.6972027	keep-02	-0.12355411
-3.6972027	have-polarity-91	-0.12355411
-3.6972027	shut-01	-0.12355411
-3.6972027	:op1-of	-0.12355411
-3.6972027	absent-minded	-0.12355411
-3.6972027	lovely	-0.12355411
-3.6972027	landscape	-0.12355411
-3.6972027	page	-0.12355411
-3.6972027	precede-01	-0.12355411
-3.6972027	impress-01	-0.12355411
-3.6972027	ensure-01	-0.12355411
-3.6972027	refuse-01	-0.12355411

\2-grams:
-0.559211	7 </s>	0
-0.91069937	life </s>	0
-1.0970501	ordinal-entity </s>	0
-1.1390781	day </s>	0
-1.0670792	again </s>	0
-1.036787	always </s>	0
-0.80031794	sheep </s>	0
-0.9568395	secret </s>	0
-0.9850024	little </s>	0
-0.9634716	prince </s>	0
-0.91853815	i </s>	0
-1.0836829	anything </s>	0
-1.2509714	thing </s>	0
-0.80031794	question-01 </s>	0
-0.63278484	long-03 </s>	0
-0.719296	silent </s>	0
-0.88499314	coref </s>	0
-0.84326106	problem </s>	0
-1.0639516	he </s>	0
-0.84326106	demand-01 </s>	0
-1.1444758	- </s>	0
-0.7055901	flower </s>	0
-1.1101758	too </s>	0
-0.83041775	answer-01 </s>	0
-0.85547644	it </s>	0
-1.2118125	have-03 </s>	0
-1.0533545	thorn </s>	0
-0.7158705	amr-unknown </s>	0
-0.73346215	have-condition-91 </s>	0
-0.8465231	know-01 </s>	0
-1.0598996	moment </s>	0
-1.0736947	that </s>	0
-0.91069937	bolt </s>	0
-0.9400826	engine </s>	0
-1.1936406	much </s>	0
-0.84326106	worry-01 </s>	0
-1.2685424	cause-01 </s>	0
-0.5106988	serious-02 </s>	0
-1.1174779	and </s>	0
-0.909857	so </s>	0
-0.81158936	drink-01 </s>	0
-0.83041775	water </s>	0
-0.6754833	fear-01 </s>	0
-0.73346215	bad-07 </s>	0
-0.7578356	use-01 </s>	0
-0.5709659	ask-01 </s>	0
-0.9198122	come-01 </s>	0
-0.84326106	head </s>	0
-0.5106988	spite </s>	0
-0.91069937	expressive </s>	0
-0.80031794	back </s>	0
-1.037592	believe-01 </s>	0
-0.84326106	weak-02 </s>	0
-0.22470409	creature </s>	0
-1.1911701	they </s>	0
-0.84326106	naive </s>	0
-0.84326106	reassure-01 </s>	0
-1.1936734	possible-01 </s>	0
-1.0163746	most </s>	0
-0.5106988	weapon </s>	0
-0.559211	instant </s>	0
-1.3021829	say-01 </s>	0
-1.0435656	this </s>	0
-1.0712558	still </s>	0
-0.84326106	hammer </s>	0
-1.0139531	disturb-01 </s>	0
-1.0377549	think-01 </s>	0
-1.1336102	you </s>	0
-1.0120755	do-02 </s>	0
-0.63278484	no </s>	0
-0.5106988	cry-01 </s>	0
-0.8548957	3 </s>	0
-1.3151338	see-01 </s>	0
-1.1238242	matter </s>	0
-0.719296	consequence </s>	0
-0.9568395	interrogative </s>	0
-0.5106988	thunderstruck </s>	0
-1.0357757	look-01 </s>	0
-0.8155637	there </s>	0
-0.6449392	hand </s>	0
-0.84326106	finger </s>	0
-0.91069937	object </s>	0
-0.5106988	ugly </s>	0
-0.9828816	talk-01 </s>	0
-0.7356958	grown-up </s>	0
-0.91069937	shame-01 </s>	0
-1.2179614	contrast-01 </s>	0
-0.91069937	go-on-25 </s>	0
-0.68982023	everything </s>	0
-0.84326106	together </s>	0
-0.5106988	angry </s>	0
-0.5106988	breeze </s>	0
-1.0432258	know-02 </s>	0
-0.7852249	planet </s>	0
-0.91069937	gentleman </s>	0
-0.7356958	certain </s>	0
-0.91069937	red-02 </s>	0
-0.7076184	star </s>	0
-0.9828816	anyone </s>	0
-1.0786402	ever </s>	0
-1.1763849	live-01 </s>	0
-0.73346215	figure </s>	0
-0.8552754	all </s>	0
-0.9828816	pride-01 </s>	0
-1.0656425	man </s>	0
-0.73346215	mushroom </s>	0
-0.5106988	enrage-01 </s>	0
-0.84914327	temporal-quantity </s>	0
-1.036787	have-concession-91 </s>	0
-0.9457505	understand-01 </s>	0
-0.76590264	important </s>	0
-1.1620103	more </s>	0
-1.1106883	1 </s>	0
-0.76715046	world </s>	0
-0.92898947	date-entity </s>	0
-0.7356958	happy-01 </s>	0
-0.5106988	darken-01 </s>	0
-0.5106988	sob-01 </s>	0
-0.73346215	fall-04 </s>	0
-0.64210826	thirst-01 </s>	0
-0.43310183	die-01 </s>	0
-0.9400826	comfort-01 </s>	0
-1.0139531	arm </s>	0
-0.5106988	rock-01 </s>	0
-0.87696934	endanger-01 </s>	0
-0.91069937	around </s>	0
-0.5106988	blunder-01 </s>	0
-0.99056965	location </s>	0
-0.84326106	go-on-15 </s>	0
-0.8425072	place </s>	0
-0.5106988	tear </s>	0
-0.5106988	8 </s>	0
-0.559211	simple-02 </s>	0
-1.0139531	at-all </s>	0
-0.559211	trouble-01 </s>	0
-0.70438355	appear-01 </s>	0
-0.84326106	grass </s>	0
-0.5106988	peaceful </s>	0
-0.74668413	small </s>	0
-0.8752868	any </s>	0
-0.9044545	other </s>	0
-0.44213197	baobab </s>	0
-0.84326106	stop-01 </s>	0
-0.5106988	emerge-01 </s>	0
-0.91069937	satisfy-01 </s>	0
-1.1101758	beautiful-02 </s>	0
-0.5106988	green-02 </s>	0
-0.9827073	she </s>	0
-1.037592	great </s>	0
-0.5106988	one-by-one </s>	0
-0.91069937	field </s>	0
-0.5106988	poppy </s>	0
-1.1306387	only </s>	0
-0.63278484	yes </s>	0
-0.68982023	exact </s>	0
-0.9828816	show-01 </s>	0
-0.9568395	work-01 </s>	0
-0.48346743	yawn-01 </s>	0
-0.9828816	ah </s>	0
-0.5106988	awake-03 </s>	0
-0.91069937	excuse-01 </s>	0
-0.5106988	arrange-01 </s>	0
-0.5106988	sweet-03 </s>	0
-1.0765337	same-01 </s>	0
-0.84326106	sun </s>	0
-0.91069937	easy-05 </s>	0
-0.98984605	enough </s>	0
-0.73346215	modest </s>	0
-0.84326106	excite-01 </s>	0
-0.93753976	time </s>	0
-1.0712558	add-01 </s>	0
-0.5106988	late </s>	0
-0.99056965	imperative </s>	0
-0.45893395	kind-01 </s>	0
-0.8312073	need-01 </s>	0
-0.73346215	abash-01 </s>	0
-0.84326106	fresh-04 </s>	0
-0.91069937	truth </s>	0
-0.37914804	difficult </s>	0
-1.037592	speak-01 </s>	0
-0.30898952	claw </s>	0
-0.5106988	object-01 </s>	0
-0.73346215	weed </s>	0
-1.1068295	reply-01 </s>	0
-0.73346215	draft </s>	0
-0.87696934	screen </s>	0
-1.2207342	want-01 </s>	0
-0.68982023	globe </s>	0
-0.84326106	interrupt-01 </s>	0
-0.45893395	embarrass-01 </s>	0
-0.9400826	cough-01 </s>	0
-1.0712558	2 </s>	0
-0.84326106	wrong-04 </s>	0
-0.559211	suffer-01 </s>	0
-0.73346215	fragrance </s>	0
-0.73346215	please-01 </s>	0
-0.5106988	grace </s>	0
-0.719296	heart </s>	0
-0.73346215	pity-01 </s>	0
-1.036787	judge-01 </s>	0
-1.0533545	away </s>	0
-0.5106988	strategem </s>	0
-0.5106988	9 </s>	0
-0.91069937	bird </s>	0
-0.73346215	order-03 </s>	0
-0.84326106	careful </s>	0
-1.1009467	volcano </s>	0
-0.68982023	extinct </s>	0
-0.93337053	well </s>	0
-0.84326106	slow-05 </s>	0
-0.73346215	erupt-01 </s>	0
-0.5106988	chimney </s>	0
-0.9568395	earth </s>	0
-1.004418	we </s>	0
-0.73346215	deject-01 </s>	0
-0.9828816	return-01 </s>	0
-1.0139531	flower-01 </s>	0
-0.5106988	tear-03 </s>	0
-0.73346215	cold </s>	0
-0.91069937	at-last </s>	0
-0.5106988	forgive-01 </s>	0
-0.5106988	reproach-01 </s>	0
-0.73346215	hold-01 </s>	0
-0.84326106	sweet-05 </s>	0
-0.91069937	fault-01 </s>	0
-0.5106988	while-away-01 </s>	0
-0.45893395	anymore </s>	0
-0.68982023	wind </s>	0
-0.45893395	air </s>	0
-1.037592	good-04 </s>	0
-0.73346215	animal </s>	0
-0.91069937	butterfly </s>	0
-0.7840771	far </s>	0
-1.194776	go-02 </s>	0
-0.44213197	cry-02 </s>	0
-0.30898952	10 </s>	0
-0.99056965	asteroid/name </s>	0
-0.5106988	knowledge </s>	0
-1.0712558	include-91 </s>	0
-0.782854	king </s>	0
-0.84326106	majesty </s>	0
-0.8658673	here </s>	0
-0.73346215	subject </s>	0
-1.0432258	before </s>	0
-0.5106988	somebody </s>	0
-1.1236764	sit-down-02 </s>	0
-0.73346215	entire </s>	0
-0.84326106	magnificent </s>	0
-0.5106988	robe </s>	0
-0.7356958	tire-01 </s>	0
-0.45893395	monarch </s>	0
-0.84326106	journey-01 </s>	0
-0.48346743	sleep-01 </s>	0
-0.90814286	order-01 </s>	0
-0.30898952	curious-01 </s>	0
-0.87696934	frighten-01 </s>	0
-1.0139531	sometimes </s>	0
-0.5106988	vex-01 </s>	0
-0.73346215	respect-01 </s>	0
-0.5106988	disobey-01 </s>	0
-0.44213197	reasonable-02 </s>	0
-0.8659037	person </s>	0
-0.719296	change-01 </s>	0
-0.68982023	obey-01 </s>	0
-0.5106988	mantle </s>	0
-0.84326106	wonder-01 </s>	0
-0.5106988	tiny </s>	0
-0.5106988	universal </s>	0
-0.5106988	insubordinate-00 </s>	0
-0.5106988	marvel-01 </s>	0
-0.68982023	sunset </s>	0
-0.9568395	move-01 </s>	0
-0.73346215	chair </s>	0
-0.68982023	sad-02 </s>	0
-0.7948219	remember-01 </s>	0
-0.5106988	set-11 </s>	0
-0.73346215	tragedy </s>	0
-0.84326106	receive-01 </s>	0
-0.5106988	firm-03 </s>	0
-0.84326106	reason-01 </s>	0
-0.5106988	revolution-03 </s>	0
-1.1055042	forget-01 </s>	0
-0.30898952	favorable </s>	0
-0.5106988	almanac </s>	0
-0.63278484	about </s>	0
-0.84326106	regret-01 </s>	0
-0.5106988	bore-02 </s>	0
-0.63278484	way </s>	0
-0.73346215	minister </s>	0
-0.30898952	justice </s>	0
-1.0139531	nobody </s>	0
-0.5106988	kingdom </s>	0
-0.99056965	old </s>	0
-0.5106988	carriage </s>	0
-0.8425072	walk-01 </s>	0
-0.5830668	true-01 </s>	0
-0.73346215	anywhere </s>	0
-0.5106988	rat </s>	0
-1.131243	hear-01 </s>	0
-0.5106988	thrift </s>	0
-0.84326106	end-01 </s>	0
-0.84326106	leave-11 </s>	0
-0.5106988	hasty </s>	0
-0.73346215	strange </s>	0
-0.5106988	11 </s>	0
-0.9828816	morning </s>	0
-0.73346215	wear-01 </s>	0
-0.9568395	salute-01 </s>	0
-0.9828816	differ-02 </s>	0
-0.5106988	monotony </s>	0
-0.5106988	praise-01 </s>	0
-1.0819242	mean-01 </s>	0
-0.91069937	rich </s>	0
-0.6334481	interest-01 </s>	0
-0.45893395	12 </s>	0
-0.99056965	tipple-01 </s>	0
-0.73346215	bottle </s>	0
-0.5106988	puzzle-01 </s>	0
-0.5106988	13 </s>	0
-0.98984605	belong-01 </s>	0
-0.7421376	businessman </s>	0
-0.5106988	go-out-18 </s>	0
-0.91069937	5 </s>	0
-0.45893395	15 </s>	0
-0.45893395	22 </s>	0
-0.5106988	28 </s>	0
-1.169024	light-04 </s>	0
-0.73346215	26 </s>	0
-0.5106988	31 </s>	0
-0.73346215	501622731 </s>	0
-0.84326106	500000000 </s>	0
-0.5106988	eh </s>	0
-0.87696934	501000000 </s>	0
-0.73346215	amuse-01 </s>	0
-0.5106988	balderdash </s>	0
-0.73346215	mistake-02 </s>	0
-0.5106988	rheumatism </s>	0
-0.5106988	exercise-02 </s>	0
-0.73346215	loaf-01 </s>	0
-0.52110815	sky </s>	0
-0.5106988	fly </s>	0
-0.5106988	bee </s>	0
-0.9828816	gold </s>	0
-0.559211	dream-01 </s>	0
-0.5106988	that-is-it-00 </s>	0
-0.5106988	have-quant-91 </s>	0
-0.5106988	accurate </s>	0
-0.8774794	nothing </s>	0
-0.9568395	discover-01 </s>	0
-0.5106988	peevish </s>	0
-0.99056965	idea </s>	0
-0.5106988	patent-01 </s>	0
-0.73346215	neck </s>	0
-0.91069937	heaven </s>	0
-0.5106988	bank </s>	0
-0.5106988	key </s>	0
-0.5106988	poetry </s>	0
-1.1189253	rate-entity-91 </s>	0
-0.5106988	14 </s>	0
-0.84326106	street </s>	0
-1.1264452	lamp </s>	0
-0.559211	house </s>	0
-0.84326106	absurd </s>	0
-1.0690273	put-out-09 </s>	0
-0.5106988	occupation </s>	0
-0.5106988	useful-05 </s>	0
-0.73346215	evening </s>	0
-0.73346215	order </s>	0
-0.73346215	square </s>	0
-0.5106988	profession </s>	0
-0.84326106	funny </s>	0
-1.0163746	friend </s>	0
-0.5106988	ridiculous-02 </s>	0
-0.91069937	something </s>	0
-0.87696934	dare-01 </s>	0
-0.9568395	book </s>	0
-0.99056965	explore-01 </s>	0
-0.68982023	travel-01 </s>	0
-1.1684471	geographer </s>	0
-0.8658673	mountain </s>	0
-0.32661277	desert </s>	0
-0.84326106	ocean </s>	0
-0.5106988	disappoint-01 </s>	0
-0.5106988	either </s>	0
-0.5106988	desk </s>	0
-0.73346215	character </s>	0
-0.5106988	double </s>	0
-0.5106988	complicate-01 </s>	0
-0.73346215	prove-01 </s>	0
-0.91069937	stone </s>	0
-0.73346215	stir-02 </s>	0
-0.45893395	pencil </s>	0
-0.5106988	ink </s>	0
-0.5106988	expect-01 </s>	0
-0.91069937	ephemeral </s>	0
-0.5106988	fashion </s>	0
-0.5106988	position-01 </s>	0
-0.45893395	disappear-01 </s>	0
-0.5106988	reputation </s>	0
-0.5106988	16 </s>	0
-1.036787	planet/name </s>	0
-0.84326106	ordinary </s>	0
-1.0562059	sure-02 </s>	0
-0.5106988	spectacle </s>	0
-0.5106988	opera </s>	0
-0.5106988	wing </s>	0
-0.91069937	continent/name </s>	0
-0.5106988	stage </s>	0
-0.5106988	17 </s>	0
-0.5106988	wide-02 </s>	0
-0.5106988	islet </s>	0
-0.73346215	imagine-01 </s>	0
-0.5106988	space </s>	0
-0.5106988	calculate-01 </s>	0
-0.5106988	task-01 </s>	0
-0.84326106	moon </s>	0
-0.5351748	sand </s>	0
-0.5106988	courteous </s>	0
-0.74668413	snake </s>	0
-1.036787	eye </s>	0
-0.73346215	powerful-02 </s>	0
-0.84326106	smile-01 </s>	0
-0.73346215	foot </s>	0
-0.73346215	ankle </s>	0
-0.5106988	bracelet </s>	0
-0.5106988	riddle </s>	0
-0.5106988	18 </s>	0
-0.5106988	account </s>	0
-0.73346215	polite-01 </s>	0
-0.5106988	pass-02 </s>	0
-0.30898952	echo-01 </s>	0
-0.5106988	exist-01 </s>	0
-0.5106988	19 </s>	0
-0.73346215	knee </s>	0
-0.5106988	footstool </s>	0
-0.5106988	needle </s>	0
-0.5106988	courtesy </s>	0
-0.5106988	forbidding </s>	0
-0.5106988	20 </s>	0
-0.73346215	road </s>	0
-0.9535827	rose </s>	0
-0.84326106	alike-05 </s>	0
-0.85085875	laugh-01 </s>	0
-0.5106988	21 </s>	0
-0.83041775	fox </s>	0
-0.45893395	tree </s>	0
-0.66691923	tame-01 </s>	0
-0.63278484	hunt-01 </s>	0
-0.559211	chicken </s>	0
-0.5106988	tie-01 </s>	0
-0.9400826	boy </s>	0
-0.73346215	100000 </s>	0
-0.9568395	step-01 </s>	0
-0.91069937	hurry-01 </s>	0
-0.5106988	ground </s>	0
-0.84326106	music </s>	0
-0.5106988	burrow </s>	0
-0.5106988	yonder </s>	0
-0.5106988	bread </s>	0
-0.91069937	wheat </s>	0
-0.73346215	shop </s>	0
-0.5106988	misunderstand-01 </s>	0
-0.9568395	hour </s>	0
-0.5106988	advance-01 </s>	0
-0.5106988	greet-01 </s>	0
-0.84326106	rite </s>	0
-0.87696934	village </s>	0
-0.5106988	girl </s>	0
-0.5106988	vineyard </s>	0
-0.45893395	present </s>	0
-0.84326106	switchman </s>	0
-0.5106988	left-20 </s>	0
-0.5106988	thunder </s>	0
-0.5106988	direction </s>	0
-0.5106988	exchange-01 </s>	0
-0.5106988	windowpane </s>	0
-0.5106988	23 </s>	0
-0.84326106	merchandise-01 </s>	0
-0.5106988	expert-01 </s>	0
-0.5106988	24 </s>	0
-0.73346215	story </s>	0
-0.5106988	supply-01 </s>	0
-0.87696934	memory </s>	0
-0.5106988	danger </s>	0
-0.5106988	weary-01 </s>	0
-0.5106988	come-out-09 </s>	0
-0.5106988	gleam-01 </s>	0
-0.73346215	mystery </s>	0
-0.73346215	treasure </s>	0
-0.84326106	home </s>	0
-0.73346215	close-01 </s>	0
-0.73346215	tremble-01 </s>	0
-0.33589965	shell </s>	0
-0.5106988	even-when </s>	0
-0.73346215	daybreak </s>	0
-0.5106988	25 </s>	0
-0.73346215	round </s>	0
-1.037592	pulley </s>	0
-0.559211	rope </s>	0
-0.5106988	work-09 </s>	0
-0.87696934	sing-01 </s>	0
-0.84326106	heavy </s>	0
-0.5106988	achieve-01 </s>	0
-0.5106988	treat-02 </s>	0
-0.5106988	blind-02 </s>	0
-0.73346215	honey </s>	0
-0.73346215	pocket </s>	0
-0.5106988	cabbage </s>	0
-0.5106988	inside </s>	0
-0.73346215	muzzle </s>	0
-0.73346215	tear-01 </s>	0
-0.30898952	anniversary </s>	0
-0.91069937	flush-03 </s>	0
-0.84326106	sorrow-01 </s>	0
-0.5106988	region </s>	0
-0.6449392	wall </s>	0
-0.73346215	spot </s>	0
-0.5106988	poison-01 </s>	0
-0.73346215	get-05 </s>	0
-0.73346215	light-06 </s>	0
-0.5106988	snow </s>	0
-0.5106988	rifle </s>	0
-0.5106988	today </s>	0
-0.73346215	event </s>	0
-0.5106988	box </s>	0
-0.5106988	smile </s>	0
-0.5106988	little-by-little </s>	0
-0.5106988	plea </s>	0
-0.5106988	present-01 </s>	0
-0.5106988	guide-01 </s>	0
-0.5106988	wealth </s>	0
-0.5106988	crazy-03 </s>	0
-0.91069937	bell </s>	0
-0.5106988	fun-01 </s>	0
-0.5106988	resolute </s>	0
-0.5106988	discourage-01 </s>	0
-0.5106988	nice-01 </s>	0
-0.5106988	by-oneself </s>	0
-0.5106988	cry-out-03 </s>	0
-0.5106988	27 </s>	0
-0.5106988	strap </s>	0
-0.5106988	have-polarity-91 </s>	0
-0.55895454	<s> :root	-0.6309218
-1.0593235	7 :root	-0.057843607
-1.3167217	ordinal-entity :root	-0.057843607
-1.3628149	day :root	-0.057843607
-1.2680919	again :root	-0.057843607
-1.2209104	always :root	-0.057843607
-1.3286681	sheep :root	-0.057843607
-1.1040244	secret :root	-0.057843607
-1.211347	little :root	-0.057843637
-1.2477918	prince :root	-0.057843607
-1.2585304	i :root	-0.06498067
-1.2785524	thing :root	-0.057843607
-0.99728453	question-01 :root	-0.19631882
-0.96472466	coref :root	-0.145096
-1.4220207	he :root	-0.057843637
-1.3894491	- :root	-0.05784358
-1.1795769	flower :root	-0.057843637
-0.9686613	too :root	-0.057843607
-0.93372494	it :root	-0.057843607
-1.1040244	even :root	-0.057843607
-1.3804876	have-03 :root	-0.057843607
-0.94197965	amr-unknown :root	-0.103253126
-1.2222853	know-01 :root	-0.057843607
-1.0577328	that :root	-0.057843607
-1.3167217	very :root	-0.057843607
-0.97231156	busy-01 :root	-0.057843607
-0.97231156	try-01 :root	-0.057843607
-1.040575	bolt :root	-0.057843607
-1.084955	much :root	-0.057843607
-0.95189184	worry-01 :root	-0.057843607
-0.81536067	clear-06 :root	-0.057843607
-1.525235	cause-01 :root	-0.057843607
-1.0132025	so :root	-0.057843607
-1.3470384	drink-01 :root	-0.057843607
-1.3559178	water :root	-0.057843607
-1.5219066	come-01 :root	-0.057843607
-1.350021	just :root	-0.057843607
-1.1724968	oh :root	-0.057843607
-1.040575	expressive :root	-0.057843607
-1.1040244	complete-02 :root	-0.057843607
-1.3791537	then :root	-0.057843607
-1.3286681	back :root	-0.057843607
-0.95189184	weak-02 :root	-0.057843607
-0.97919166	they :root	-0.07292359
-1.2783663	possible-01 :root	-0.057843607
-1.0077779	this :root	-0.057843607
-1.2868257	you :root	-0.073395655
-1.1213545	no :root	-0.057843607
-0.945473	3 :root	-0.057843607
-1.3175516	see-01 :root	-0.057843607
-1.2587085	look-01 :root	-0.057843607
-1.2735162	there :root	-0.057843607
-1.2597916	down :root	-0.057843607
-1.040575	object :root	-0.057843607
-1.1682509	everything :root	-0.057843607
-0.81536067	golden :root	-0.057843607
-1.2520493	planet :root	-0.057843607
-1.040575	gentleman :root	-0.057843607
-0.6892522	face :root	-0.057843607
-1.3344439	star :root	-0.057843607
-1.2866045	ever :root	-0.057843607
-1.4081119	live-01 :root	-0.057843607
-0.81536067	figure :root	-0.057843607
-1.4551934	all :root	-0.057843607
-1.2994332	man :root	-0.09311486
-1.327518	now :root	-0.057843607
-1.476745	temporal-quantity :root	-0.057843607
-1.2209104	have-concession-91 :root	-0.057843607
-1.1500684	understand-01 :root	-0.19631882
-1.040575	grow-01 :root	-0.057843607
-1.3811017	more :root	-0.057843607
-0.55785877	sum :root	-0.057843607
-1.327518	1 :root	-0.057843607
-1.0476731	date-entity :root	-0.057843607
-0.95189184	1000000 :root	-0.057843607
-0.4929226	word :root	-0.057843607
-0.6892522	night :root	-0.057843607
-0.81536067	fall-04 :root	-0.057843607
-1.1682509	arm :root	-0.057843607
-0.81536067	muzzle-01 :root	-0.057843607
-1.1682509	such :root	-0.057843607
-1.2936149	place :root	-0.057843607
-0.95189184	soon :root	-0.057843607
-0.75621504	at-all :root	-0.057843607
-0.95189184	grass :root	-0.057843607
-1.1731857	one :root	-0.0822295
-0.55785877	come-up-13 :root	-0.057843607
-1.3233925	any :root	-0.057843607
-0.95189184	stop-01 :root	-0.057843607
-0.55785877	bud :root	-0.057843607
-0.9686613	beautiful-02 :root	-0.057843607
-1.2022789	she :root	-0.057843607
-1.2051476	great :root	-0.057843607
-1.350021	only :root	-0.057843607
-1.1213545	yes :root	-0.057843607
-1.1682509	exact :root	-0.057843607
-0.81536067	sudden :root	-0.057843607
-1.040575	after :root	-0.057843607
-0.55785877	scarce :root	-0.057843607
-1.1682509	admire-01 :root	-0.057843607
-1.2496343	same-01 :root	-0.057843607
-0.5627426	enough :root	-0.057843607
-1.3719465	time :root	-0.057843607
-1.29517	need-01 :root	-0.057843607
-1.040575	truth :root	-0.057843607
-1.2051111	difficult :root	-0.057843607
-0.95189184	+ :root	-0.057843607
-1.1682509	globe :root	-0.057843607
-0.89758736	2 :root	-0.057843607
-1.2207408	good-02 :root	-0.057843607
-0.95189184	serious-01 :root	-0.057843607
-0.95189184	word-01 :root	-0.057843607
-1.2464874	away :root	-0.057843607
-0.3301762	perfect-02 :root	-0.057843607
-0.95189184	careful :root	-0.057843607
-0.81536067	activity-06 :root	-0.057843607
-1.2936149	volcano :root	-0.057843607
-1.1040244	also :root	-0.057843607
-0.94301116	well :root	-0.1648662
-1.1040244	earth :root	-0.057843607
-1.0443931	we :root	-0.057843607
-0.75621504	flower-01 :root	-0.19631882
-0.81536067	goodbye :root	-0.057843607
-1.040575	at-last :root	-0.057843607
-0.95189184	sweet-05 :root	-0.057843607
-1.040575	fault-01 :root	-0.057843607
-1.1900951	equal :root	-0.057843607
-0.97231156	anymore :root	-0.057843607
-1.1682509	wind :root	-0.057843607
-1.2051476	good-04 :root	-0.057843607
-0.95189184	caterpillar :root	-0.057843607
-0.95189184	large :root	-0.057843607
-1.1186968	go-02 :root	-0.057843607
-1.0642836	cry-02 :root	-0.057843607
-1.1213545	visit-01 :root	-0.057843607
-1.1586162	king :root	-0.08502552
-1.3107804	here :root	-0.057843607
-0.81536067	subject :root	-0.057843607
-1.2091085	before :root	-0.057843607
-0.81536067	reign-01 :root	-0.057843607
-0.55785877	cram-01 :root	-0.057843607
-0.81536067	upright :root	-0.057843607
-0.97231156	monarch :root	-0.057843607
-0.95189184	journey-01 :root	-0.057843607
-1.4117216	order-01 :root	-0.057843607
-1.1682509	sometimes :root	-0.057843607
-0.55785877	fundamental :root	-0.057843607
-1.0593235	authority :root	-0.057843607
-0.81536067	respect-01 :root	-0.057843607
-0.81536067	absolute :root	-0.057843607
-1.3254102	person :root	-0.057843637
-1.2771206	change-01 :root	-0.057843607
-1.040575	sea :root	-0.057843607
-0.95189184	general :root	-0.057843607
-0.55785877	timid :root	-0.057843607
-0.95189184	inquire-01 :root	-0.057843607
-0.81536067	have-frequency-91 :root	-0.057843607
-0.97231156	watch-01 :root	-0.057843607
-0.81536067	chair :root	-0.057843607
-1.1682509	sad-02 :root	-0.057843607
-0.95189184	reason-01 :root	-0.057843607
-1.2970116	forget-01 :root	-0.057843607
-1.1213545	about :root	-0.057843607
-0.95189184	regret-01 :root	-0.057843607
-1.1040244	already :root	-0.057843607
-1.1521397	old :root	-0.057843607
-0.55785877	right-02 :root	-0.057843607
-1.1724968	true-01 :root	-0.057843607
-0.97583	hear-01 :root	-0.057843607
-0.81536067	depart-01 :root	-0.057843607
-0.95189184	end-01 :root	-0.057843607
-0.95189184	hesitate-01 :root	-0.057843607
-1.1213545	morning :root	-0.057843607
-0.95189184	queer :root	-0.057843607
-0.81536067	wear-01 :root	-0.057843607
-1.1213545	differ-02 :root	-0.057843607
-0.81536067	entertain-01 :root	-0.057843607
-1.2091085	interest-01 :root	-0.057843607
-0.55785877	hang-01 :root	-0.057843607
-1.2839626	businessman :root	-0.057843607
-0.55785877	cigarette :root	-0.057843607
-1.040575	5 :root	-0.057843607
-1.3866551	light-04 :root	-0.057843607
-0.81536067	501622731 :root	-0.057843607
-0.55785877	glitter-01 :root	-0.057843607
-1.3139884	nothing :root	-0.057843607
-0.97231156	count-01 :root	-0.057843607
-0.81536067	rather :root	-0.057843607
-1.3069618	rate-entity-91 :root	-0.057843607
-0.55785877	mouth :root	-0.057843607
-1.040575	altogether :root	-0.057843607
-1.3526584	lamp :root	-0.057843607
-0.81536067	evening :root	-0.057843607
-0.55785877	rapid :root	-0.057843607
-0.95189184	mere :root	-0.057843607
-1.1900951	friend :root	-0.057843607
-0.95189184	rest-01 :root	-0.057843607
-0.81536067	lucky :root	-0.057843607
-1.040575	something :root	-0.057843607
-0.81536067	indeed :root	-0.057843607
-1.1040244	book :root	-0.057843607
-1.1521397	explore-01 :root	-0.057843607
-0.55785877	table :root	-0.057843607
-0.98841995	geographer :root	-0.057843607
-1.3107804	mountain :root	-0.057843607
-1.041432	desert :root	-0.19631882
-0.95189184	ocean :root	-0.057843607
-0.55785877	make-06 :root	-0.057843607
-1.040575	stone :root	-0.057843607
-0.97231156	pencil :root	-0.057843607
-0.95189184	first :root	-0.057843607
-1.040575	ephemeral :root	-0.057843607
-0.81536067	concern-02 :root	-0.057843607
-0.7626178	alone :root	-0.057843607
-0.95189184	ordinary :root	-0.057843607
-0.81536067	army :root	-0.057843607
-0.55785877	public :root	-0.057843607
-0.55785877	humanity :root	-0.057843607
-1.2207408	snake :root	-0.057843607
-0.81536067	ah-01 :root	-0.057843607
-0.55785877	take-up-31 :root	-0.057843607
-0.55785877	root :root	-0.057843607
-0.55785877	dry-08 :root	-0.057843607
-1.3838695	rose :root	-0.057843607
-0.81536067	universe :root	-0.057843607
-0.95189184	alike-05 :root	-0.057843607
-1.3693932	laugh-01 :root	-0.057843607
-1.0285277	fox :root	-0.10806654
-0.55785877	voice :root	-0.057843607
-1.402582	tame-01 :root	-0.057843607
-0.55785877	gun :root	-0.057843607
-0.3301762	neglect-01 :root	-0.19631882
-1.1040244	step-01 :root	-0.057843607
-1.040575	hurry-01 :root	-0.057843607
-0.55785877	patient-01 :root	-0.057843607
-0.95189184	rite :root	-0.057843607
-0.55785877	harm-01 :root	-0.057843607
-0.95189184	switchman :root	-0.057843607
-0.55785877	1000 :root	-0.057843607
-0.60491437	child :root	-0.057843607
-0.55785877	doll :root	-0.057843607
-0.95189184	merchandise-01 :root	-0.057843607
-0.95189184	yet :root	-0.057843607
-0.55785877	feverish :root	-0.057843607
-0.95189184	home :root	-0.057843607
-1.0593235	rope :root	-0.057843607
-0.81536067	sweet-04 :root	-0.057843607
-0.81536067	promise-01 :root	-0.057843607
-0.55785877	horn :root	-0.057843607
-0.95189184	sorrow-01 :root	-0.057843607
-0.6958391	wall :root	-0.19631882
-0.55785877	asunder :root	-0.057843607
-0.81536067	yellow-02 :root	-0.057843607
-0.55785877	reach-01 :root	-0.057843607
-0.55785877	temple :root	-0.057843607
-0.55785877	grave :root	-0.057843607
-0.55785877	shabby :root	-0.057843607
-1.040575	bell :root	-0.057843607
-0.95189184	body :root	-0.057843607
-0.55785877	precede-01 :root	-0.057843607
-3.3820004	:root chapter	-0.057843607
-1.1941459	<s> :mod	-0.51070696
-0.5539897	chapter :mod	-0.057843607
-1.2949705	ordinal-entity :mod	-0.057843607
-1.3405615	day :mod	-0.057843637
-1.248594	again :mod	-0.057843607
-1.0905671	secret :mod	-0.057843607
-1.421632	little :mod	-0.057843607
-1.2325151	prince :mod	-0.057843607
-1.247022	i :mod	-0.057843607
-1.2616435	anything :mod	-0.057843607
-1.4799443	thing :mod	-0.057843607
-1.3084923	question-01 :mod	-0.057843607
-1.2598035	silent :mod	-0.057843607
-1.3938388	coref :mod	-0.0822295
-1.1833897	he :mod	-0.057843607
-0.9423682	demand-01 :mod	-0.057843607
-1.1584921	eat-01 :mod	-0.057843607
-1.3645037	- :mod	-0.057843607
-1.4884938	flower :mod	-0.057843607
-1.3354766	answer-01 :mod	-0.057843607
-1.0398793	find-01 :mod	-0.057843607
-1.2257974	it :mod	-0.057843637
-1.0905671	even :mod	-0.057843607
-1.1040118	have-03 :mod	-0.057843607
-1.2279158	thorn :mod	-0.057843607
-0.83576936	amr-unknown :mod	-0.09311486
-1.490944	know-01 :mod	-0.057843607
-0.8115464	moment :mod	-0.057843607
-0.87784976	that :mod	-0.103253126
-1.2949705	very :mod	-0.057843607
-1.0289227	bolt :mod	-0.057843607
-1.0748707	much :mod	-0.057843607
-0.8083856	clear-06 :mod	-0.057843607
-1.2852104	cause-01 :mod	-0.057843607
-0.8083856	extreme :mod	-0.057843607
-1.3890351	and :mod	-0.10806654
-1.3920017	so :mod	-0.057843607
-1.0187892	water :mod	-0.057843607
-1.2219806	fear-01 :mod	-0.057843607
-0.937686	use-01 :mod	-0.057843607
-0.9423682	once :mod	-0.057843607
-0.94976276	ask-01 :mod	-0.19631882
-0.5539897	upset-01 :mod	-0.057843607
-0.9423682	head :mod	-0.057843607
-1.3283055	just :mod	-0.057843607
-1.0289227	expressive :mod	-0.057843607
-1.3565464	then :mod	-0.057843607
-0.5539897	resent-01 :mod	-0.057843607
-0.97236013	they :mod	-0.2342485
-1.5618061	possible-01 :mod	-0.057843607
-1.173743	most :mod	-0.057843607
-1.0487484	instant :mod	-0.057843607
-1.0552012	say-01 :mod	-0.057843607
-1.173743	turn-01 :mod	-0.057843607
-1.4718206	this :mod	-0.057843607
-1.2417535	still :mod	-0.057843607
-1.1540331	disturb-01 :mod	-0.057843607
-1.4277207	think-01 :mod	-0.057843607
-1.171006	you :mod	-0.12787215
-1.0300354	see-01 :mod	-0.057843607
-0.5182352	matter :mod	-0.43893352
-1.2598035	consequence :mod	-0.057843607
-1.2441888	look-01 :mod	-0.19631882
-0.5539897	black-04 :mod	-0.057843607
-1.0289227	object :mod	-0.057843607
-0.68457305	talk-01 :mod	-0.057843607
-0.7711827	resemble-01 :mod	-0.11402301
-1.1894822	grown-up :mod	-0.057843607
-1.138549	contrast-01 :mod	-0.09928226
-1.1936278	know-02 :mod	-0.057843607
-0.9398644	planet :mod	-0.057843607
-1.1088136	face :mod	-0.057843607
-1.0570035	star :mod	-0.057843607
-0.937686	love-01 :mod	-0.057843607
-0.68457305	anyone :mod	-0.19631882
-1.3848591	live-01 :mod	-0.057843607
-0.9423682	multi-sentence :mod	-0.057843607
-1.4291399	all :mod	-0.057843607
-0.5539897	over-and-over :mod	-0.057843607
-1.3786162	make-02 :mod	-0.057843607
-1.282752	man :mod	-0.057843607
-1.0540019	multiple :mod	-0.057843607
-1.4519991	temporal-quantity :mod	-0.057843607
-1.2033799	have-concession-91 :mod	-0.057843607
-1.1391547	understand-01 :mod	-0.057843607
-1.3594218	more :mod	-0.057843607
-1.0043805	1 :mod	-0.10806654
-0.9640725	unique :mod	-0.057843607
-0.60470647	world :mod	-0.23448381
-1.3394804	date-entity :mod	-0.057843607
-0.9423682	1000000 :mod	-0.057843607
-1.1894822	happy-01 :mod	-0.057843607
-0.93607163	be-located-at-91 :mod	-0.057843607
-0.81327796	thirst-01 :mod	-0.145096
-1.2597655	take-01 :mod	-0.057843607
-1.1371326	draw-01 :mod	-0.057843607
-1.305561	put-01 :mod	-0.057843607
-1.1371326	location :mod	-0.057843607
-0.9423682	go-on-15 :mod	-0.057843607
-0.7506541	such :mod	-0.057843607
-0.9423682	soon :mod	-0.057843607
-1.0487484	simple-02 :mod	-0.057843607
-1.0289227	petal :mod	-0.057843607
-0.6338441	appear-01 :mod	-0.057843607
-1.1609952	one :mod	-0.057843607
-0.8083856	new-01 :mod	-0.057843607
-1.0289227	close-10 :mod	-0.057843607
-1.3044214	any :mod	-0.057843607
-1.317554	other :mod	-0.057843607
-1.2101187	begin-01 :mod	-0.057843607
-1.2913309	beautiful-02 :mod	-0.057843607
-1.1884196	she :mod	-0.057843607
-1.0905671	color :mod	-0.057843607
-1.0289227	field :mod	-0.057843607
-0.8083856	full :mod	-0.057843607
-1.3283055	only :mod	-0.057843607
-0.9640725	last-01 :mod	-0.057843607
-1.0289227	after :mod	-0.057843607
-0.5539897	precise :mod	-0.057843607
-1.1088136	ah :mod	-0.057843607
-0.9423682	guess-01 :mod	-0.057843607
-1.0289227	easy-05 :mod	-0.057843607
-1.0428339	time :mod	-0.057843607
-1.2417535	add-01 :mod	-0.057843607
-0.7874833	need-01 :mod	-0.145096
-0.8048844	speak-01 :mod	-0.19631882
-1.2963661	reply-01 :mod	-0.057843607
-0.5539897	remark-01 :mod	-0.057843607
-1.1540331	under :mod	-0.057843607
-0.5539897	point :mod	-0.057843607
-0.5539897	catch-03 :mod	-0.057843607
-0.5539897	put-03 :mod	-0.057843607
-1.1371326	recommend-01 :mod	-0.057843607
-0.5539897	perfume-01 :mod	-0.057843607
-0.8083856	please-01 :mod	-0.057843607
-0.8083856	fill-01 :mod	-0.057843607
-1.2033799	judge-01 :mod	-0.057843607
-1.2279158	away :mod	-0.057843607
-0.8083856	poor :mod	-0.057843607
-0.5539897	flock-02 :mod	-0.057843607
-1.0905671	clean-out-03 :mod	-0.057843607
-1.2750974	volcano :mod	-0.057843607
-1.0905671	also :mod	-0.057843607
-1.3453478	well :mod	-0.057843607
-1.1088136	return-01 :mod	-0.057843607
-0.5539897	cool-06 :mod	-0.057843607
-1.1894822	good-04 :mod	-0.057843607
-0.9423682	large :mod	-0.057843607
-0.88966113	include-91 :mod	-0.057843607
-0.68457305	inhabit-01 :mod	-0.057843607
-0.8466409	king :mod	-0.057843637
-0.5539897	clad-01 :mod	-0.057843607
-1.2913309	here :mod	-0.057843607
-1.0289227	opine-01 :mod	-0.057843607
-0.9423682	magnificent :mod	-0.057843607
-1.0289227	pass-03 :mod	-0.057843607
-1.0289227	since :mod	-0.057843607
-0.5539897	murmur-01 :mod	-0.057843607
-0.8083856	insist-01 :mod	-0.057843607
-0.60117066	authority :mod	-0.057843607
-1.3108058	person :mod	-0.057843607
-0.89759254	change-01 :mod	-0.19631882
-0.9423682	inquire-01 :mod	-0.057843607
-0.60117066	over :mod	-0.19631882
-0.5539897	power :mod	-0.057843607
-1.1540331	sunset :mod	-0.057843607
-1.0905671	move-01 :mod	-0.057843607
-1.1540331	sad-02 :mod	-0.057843607
-0.4901732	pluck-01 :mod	-0.057843607
-0.47252142	write-01 :mod	-0.057843607
-0.5539897	duty :mod	-0.057843607
-0.5539897	rest-02 :mod	-0.057843607
-1.2786292	forget-01 :mod	-0.057843607
-0.8083856	condition :mod	-0.057843607
-0.9423682	be-temporally-at-91 :mod	-0.057843607
-1.1088136	about :mod	-0.057843607
-0.8083856	lose-02 :mod	-0.057843607
-1.1088136	way :mod	-0.057843607
-0.7506541	nobody :mod	-0.057843607
-1.2750974	walk-01 :mod	-0.057843607
-0.8083856	glance-01 :mod	-0.057843607
-0.8083856	side :mod	-0.057843607
-1.3078561	hear-01 :mod	-0.057843607
-0.8083856	grieve-01 :mod	-0.057843607
-0.9423682	leave-11 :mod	-0.057843607
-0.8083856	strange :mod	-0.057843607
-0.68457305	morning :mod	-0.19631882
-1.0905671	salute-01 :mod	-0.057843607
-0.68457305	differ-02 :mod	-0.057843607
-0.5539897	exercise :mod	-0.057843607
-0.5539897	dress-01 :mod	-0.057843607
-1.0289227	deep-02 :mod	-0.057843607
-0.5539897	collect-01 :mod	-0.057843607
-0.9423682	arrive-01 :mod	-0.057843607
-1.0649737	light-04 :mod	-0.057843607
-0.9423682	500000000 :mod	-0.057843607
-0.9423682	repeat-01 :mod	-0.057843607
-1.3078561	some :mod	-0.057843607
-0.89759254	make-01 :mod	-0.057843607
-1.1136374	sky :mod	-0.057843607
-0.68457305	gold :mod	-0.057843607
-1.2932986	nothing :mod	-0.057843607
-0.8083856	paper :mod	-0.057843607
-0.8083856	converse-01 :mod	-0.057843607
-1.0289227	open-01 :mod	-0.057843607
-1.330097	lamp :mod	-0.057843607
-1.0487484	relative-position :mod	-0.057843607
-1.0487484	house :mod	-0.057843607
-0.8083856	square :mod	-0.057843607
-1.2219806	have-rel-role-91 :mod	-0.057843607
-1.173743	friend :mod	-0.057843607
-1.0035777	tell-01 :mod	-0.057843607
-0.8083856	sunshine :mod	-0.057843607
-0.5539897	scorn-01 :mod	-0.057843607
-1.0289227	something :mod	-0.057843607
-1.1371326	explore-01 :mod	-0.057843607
-1.1540331	travel-01 :mod	-0.057843607
-0.8083856	big :mod	-0.057843607
-1.3696973	geographer :mod	-0.057843607
-1.2913309	mountain :mod	-0.057843607
-0.8083856	recall-02 :mod	-0.057843607
-1.0289227	stone :mod	-0.057843607
-1.0289227	ephemeral :mod	-0.057843607
-1.1509119	become-01 :mod	-0.057843607
-1.2033799	planet/name :mod	-0.057843607
-1.2181072	sure-02 :mod	-0.057843607
-0.5539897	311000000 :mod	-0.057843607
-0.5539897	continent :mod	-0.057843607
-0.8083856	world-region/name :mod	-0.057843607
-1.1371326	responsible-03 :mod	-0.057843607
-0.5539897	surface :mod	-0.057843607
-0.5539897	assemble-02 :mod	-0.057843607
-0.5539897	ocean/name :mod	-0.057843607
-0.5539897	coil :mod	-0.057843607
-1.2058133	snake :mod	-0.057843607
-0.8083856	gaze-01 :mod	-0.057843607
-0.9423682	smile-01 :mod	-0.057843607
-1.0487484	carry-01 :mod	-0.057843607
-1.0289227	meet-03 :mod	-0.057843607
-0.8083856	high-02 :mod	-0.057843607
-0.5539897	snow-01 :mod	-0.057843607
-1.0635306	rose :mod	-0.057843607
-0.8083856	universe :mod	-0.057843607
-0.93605226	laugh-01 :mod	-0.19294132
-0.5539897	perhaps :mod	-0.057843607
-1.3354766	fox :mod	-0.057843607
-0.5539897	propose-01 :mod	-0.057843607
-1.1088136	hunt-01 :mod	-0.057843607
-1.0487484	chicken :mod	-0.057843607
-0.60117066	boy :mod	-0.057843607
-0.8083856	100000 :mod	-0.057843607
-1.0905671	sound-02 :mod	-0.057843607
-1.0905671	step-01 :mod	-0.057843607
-0.8083856	grain :mod	-0.057843607
-0.9423682	hair :mod	-0.057843607
-0.5539897	observe-01 :mod	-0.057843607
-0.5539897	vacation-01 :mod	-0.057843607
-0.5539897	color-01 :mod	-0.057843607
-0.9423682	no-one :mod	-0.057843607
-0.9423682	rush-01 :mod	-0.057843607
-0.9423682	pill :mod	-0.057843607
-0.5539897	dear :mod	-0.057843607
-0.5539897	random :mod	-0.057843607
-0.5539897	enchant-01 :mod	-0.057843607
-0.9423682	fragile :mod	-0.057843607
-0.5539897	suspicious :mod	-0.057843607
-0.8083856	protect-01 :mod	-0.057843607
-0.5539897	extinguish-01 :mod	-0.057843607
-1.1894822	pulley :mod	-0.057843607
-0.5539897	food-dish :mod	-0.057843607
-0.5539897	special-02 :mod	-0.057843607
-0.5539897	nourish-01 :mod	-0.057843607
-0.5539897	fair-01 :mod	-0.057843607
-0.8083856	muzzle :mod	-0.057843607
-0.8083856	tear-01 :mod	-0.057843607
-1.0289227	flush-03 :mod	-0.057843607
-0.5539897	face-01 :mod	-0.057843607
-0.5539897	soothe-01 :mod	-0.057843607
-0.5539897	pleasure :mod	-0.057843607
-0.5539897	malicious :mod	-0.057843607
-0.5539897	stand-up-07 :mod	-0.057843607
-0.5539897	ensure-01 :mod	-0.057843607
-3.2348604	:mod 7	-0.057843607
-3.4712677	:arg1 7	-0.057843607
-2.4021459	:op2 7	-0.057843607
-1.9895654	<s> :poss	-0.28833273
-1.4364976	again :poss	-0.057843607
-1.6910621	little :poss	-0.057843607
-1.755621	thing :poss	-0.057843607
-0.58595246	meditate-01 :poss	-0.057843607
-1.592592	he :poss	-0.145096
-1.6214348	- :poss	-0.057843607
-1.5346335	answer-01 :poss	-0.057843607
-1.5606538	find-01 :poss	-0.057843607
-1.7997005	it :poss	-0.057843607
-1.5107751	have-03 :poss	-0.057843607
-1.3426701	moment :poss	-0.057843607
-1.5796527	that :poss	-0.057843607
-0.58595246	stick-01 :poss	-0.057843607
-0.63206476	engine :poss	-0.19631882
-1.7771237	cause-01 :poss	-0.057843607
-1.3704236	and :poss	-0.19631882
-1.3200947	let-01 :poss	-0.057843607
-1.3342216	believe-01 :poss	-0.057843607
-1.8080215	say-01 :poss	-0.057843607
-1.0251371	hammer :poss	-0.057843607
-1.2836413	think-01 :poss	-0.057843607
-1.9340967	you :poss	-0.057843607
-1.800192	see-01 :poss	-0.057843607
-1.2120984	interrogative :poss	-0.057843607
-1.1892247	resemble-01 :poss	-0.145096
-1.7177382	contrast-01 :poss	-0.057843607
-0.58595246	toss-01 :poss	-0.057843607
-1.4710451	planet :poss	-0.057843607
-1.2210319	face :poss	-0.057843607
-1.8118465	star :poss	-0.057843607
-1.6192408	live-01 :poss	-0.057843607
-1.7014471	all :poss	-0.057843607
-1.5732669	make-02 :poss	-0.057843607
-1.2210319	pride-01 :poss	-0.057843607
-1.5170219	now :poss	-0.057843607
-1.7062179	temporal-quantity :poss	-0.057843607
-0.58595246	nowhere :poss	-0.057843607
-1.4593229	be-located-at-91 :poss	-0.057843607
-1.2748336	draw-01 :poss	-0.057843607
-1.0251371	room :poss	-0.057843607
-1.0348263	prepare-02 :poss	-0.057843607
-1.6883348	she :poss	-0.057843607
-0.58595246	choose-01 :poss	-0.057843607
-0.58595246	adjust-01 :poss	-0.057843607
-1.2233616	wish-01 :poss	-0.057843607
-1.0251371	sun :poss	-0.057843607
-1.2834318	under :poss	-0.057843607
-0.8676	breathe-01 :poss	-0.057843607
-0.8676	behind :poss	-0.057843607
-1.2120984	clean-out-03 :poss	-0.057843607
-1.2120984	earth :poss	-0.057843607
-1.6355497	we :poss	-0.057843607
-0.58595246	place-01 :poss	-0.057843607
-1.6171666	go-02 :poss	-0.057843607
-0.8676	add-02 :poss	-0.057843607
-1.1322818	opine-01 :poss	-0.057843607
-0.58595246	obstruct-01 :poss	-0.057843607
-1.3342216	tire-01 :poss	-0.057843607
-1.3943727	sleep-01 :poss	-0.057843607
-1.612969	order-01 :poss	-0.057843607
-1.0251371	year :poss	-0.057843607
-1.1322818	since :poss	-0.057843607
-0.8676	insist-01 :poss	-0.057843607
-1.8743155	person :poss	-0.057843607
-0.58595246	take-in-23 :poss	-0.057843607
-0.91716266	remember-01 :poss	-0.19631882
-1.0251371	set-out-07 :poss	-0.057843607
-1.2210319	way :poss	-0.057843607
-0.58595246	tour-01 :poss	-0.057843607
-1.0251371	leave-11 :poss	-0.057843607
-1.285673	raise-01 :poss	-0.057843607
-1.0326638	light-04 :poss	-0.31399477
-0.8676	get-01 :poss	-0.057843607
-1.2748336	idea :poss	-0.057843607
-1.1322818	open-01 :poss	-0.057843607
-0.8676	explain-01 :poss	-0.057843607
-0.4176986	put-out-09 :poss	-0.43893352
-0.58595246	study :poss	-0.057843607
-0.58595246	disaster :poss	-0.057843607
-0.8676	sharpen-01 :poss	-0.057843607
-0.58595246	empty-01 :poss	-0.057843607
-1.2748336	responsible-03 :poss	-0.057843607
-0.58595246	people-01 :poss	-0.057843607
-0.5126717	waste-01 :poss	-0.19631882
-0.58595246	abode :poss	-0.057843607
-1.1577444	rose :poss	-0.19631882
-1.2233616	look-02 :poss	-0.057843607
-1.0251371	music :poss	-0.057843607
-0.58595246	out-06 :poss	-0.057843607
-0.8676	sit-01 :poss	-0.057843607
-0.58595246	shake-01 :poss	-0.057843607
-1.0348263	toward :poss	-0.057843607
-0.5126717	memory :poss	-0.057843607
-0.8676	repair-01 :poss	-0.057843607
-0.58595246	agree-01 :poss	-0.057843607
-0.58595246	through :poss	-0.057843607
-0.8676	dig-01 :poss	-0.057843607
-0.58595246	rise-01 :poss	-0.057843607
-0.58595246	tomorrow :poss	-0.057843607
-0.58595246	catch-01 :poss	-0.057843607
-0.58595246	moisten-01 :poss	-0.057843607
-0.58595246	shoot-02 :poss	-0.057843607
-0.58595246	go-back-19 :poss	-0.057843607
-0.58595246	shut-01 :poss	-0.057843607
-0.58595246	impress-01 :poss	-0.057843607
-2.6760175	:poss life	-0.057843607
-3.3956602	:arg1 life	-0.057843607
-3.0934167	:arg2 life	-0.057843607
-2.5581021	:domain life	-0.057843607
-2.300313	<s> :ord	-0.73996353
-1.1949397	life :ord	-0.057843607
-1.4830077	always :ord	-0.057843607
-2.2123492	he :ord	-0.057843607
-1.6839321	answer-01 :ord	-0.057843607
-2.0360982	cause-01 :ord	-0.057843607
-1.8224031	and :ord	-0.19631882
-2.3170717	you :ord	-0.057843607
-1.4303589	know-02 :ord	-0.057843607
-1.0733029	bite-01 :ord	-0.057843607
-1.7121668	date-entity :ord	-0.057843607
-0.60286164	at-once :ord	-0.057843607
-1.1966784	up :ord	-0.057843607
-1.0733029	about-to :ord	-0.057843607
-0.60286164	volume-quantity :ord	-0.057843607
-1.1949397	meet-03 :ord	-0.057843607
-0.90053874	thunder-01 :ord	-0.057843607
-0.90053874	pursue-01 :ord	-0.057843607
-0.04462609	:ord ordinal-entity	-0.23032536
-1.3256365	<s> :time	-0.44497123
-1.4961946	ordinal-entity :time	-0.057843607
-1.4246384	again :time	-0.057843607
-1.6723785	little :time	-0.057843607
-1.468789	prince :time	-0.09311486
-1.4716834	i :time	-0.103253126
-1.0204992	bear-02 :time	-0.057843607
-1.3997462	thing :time	-0.057843607
-1.4919739	question-01 :time	-0.057843607
-1.4815406	he :time	-0.08854609
-1.603875	- :time	-0.057843607
-1.734287	flower :time	-0.057843607
-1.7800535	it :time	-0.057843607
-1.838108	have-03 :time	-0.057843607
-1.3939819	thorn :time	-0.057843607
-1.8363785	amr-unknown :time	-0.057843607
-1.3089842	know-01 :time	-0.19631882
-1.3345203	moment :time	-0.057843607
-1.7576182	cause-01 :time	-0.057843607
-1.553975	and :time	-0.07806891
-1.7480384	come-01 :time	-0.057843607
-1.5291213	just :time	-0.057843607
-1.5676982	then :time	-0.057843607
-1.4919739	back :time	-0.057843607
-1.8196412	they :time	-0.057843607
-1.1363174	instant :time	-0.057843607
-1.4531665	say-01 :time	-0.057843607
-1.7303963	this :time	-0.057843607
-1.6542504	think-01 :time	-0.057843607
-1.5793778	you :time	-0.057843607
-1.4282326	see-01 :time	-0.057843607
-1.3688906	look-01 :time	-0.057843607
-1.4105054	there :time	-0.057843607
-1.402165	down :time	-0.057843607
-1.2145327	talk-01 :time	-0.057843607
-1.3255252	grown-up :time	-0.057843607
-1.2453893	contrast-01 :time	-0.057843637
-1.793188	planet :time	-0.057843607
-1.126355	red-02 :time	-0.057843607
-1.7926623	star :time	-0.057843607
-1.4509218	love-01 :time	-0.057843607
-1.4514375	ever :time	-0.057843607
-1.0204992	except-01 :time	-0.057843607
-1.6825007	all :time	-0.057843607
-1.2145327	pride-01 :time	-0.057843607
-1.7519854	man :time	-0.057843607
-1.2083205	temporal-quantity :time	-0.1215853
-1.6363041	understand-01 :time	-0.057843607
-1.5033547	1 :time	-0.057843607
-1.0204992	bite-01 :time	-0.057843607
-1.5362936	date-entity :time	-0.057843607
-1.4487858	be-located-at-91 :time	-0.057843607
-1.275791	arm :time	-0.057843607
-1.1426021	one :time	-0.057843607
-1.4747652	any :time	-0.057843607
-0.5842597	shrub :time	-0.057843607
-0.8643679	present-02 :time	-0.057843607
-1.2049856	color :time	-0.057843607
-1.275791	exact :time	-0.057843607
-1.2049856	work-01 :time	-0.057843607
-0.8643679	breakfast-01 :time	-0.057843607
-1.275791	exemplify-01 :time	-0.057843607
-1.4844213	reply-01 :time	-0.057843607
-1.275791	globe :time	-0.057843607
-1.0204992	interrupt-01 :time	-0.057843607
-1.0204992	wrong-04 :time	-0.057843607
-1.0204992	serious-01 :time	-0.057843607
-1.2666258	recommend-01 :time	-0.057843607
-1.0309144	listen-01 :time	-0.057843607
-1.4126785	heart :time	-0.057843607
-0.8643679	escape-01 :time	-0.057843607
-1.275791	wind :time	-0.057843607
-1.6026663	go-02 :time	-0.057843607
-1.2145327	visit-01 :time	-0.057843607
-1.402165	include-91 :time	-0.057843607
-1.6397494	king :time	-0.057843607
-1.4668492	here :time	-0.057843607
-1.0204992	year :time	-0.057843607
-1.542636	person :time	-0.057843607
-1.4126785	change-01 :time	-0.057843607
-0.8643679	permit-01 :time	-0.057843607
-1.2049856	move-01 :time	-0.057843607
-1.275791	wait-01 :time	-0.057843607
-1.2049856	else :time	-0.057843607
-1.275791	nobody :time	-0.057843607
-0.8643679	depart-01 :time	-0.057843607
-0.5842597	afar :time	-0.057843607
-1.2049856	salute-01 :time	-0.057843607
-1.0309144	next :time	-0.057843607
-1.4768264	some :time	-0.057843607
-0.5842597	leave-14 :time	-0.057843607
-0.8643679	lazy :time	-0.057843607
-1.2049856	discover-01 :time	-0.057843607
-1.2666258	idea :time	-0.057843607
-1.5407118	lamp :time	-0.057843607
-1.3691725	have-rel-role-91 :time	-0.057843607
-0.5842597	seek-01 :time	-0.057843607
-1.3167125	friend :time	-0.057843607
-1.0204992	rest-01 :time	-0.057843607
-1.3584746	eye :time	-0.057843607
-1.001153	laugh-01 :time	-0.057843607
-1.5219009	fox :time	-0.057843607
-1.2049856	hour :time	-0.057843607
-1.0204992	no-one :time	-0.057843607
-0.5842597	boast-01 :time	-0.057843607
-0.5842597	right-04 :time	-0.057843607
-0.5842597	cabin :time	-0.057843607
-1.0204992	merchandise-01 :time	-0.057843607
-0.5842597	to-be-sure :time	-0.057843607
-1.0204992	home :time	-0.057843607
-0.8643679	lip :time	-0.057843607
-0.8643679	daybreak :time	-0.057843607
-0.5842597	soft :time	-0.057843607
-0.5842597	top :time	-0.057843607
-1.0204992	body :time	-0.057843607
-1.5136917	:time day	-0.21482058
-2.5535202	:arg1 day	-0.057843637
-3.0934167	:arg2 day	-0.057843607
-2.316919	:part-of day	-0.057843607
-1.4565971	:mod again	-0.37061685
-1.4508998	:time always	-0.10806654
-1.5267324	<s> :arg1-of	-0.58352774
-1.3683363	ordinal-entity :arg1-of	-0.057843607
-1.3139392	again :arg1-of	-0.057843607
-1.2618082	always :arg1-of	-0.057843607
-1.3762395	sheep :arg1-of	-0.057843607
-1.5098646	little :arg1-of	-0.057843607
-1.367532	prince :arg1-of	-0.057843607
-1.5428156	i :arg1-of	-0.057843607
-1.3253095	anything :arg1-of	-0.057843607
-0.795688	thing :arg1-of	-0.07512126
-1.3762395	question-01 :arg1-of	-0.057843607
-1.3174857	silent :arg1-of	-0.057843607
-1.4565035	coref :arg1-of	-0.057843637
-1.2220757	he :arg1-of	-0.057843607
-1.4494258	- :arg1-of	-0.057843607
-1.206908	flower :arg1-of	-0.057843607
-1.3565052	too :arg1-of	-0.057843607
-1.4434414	find-01 :arg1-of	-0.057843607
-1.4170697	have-03 :arg1-of	-0.145096
-1.2899944	thorn :arg1-of	-0.057843607
-1.3966975	amr-unknown :arg1-of	-0.057843607
-0.83080137	moment :arg1-of	-0.057843607
-1.477457	that :arg1-of	-0.057843607
-1.3683363	very :arg1-of	-0.057843607
-1.0671388	bolt :arg1-of	-0.057843607
-1.2455246	cause-01 :arg1-of	-0.057843637
-1.4507418	and :arg1-of	-0.057843607
-0.93585956	water :arg1-of	-0.057843607
-1.3935199	obligate-01 :arg1-of	-0.057843607
-0.8309794	go-01 :arg1-of	-0.057843607
-0.97342527	once :arg1-of	-0.057843607
-1.5845708	come-01 :arg1-of	-0.057843607
-1.4015437	just :arg1-of	-0.057843607
-1.1349189	complete-02 :arg1-of	-0.057843607
-1.432988	then :arg1-of	-0.057843607
-1.4040335	they :arg1-of	-0.057843607
-1.4013716	possible-01 :arg1-of	-0.057843637
-1.2280653	most :arg1-of	-0.057843607
-1.6216029	say-01 :arg1-of	-0.057843607
-1.5622958	this :arg1-of	-0.057843607
-1.3019584	still :arg1-of	-0.057843607
-1.5088314	think-01 :arg1-of	-0.057843607
-1.5386305	you :arg1-of	-0.057843607
-1.1663804	do-02 :arg1-of	-0.057843607
-1.3521272	3 :arg1-of	-0.057843607
-1.6241903	see-01 :arg1-of	-0.057843607
-1.1349189	interrogative :arg1-of	-0.057843607
-0.97342527	finger :arg1-of	-0.057843607
-1.5562645	resemble-01 :arg1-of	-0.057843607
-1.2414247	grown-up :arg1-of	-0.057843607
-1.5343839	contrast-01 :arg1-of	-0.057843607
-0.97342527	together :arg1-of	-0.057843607
-1.3748769	planet :arg1-of	-0.057843637
-1.1500422	face :arg1-of	-0.057843607
-1.2414247	certain :arg1-of	-0.057843607
-1.3707687	star :arg1-of	-0.057843607
-1.3521272	love-01 :arg1-of	-0.057843607
-1.1537138	live-01 :arg1-of	-0.057843607
-1.2586949	all :arg1-of	-0.057843637
-1.0614845	man :arg1-of	-0.057843607
-1.3782331	now :arg1-of	-0.057843607
-1.252206	temporal-quantity :arg1-of	-0.057843607
-1.2618082	have-concession-91 :arg1-of	-0.057843607
-1.1748772	understand-01 :arg1-of	-0.057843607
-0.96799433	important :arg1-of	-0.057843607
-1.0974228	more :arg1-of	-0.057843607
-0.5664219	fat-03 :arg1-of	-0.057843607
-1.3782331	1 :arg1-of	-0.057843607
-1.3664917	world :arg1-of	-0.057843607
-0.97342527	single-02 :arg1-of	-0.057843607
-1.4114641	date-entity :arg1-of	-0.057843607
-0.6131962	someone :arg1-of	-0.057843607
-1.404636	or :arg1-of	-0.057843607
-1.3746513	die-01 :arg1-of	-0.057843607
-0.49898237	endanger-01 :arg1-of	-0.19631882
-0.5664219	railing :arg1-of	-0.057843607
-1.3632432	put-01 :arg1-of	-0.057843607
-1.2280653	feel-01 :arg1-of	-0.057843607
-1.1868019	location :arg1-of	-0.057843607
-0.97342527	go-on-15 :arg1-of	-0.057843607
-0.8309794	seed :arg1-of	-0.057843607
-1.5125836	one :arg1-of	-0.057843607
-0.9937186	any :arg1-of	-0.057843637
-1.3883606	other :arg1-of	-0.057843607
-1.3565052	beautiful-02 :arg1-of	-0.057843607
-0.97342527	shelter-01 :arg1-of	-0.057843607
-1.2414247	great :arg1-of	-0.057843607
-0.5664219	rumple-02 :arg1-of	-0.057843607
-1.4015437	only :arg1-of	-0.057843607
-1.1500422	show-01 :arg1-of	-0.057843607
-1.1349189	work-01 :arg1-of	-0.057843607
-0.97342527	guess-01 :arg1-of	-0.057843607
-0.97342527	move-05 :arg1-of	-0.057843607
-1.0761609	time :arg1-of	-0.057843607
-0.5664219	can :arg1-of	-0.057843607
-0.97342527	quick-02 :arg1-of	-0.057843607
-1.2009887	exemplify-01 :arg1-of	-0.057843607
-1.3655766	reply-01 :arg1-of	-0.057843607
-0.8309794	draft :arg1-of	-0.057843607
-1.2009887	globe :arg1-of	-0.057843607
-0.5664219	remorse :arg1-of	-0.057843607
-0.5664219	will :arg1-of	-0.057843607
-0.8309794	breathe-01 :arg1-of	-0.057843607
-0.9217089	heart :arg1-of	-0.057843607
-1.2899944	away :arg1-of	-0.057843607
-0.5664219	affection :arg1-of	-0.057843607
-1.0671388	bird :arg1-of	-0.057843607
-0.9567193	volcano :arg1-of	-0.057843607
-0.5664219	food :arg1-of	-0.057843607
-1.1349189	also :arg1-of	-0.057843607
-1.4166611	well :arg1-of	-0.057843607
-0.5664219	burn-01 :arg1-of	-0.057843607
-0.8309794	erupt-01 :arg1-of	-0.057843607
-1.1722522	we :arg1-of	-0.057843607
-1.0671388	realize-01 :arg1-of	-0.057843607
-1.2280653	equal :arg1-of	-0.057843607
-1.1443988	go-02 :arg1-of	-0.057843607
-1.3019584	include-91 :arg1-of	-0.057843607
-1.5041227	king :arg1-of	-0.057843607
-0.5664219	throne :arg1-of	-0.057843607
-0.9629635	sit-down-02 :arg1-of	-0.19631882
-1.4650681	order-01 :arg1-of	-0.057843607
-1.2009887	sometimes :arg1-of	-0.057843607
-1.0496459	person :arg1-of	-0.057843607
-1.2009887	obey-01 :arg1-of	-0.057843607
-0.8309794	magnificence :arg1-of	-0.057843607
-1.3008353	remember-01 :arg1-of	-0.057843607
-0.97342527	receive-01 :arg1-of	-0.057843607
-1.0671388	each :arg1-of	-0.057843607
-0.5664219	remind-01 :arg1-of	-0.057843607
-0.9579903	forget-01 :arg1-of	-0.057843607
-1.2009887	wait-01 :arg1-of	-0.057843607
-1.1349189	else :arg1-of	-0.057843607
-0.5664219	consult-01 :arg1-of	-0.057843607
-1.1349189	already :arg1-of	-0.057843607
-1.2009887	nobody :arg1-of	-0.057843607
-1.1868019	old :arg1-of	-0.057843607
-0.9567193	walk-01 :arg1-of	-0.057843607
-0.5664219	wise :arg1-of	-0.057843607
-1.3708906	hear-01 :arg1-of	-0.057843607
-0.5664219	occasion-02 :arg1-of	-0.057843607
-1.1349189	hat :arg1-of	-0.057843607
-1.2908435	mean-01 :arg1-of	-0.057843607
-1.2449312	interest-01 :arg1-of	-0.057843607
-1.3282853	businessman :arg1-of	-0.057843607
-1.0997689	light-04 :arg1-of	-0.057843607
-0.97342527	repeat-01 :arg1-of	-0.057843607
-0.9949769	some :arg1-of	-0.057843607
-0.5664219	goodness :arg1-of	-0.057843607
-0.8309794	noise :arg1-of	-0.057843607
-0.8309794	loaf-01 :arg1-of	-0.057843607
-1.3628737	nothing :arg1-of	-0.057843607
-1.1349189	discover-01 :arg1-of	-0.057843607
-0.5664219	natural-02 :arg1-of	-0.057843607
-0.8309794	rather :arg1-of	-0.057843607
-1.4063735	lamp :arg1-of	-0.057843607
-0.5664219	handkerchief :arg1-of	-0.057843607
-0.5664219	decorate-01 :arg1-of	-0.057843607
-0.8309794	follow-02 :arg1-of	-0.057843607
-1.0671388	something :arg1-of	-0.057843607
-1.1349189	book :arg1-of	-0.057843607
-1.4447471	geographer :arg1-of	-0.057843607
-1.4669348	desert :arg1-of	-0.057843607
-0.8309794	record-01 :arg1-of	-0.057843607
-0.5664219	900000 :arg1-of	-0.057843607
-0.5664219	regulate-01 :arg1-of	-0.057843607
-1.0671388	continent/name :arg1-of	-0.057843607
-0.5664219	charge-05 :arg1-of	-0.057843607
-1.1868019	responsible-03 :arg1-of	-0.057843607
-0.6131962	distance-quantity :arg1-of	-0.057843607
-0.9365952	sand :arg1-of	-0.057843607
-0.5664219	climb-01 :arg1-of	-0.057843607
-0.33388767	rock :arg1-of	-0.057843607
-0.97342527	garden :arg1-of	-0.057843607
-0.93585956	fox :arg1-of	-0.145096
-0.8309794	often :arg1-of	-0.057843607
-1.1349189	sound-02 :arg1-of	-0.057843607
-1.1349189	step-01 :arg1-of	-0.057843607
-0.97342527	hair :arg1-of	-0.057843607
-1.1349189	hour :arg1-of	-0.057843607
-0.5664219	brilliant-02 :arg1-of	-0.057843607
-0.8309794	roar-01 :arg1-of	-0.057843607
-0.97342527	pill :arg1-of	-0.057843607
-0.5664219	tremendous :arg1-of	-0.057843607
-0.6131962	spring :arg1-of	-0.19631882
-0.5664219	image :arg1-of	-0.057843607
-0.5664219	being :arg1-of	-0.057843607
-0.8309794	flame-01 :arg1-of	-0.057843607
-0.5664219	hole :arg1-of	-0.057843607
-0.97342527	bucket :arg1-of	-0.057843607
-0.5664219	moan-01 :arg1-of	-0.057843607
-0.5664219	long :arg1-of	-0.057843607
-0.5664219	festival :arg1-of	-0.057843607
-0.5664219	honor-02 :arg1-of	-0.057843607
-0.5664219	picture :arg1-of	-0.057843607
-0.5664219	rough-04 :arg1-of	-0.057843607
-0.5664219	draft-01 :arg1-of	-0.057843607
-0.5664219	plan-01 :arg1-of	-0.057843607
-1.0671388	flush-03 :arg1-of	-0.057843607
-0.5664219	chance-02 :arg1-of	-0.057843607
-0.5664219	stroll-01 :arg1-of	-0.057843607
